32 69
0.000000 0.200000 0.400000 0.600000 0.800000 1.000000 1.200000 1.400000 1.600000 1.800000 2.000000 2.200000 2.400000 2.600000 2.800000 3.000000 3.200000 3.400000 3.600000 3.800000 4.000000 4.200000 4.400000 4.600000 4.800000 5.000000 5.200000 5.400000 5.600000 5.800000 6.000000 6.200000 6.400000 6.600000 6.800000 7.000000 7.200000 7.400000 7.600000 7.800000 8.000000 8.200000 8.400000 8.600000 8.800000 9.000000 9.200000 9.400000 9.600000 9.800000 10.000000 10.200000 10.400000 10.600000 10.800000 11.000000 11.200000 11.400000 11.600000 11.800000 12.000000 12.200000 12.400000 12.600000 12.800000 13.000000 13.200000 13.400000 13.600000 13.800000
0 0 0 0 0 0 0 0 0 0 0 0 0 0 0 0 0 0 0 0 0 0 0 0 0 0 0 0 0 0 0 0 0 1 0 1 1 0 0 2 0 1 0 1 2 1 3 0 3 6 6 7 5 4 11 8 4 9 20 15 15 17 17 29 22 20 24 30 52
0 0 0 0 0 0 0 0 0 0 0 0 0 0 0 0 0 0 0 0 1 0 0 0 0 0 0 0 1 0 0 0 1 1 0 0 1 1 1 0 2 1 0 1 1 2 3 0 0 2 8 6 3 7 7 7 5 9 12 9 14 16 23 17 28 29 34 31 44
0 0 0 0 0 0 0 0 0 0 0 0 0 0 0 0 0 0 0 0 0 0 0 0 0 0 0 0 0 0 0 2 0 1 0 1 0 0 0 0 4 1 2 1 2 1 0 3 3 1 3 2 6 7 9 10 10 13 10 20 16 14 19 24 22 44 43 45 50
0 0 0 0 0 0 0 0 0 0 0 0 0 0 0 0 0 0 0 0 0 0 0 0 0 0 0 0 1 0 0 0 0 0 1 1 0 0 2 0 2 1 1 1 2 1 2 3 4 4 7 8 11 4 6 10 11 8 14 14 26 20 17 23 22 30 38 46 53
0 0 0 0 0 0 0 0 0 0 0 0 0 0 0 0 0 0 0 0 0 0 0 0 0 0 0 0 0 0 0 0 1 1 0 0 0 0 1 0 0 2 1 2 1 3 2 2 2 6 2 3 7 2 4 12 9 11 17 15 18 20 16 16 23 33 30 51 47
0 0 0 0 0 0 0 0 0 0 0 0 0 0 0 0 0 0 0 0 0 0 0 0 0 0 0 0 0 0 0 1 0 1 0 1 0 0 1 0 0 0 2 3 2 3 1 1 6 3 5 7 7 3 4 8 12 15 12 23 20 22 22 33 33 38 44 41 34
0 0 0 0 0 0 0 0 0 0 0 0 0 0 0 0 0 0 0 0 0 0 0 0 0 0 0 0 0 0 0 0 0 0 0 0 0 0 0 1 0 0 0 1 2 4 1 4 3 2 6 3 7 6 7 7 14 14 11 18 13 20 27 23 27 31 41 47 45
0 0 0 0 0 0 0 0 0 0 0 0 0 0 0 0 0 0 0 0 0 0 0 0 0 0 0 0 0 0 0 0 0 0 0 1 0 1 0 1 0 0 2 3 3 3 1 1 3 3 1 4 7 9 4 14 10 13 9 9 19 29 24 27 33 39 39 37 44
0 0 0 0 0 0 0 0 0 0 0 0 0 0 0 0 0 0 0 0 1 0 0 0 0 0 0 0 0 0 0 0 0 0 1 1 1 0 0 0 0 0 1 1 2 2 1 2 3 4 4 6 6 4 10 11 6 12 13 10 12 19 30 24 25 35 35 46 43
0 0 0 0 0 0 0 0 0 0 0 0 0 0 0 0 0 0 0 0 0 0 0 0 0 0 0 0 0 0 0 0 0 1 0 0 1 0 0 0 1 2 1 2 0 1 4 4 3 4 6 6 3 3 10 8 10 11 16 15 18 27 27 21 30 32 34 46 36
0 0 0 0 0 0 0 0 0 0 0 0 0 0 0 0 0 0 0 0 0 0 0 0 0 0 0 0 1 0 0 2 0 0 0 0 0 0 0 0 0 0 3 4 2 2 5 3 5 4 4 4 7 6 7 9 12 12 8 9 16 19 16 26 35 40 37 45 37
0 0 0 0 0 0 0 0 0 0 0 0 0 0 0 0 0 0 0 0 0 0 0 0 0 0 0 0 0 0 0 0 0 1 0 0 0 1 2 1 2 1 1 1 2 1 1 3 2 2 3 3 6 4 5 3 15 11 16 16 27 16 16 24 21 27 38 27 40
0 0 0 0 0 0 0 0 0 0 0 0 0 0 0 0 0 0 0 0 0 0 0 0 0 0 0 0 1 0 0 0 0 1 0 0 1 0 0 1 1 0 0 1 2 5 0 3 2 6 5 3 5 7 12 9 11 12 15 18 15 24 22 25 38 33 42 37 39
0 0 0 0 0 0 0 0 0 0 0 0 0 0 0 0 0 1 1 0 0 0 0 0 0 0 1 0 0 0 0 0 0 0 0 0 1 0 1 0 0 2 2 1 2 2 1 2 0 4 9 1 6 7 7 10 19 9 10 10 18 23 27 20 33 26 25 34 48
0 0 0 0 0 0 0 0 0 0 0 0 0 0 0 0 0 0 0 0 0 0 0 0 0 0 0 0 0 0 0 0 0 1 0 0 1 1 1 2 0 1 4 0 0 3 0 0 4 3 1 8 8 7 12 10 12 6 16 12 16 21 25 33 21 37 43 43 55
0 0 0 0 0 0 0 0 0 0 0 0 0 0 0 0 0 0 0 1 0 0 0 0 0 0 0 0 0 0 0 0 0 0 1 0 1 0 0 0 0 4 0 0 3 4 4 3 5 5 3 4 6 7 5 5 7 9 18 12 17 23 22 18 27 32 32 41 51
0 0 0 0 0 0 0 0 0 0 0 0 0 0 0 0 0 0 0 0 0 0 0 0 0 0 0 0 0 0 0 0 1 0 0 0 0 2 0 0 0 0 1 1 1 3 2 1 2 2 6 8 2 4 8 13 10 10 16 15 27 25 24 22 32 24 53 34 36
0 0 0 0 0 0 0 0 0 0 0 0 0 0 0 0 0 0 0 0 0 0 0 0 0 0 0 0 0 0 0 0 1 0 0 0 3 0 2 0 2 0 2 1 0 2 3 1 4 5 6 4 3 2 7 6 8 8 15 19 16 17 23 21 29 27 24 44 46
0 0 0 0 0 0 0 0 0 0 0 0 0 0 0 0 0 1 0 0 0 0 0 0 0 0 0 0 0 0 0 0 0 1 0 1 3 1 0 1 2 2 3 0 3 0 2 1 2 1 2 8 6 6 10 4 15 8 14 14 15 22 29 25 23 41 34 43 40
0 0 0 0 0 0 0 0 0 0 0 0 0 0 0 0 0 0 0 0 0 0 0 0 0 0 1 0 0 0 0 2 2 0 1 0 0 0 3 2 0 0 3 1 1 0 2 0 4 3 6 7 5 6 8 6 8 13 12 13 12 20 32 18 29 40 37 38 43
0 0 0 0 0 0 0 0 0 0 0 0 0 0 0 0 0 0 0 0 0 0 0 0 0 0 0 1 0 0 1 0 0 0 1 0 0 2 0 0 0 2 2 4 2 2 2 3 3 3 7 5 4 6 12 10 12 10 9 14 13 19 33 19 21 32 41 41 42
0 0 0 0 0 0 0 0 0 0 0 0 0 0 0 0 0 0 0 0 0 0 0 0 0 0 0 0 0 0 1 0 0 0 1 0 0 0 1 0 1 1 1 3 1 1 2 1 3 2 2 4 7 8 10 9 11 14 13 11 11 24 19 20 34 46 45 30 34
0 0 0 0 0 0 0 0 0 0 0 0 0 0 0 0 0 0 0 0 0 0 0 0 0 0 0 0 0 0 0 1 0 0 0 0 0 0 1 0 0 0 1 1 3 1 4 4 2 2 3 6 9 10 5 6 7 14 10 11 20 24 19 27 24 32 45 37 45
0 0 0 0 0 0 0 0 0 0 0 0 0 0 0 0 0 0 0 0 0 0 0 0 0 0 1 0 0 0 0 0 0 0 0 2 0 0 0 0 0 3 1 1 3 1 4 1 1 5 6 6 11 3 4 7 8 11 17 11 16 29 23 27 34 18 43 33 46
0 0 0 0 0 0 0 0 0 0 0 0 0 0 0 0 0 0 0 0 0 0 1 0 0 0 1 0 0 0 0 0 0 0 0 0 0 0 1 0 1 1 1 3 0 1 2 2 1 4 2 2 7 6 7 10 6 11 9 21 20 22 25 32 29 29 35 46 56
0 0 0 0 0 0 0 0 0 0 0 0 0 0 0 0 0 0 0 0 0 0 0 0 0 0 0 0 0 0 0 0 0 0 0 0 0 3 1 2 2 2 1 1 1 4 2 1 1 4 4 7 10 4 5 8 11 13 14 17 20 21 22 29 36 32 39 40 46
0 0 0 0 0 0 0 0 0 0 0 0 0 0 0 0 0 0 0 0 0 0 0 0 0 0 0 0 0 0 0 0 0 0 0 1 0 0 1 0 1 4 0 0 1 0 0 0 0 0 8 8 9 8 5 7 8 9 9 15 15 21 23 25 35 31 24 47 37
0 0 0 0 0 0 0 0 0 0 0 0 0 0 0 0 0 0 0 0 0 0 0 0 0 0 0 0 0 0 0 1 0 0 0 0 0 1 1 0 0 0 1 2 1 1 5 2 2 2 3 5 9 7 9 7 10 7 13 18 16 20 25 21 31 26 39 28 60
0 0 0 0 0 0 0 0 0 0 0 0 0 0 0 0 0 0 0 0 0 0 0 0 0 0 0 0 0 0 0 0 0 1 1 0 1 0 0 1 0 2 1 2 2 0 1 2 1 4 9 5 6 8 10 5 8 18 9 19 14 20 18 26 30 26 45 44 46
0 0 0 0 0 0 0 0 0 0 0 0 0 0 0 0 0 0 0 0 0 0 0 0 0 0 0 0 0 0 0 0 0 1 0 1 1 2 1 1 3 0 0 0 3 3 0 4 4 5 6 7 5 6 11 7 4 16 8 19 13 23 14 25 27 27 27 40 49
0 0 0 0 0 0 0 0 0 0 0 0 0 0 0 0 0 0 0 0 0 0 0 0 1 0 0 0 0 0 0 0 0 0 0 0 0 0 0 0 0 3 1 0 4 0 3 2 1 1 2 2 6 5 4 13 7 6 10 23 14 22 21 23 19 43 29 52 48
0 0 0 0 0 0 0 0 0 0 0 0 0 0 0 0 0 0 0 0 0 0 0 0 1 0 0 0 0 0 0 0 0 1 0 1 0 0 2 2 1 0 0 1 2 4 3 2 1 1 3 3 16 6 5 6 15 14 13 15 15 24 23 25 27 34 36 36 35
0 0 0 0 0 0 0 0 0 0 0 0 0 0 0 0 0 0 0 0 0 0 0 0 0 0 0 0 0 0 0 0 0 0 0 1 0 0 0 1 1 0 0 3 2 2 1 2 1 3 3 5 4 4 9 10 6 8 11 15 19 22 23 35 33 29 32 38 48
0 0 0 0 0 0 0 0 0 0 0 0 0 0 0 0 0 0 0 0 0 0 0 1 0 1 0 0 0 0 0 0 1 0 0 2 1 0 3 0 1 1 3 4 2 3 2 1 3 5 5 4 6 10 5 10 7 11 16 20 13 21 19 31 27 28 48 32 52
0 0 0 0 0 0 0 0 0 0 0 0 0 0 0 0 0 0 0 0 0 0 0 0 0 0 1 0 0 0 0 1 0 0 0 1 2 0 1 1 0 1 0 0 2 1 2 6 3 3 3 5 6 2 10 12 15 9 7 18 16 20 23 16 32 18 46 40 38
0 0 0 0 0 0 0 0 0 0 0 0 0 0 0 0 0 0 0 0 0 0 0 0 0 0 1 0 0 0 0 0 0 0 0 3 1 0 0 0 2 0 1 1 1 2 0 3 2 3 2 3 4 6 7 8 11 11 11 21 15 25 22 28 17 24 37 37 55
0 0 0 0 0 0 0 0 0 0 0 0 0 0 0 0 0 0 0 0 0 0 0 0 0 0 0 0 0 0 0 0 0 0 1 0 1 0 2 1 0 1 1 2 0 1 3 3 4 7 7 10 3 9 8 10 15 16 13 14 12 13 23 23 31 30 29 38 44
0 0 0 0 0 0 0 0 0 0 0 0 0 0 0 0 0 0 0 0 1 0 0 0 0 0 0 0 0 0 0 0 0 1 0 0 0 0 0 1 3 1 1 0 3 4 0 1 1 3 4 4 4 4 6 11 14 10 14 12 17 21 28 18 13 37 30 38 55
0 0 0 0 0 0 0 0 0 0 0 0 0 0 0 0 0 0 0 0 0 0 0 0 0 0 0 0 0 1 0 0 1 1 1 0 2 1 1 0 0 1 0 0 3 1 2 3 3 2 3 6 7 6 6 5 6 10 14 15 15 19 14 18 21 25 35 22 52
0 0 0 0 0 0 0 0 0 0 0 0 1 0 0 0 0 0 0 0 0 0 0 0 0 0 0 0 0 0 0 0 1 0 0 1 0 2 1 1 0 0 1 0 3 3 1 1 9 3 3 5 1 6 4 7 8 3 12 9 13 19 19 20 28 33 47 41 48
0 0 0 0 0 0 0 0 0 0 0 0 0 0 0 0 0 0 0 0 0 0 0 0 0 0 0 0 1 0 0 0 0 0 2 0 0 0 1 2 0 0 0 1 0 6 4 4 3 4 0 5 7 7 10 11 8 10 16 12 13 16 21 21 32 33 39 25 53
0 0 0 0 0 0 0 0 0 0 0 0 0 0 0 0 0 0 0 0 0 0 0 0 0 0 0 0 0 0 0 1 1 0 1 1 0 0 0 1 0 1 4 0 1 3 1 1 3 0 4 5 7 10 5 9 3 8 24 20 15 16 19 24 31 26 29 34 36
0 0 0 0 0 0 0 0 0 0 0 0 0 0 0 0 0 0 0 0 0 0 0 0 0 0 0 0 0 0 0 0 1 0 0 0 2 2 3 0 1 2 6 2 0 0 4 2 2 5 4 2 4 10 6 11 7 11 14 13 19 24 22 30 29 38 36 53 41
0 0 0 0 0 0 0 0 0 0 0 0 0 0 0 0 0 0 0 0 0 0 0 0 0 0 0 1 0 0 0 0 0 0 0 0 0 2 0 1 1 1 2 0 2 1 2 2 5 1 3 2 2 3 3 4 13 5 20 25 21 17 22 21 31 27 41 47 42
0 0 0 0 0 0 0 0 0 0 0 0 0 0 0 0 0 0 0 0 0 0 0 0 0 0 0 0 0 0 1 0 0 0 0 1 0 1 0 3 1 1 0 2 1 3 1 4 7 2 1 6 8 8 11 11 6 7 13 9 20 22 17 27 37 33 35 47 47
0 0 0 0 0 0 0 0 0 0 0 0 0 0 0 0 0 0 0 0 0 0 0 0 0 0 0 0 0 0 0 0 0 0 1 0 0 0 0 2 0 1 0 0 1 1 2 3 2 2 4 4 12 7 9 8 15 9 14 13 18 16 26 19 22 21 39 47 39
0 0 0 0 0 0 0 0 0 0 0 0 0 0 0 0 0 0 0 0 0 0 0 0 0 0 0 0 1 1 0 0 0 0 0 1 0 0 1 1 1 0 1 0 0 1 1 0 5 4 6 8 2 4 8 6 9 14 7 10 15 17 26 21 37 42 26 37 42
0 0 0 0 0 0 0 0 0 0 0 0 0 0 0 0 0 0 0 0 0 0 0 0 0 0 0 0 0 1 0 0 1 0 0 1 0 0 0 2 0 0 4 2 1 3 2 0 2 1 7 4 8 4 6 10 10 9 10 18 21 15 14 23 16 34 40 35 44
0 0 0 0 0 0 0 0 0 0 0 0 0 0 0 0 0 0 0 0 1 0 0 0 1 0 0 0 0 0 0 0 0 0 2 0 1 1 1 2 2 3 2 0 1 5 0 1 1 4 2 4 9 4 7 7 6 7 17 16 20 14 19 24 27 27 36 38 42
0 0 0 0 0 0 0 0 0 0 0 0 0 0 0 0 0 0 0 0 0 0 0 0 0 0 0 0 0 0 0 0 1 0 1 0 0 0 1 0 1 1 0 0 1 2 3 1 3 5 9 6 3 5 5 7 9 14 14 22 22 19 10 20 25 32 37 38 50
0 0 0 0 0 0 0 0 0 0 0 0 0 0 0 0 0 0 0 0 0 0 0 0 0 0 0 0 0 1 0 0 0 1 0 0 0 1 0 1 0 0 0 1 0 2 2 2 5 3 7 3 2 10 8 10 7 11 14 11 18 20 23 23 18 26 37 40 49
0 0 0 0 0 0 0 0 0 0 0 0 0 0 0 0 0 0 0 0 0 0 0 0 0 0 0 0 1 0 0 0 2 1 0 0 2 0 1 1 0 1 0 3 1 3 4 2 1 3 3 3 1 7 3 8 11 15 13 16 17 26 21 17 24 28 39 43 41
0 0 0 0 0 0 0 0 0 0 0 0 0 0 0 0 0 0 0 0 0 0 1 0 0 0 0 0 1 0 2 1 1 0 2 1 2 2 0 1 1 3 2 0 2 1 2 2 6 5 6 6 6 10 8 8 13 18 16 14 13 19 24 20 34 26 42 51 45
0 0 0 0 0 0 0 0 0 0 0 0 0 0 0 0 0 0 0 0 0 0 0 1 0 0 0 0 0 0 1 0 1 0 0 0 0 0 0 2 2 1 1 0 1 2 4 3 2 1 6 5 4 6 14 8 10 11 14 16 15 16 29 29 34 29 30 50 35
0 0 0 0 0 0 0 0 0 0 0 0 0 0 0 0 0 0 0 0 0 0 0 0 1 0 0 0 0 0 0 0 0 1 0 0 0 2 0 0 1 0 1 1 1 3 1 2 4 3 0 4 5 7 5 7 6 9 11 16 21 21 15 35 29 37 26 44 42
0 0 0 0 0 0 0 0 0 0 0 0 0 0 0 0 0 0 0 0 0 0 0 0 1 0 0 0 0 0 0 0 0 0 1 1 0 1 1 1 4 1 1 0 0 1 3 2 2 7 4 3 5 4 7 10 6 13 9 12 16 24 25 22 26 32 30 33 49
0 0 0 0 0 0 0 0 0 0 0 0 0 0 0 0 0 0 0 0 0 0 0 0 0 0 0 1 0 0 1 0 0 1 0 1 0 0 0 1 1 1 1 1 0 1 2 1 5 6 1 4 7 9 9 6 14 10 10 16 18 22 26 29 29 36 35 50 50
0 0 0 0 0 0 0 0 0 0 0 0 0 0 0 0 0 0 0 0 0 0 0 0 0 0 0 0 0 0 0 0 0 1 0 1 0 0 1 0 0 3 3 1 0 1 0 2 3 2 5 2 4 3 7 11 6 9 14 15 16 20 22 22 20 33 39 37 35
0 0 0 0 0 0 0 0 0 0 0 0 0 0 0 0 0 0 0 0 0 0 0 0 0 0 0 1 0 0 0 1 0 0 1 0 1 0 2 0 2 1 0 0 1 1 3 3 5 2 5 6 8 12 9 6 8 8 11 16 18 18 24 24 34 36 31 37 49
0 0 0 0 0 0 0 0 0 0 0 0 0 0 0 0 0 0 0 0 0 0 0 0 0 0 0 0 0 0 0 0 0 0 0 0 1 1 0 0 0 1 2 1 1 4 2 8 5 3 11 3 5 4 8 9 11 15 10 13 17 19 21 33 40 35 38 39 61
0 0 0 0 0 0 0 0 0 0 0 0 0 0 0 0 0 0 0 0 0 0 0 0 0 0 0 0 0 0 0 0 0 1 0 0 2 1 0 1 0 0 2 1 4 1 1 4 0 2 3 6 8 5 10 8 7 11 18 16 13 19 24 30 38 42 39 48 39
0 0 0 0 0 0 0 0 0 0 0 0 0 0 0 0 0 0 0 0 0 0 0 0 0 0 0 0 0 0 0 0 0 0 0 1 0 0 0 0 1 1 3 0 2 0 1 4 1 3 4 0 5 8 8 3 7 13 11 12 16 22 25 28 30 31 24 42 45
0 0 0 0 0 0 0 0 0 0 0 0 0 0 0 0 0 0 0 0 0 0 0 0 0 0 0 0 0 0 0 1 0 0 0 1 0 1 1 0 0 1 0 1 1 3 4 2 3 7 5 3 8 4 6 13 11 12 12 11 22 19 19 21 33 40 31 37 46
0 0 0 0 0 0 0 0 0 0 0 0 0 0 0 0 0 0 0 0 0 0 0 0 0 0 0 0 0 0 0 0 0 0 0 0 1 0 1 2 1 0 2 2 1 1 4 4 3 7 5 6 6 7 10 12 9 9 10 22 20 16 26 25 22 35 44 35 41
0 0 0 0 0 0 0 0 0 0 0 0 0 0 0 0 0 0 0 0 0 0 0 0 0 0 0 0 1 0 0 0 0 0 0 0 0 1 1 0 0 1 0 1 1 1 2 1 3 1 4 8 7 6 10 12 5 10 12 22 15 23 26 25 32 33 42 43 49
0 0 0 0 0 0 0 0 0 0 0 0 0 0 0 0 0 0 0 0 0 0 1 0 0 0 0 0 0 0 0 0 0 0 1 0 1 0 1 0 0 2 2 0 1 3 2 3 3 4 2 3 5 4 7 10 15 9 19 12 17 32 23 32 27 26 41 57 49
0 0 0 0 0 0 0 0 0 0 0 0 0 0 0 0 0 0 0 0 0 0 0 0 0 0 0 0 0 0 0 2 0 0 0 1 0 2 1 2 0 1 1 2 3 0 5 4 4 4 7 7 5 8 8 7 8 7 17 15 9 18 21 20 32 34 35 34 60
0 0 0 0 0 0 0 0 0 0 0 0 0 0 0 0 0 0 0 0 0 0 0 0 0 0 0 0 0 0 0 0 0 3 0 0 0 0 0 1 0 0 1 1 2 7 4 0 4 3 4 7 8 4 7 9 10 9 8 6 21 16 30 25 34 34 37 33 42
0 0 0 0 0 0 0 0 0 0 0 0 0 0 0 0 0 0 0 0 0 0 0 0 0 0 0 0 0 0 0 0 0 3 0 1 0 0 0 0 0 2 1 3 0 1 2 4 5 4 5 7 4 8 6 11 13 13 18 12 9 16 23 28 32 33 35 43 36
0 0 0 0 0 0 0 0 0 0 0 0 0 0 0 0 0 0 0 0 0 0 0 0 0 0 0 0 0 0 0 1 0 1 1 0 0 1 1 0 1 2 1 4 4 1 1 5 5 7 3 5 7 5 15 14 9 9 17 12 21 21 21 22 27 31 31 38 36
0 0 0 0 0 0 0 0 0 0 0 0 0 0 0 0 0 0 0 0 0 0 0 0 0 0 0 0 0 0 0 0 0 0 1 0 0 1 0 1 0 2 0 1 2 1 2 3 1 0 6 6 5 9 5 10 10 9 9 19 23 22 25 20 29 28 35 43 41
0 0 0 0 0 0 0 0 0 0 0 0 0 0 0 0 0 0 0 0 0 0 0 0 0 0 0 0 0 0 0 2 0 0 0 1 0 0 0 0 2 2 2 2 0 3 4 3 1 2 5 6 8 12 7 9 11 8 18 9 9 20 28 28 31 36 31 48 50
0 0 0 0 0 0 0 0 0 0 0 0 0 0 0 0 0 0 0 0 0 0 0 0 0 0 0 0 0 0 0 0 0 0 1 0 0 2 1 0 0 0 0 3 1 0 1 4 3 7 3 4 8 8 7 9 13 14 8 16 19 14 14 30 32 31 35 43 41
0 0 0 0 0 0 0 0 0 0 0 0 0 0 0 0 0 0 0 0 0 0 0 0 0 0 0 0 0 1 0 0 0 0 1 0 1 1 1 1 0 2 0 2 4 1 0 5 1 2 1 4 7 6 4 5 7 11 8 19 15 27 17 23 36 28 33 36 45
0 0 0 0 0 0 0 0 0 0 0 0 0 0 0 0 0 0 0 0 1 0 0 0 0 0 0 0 0 0 0 0 1 0 0 0 0 0 1 0 2 0 1 1 2 3 2 0 3 1 3 7 10 6 4 13 11 7 10 11 9 15 21 23 32 42 30 43 49
0 0 0 0 0 0 0 0 0 0 0 0 0 0 0 0 0 0 0 0 1 0 0 0 0 0 0 0 0 0 0 0 0 1 0 0 2 0 0 1 1 1 1 1 0 1 2 1 4 4 3 8 6 4 6 6 11 17 12 13 15 19 28 30 38 24 42 36 53
0 0 0 0 0 0 0 0 0 0 0 0 0 0 0 0 0 0 0 0 0 0 0 0 0 0 0 0 0 0 0 0 0 0 1 1 0 2 0 3 2 2 1 1 2 2 3 1 3 3 5 8 4 5 5 8 14 12 9 8 23 30 24 27 26 43 31 40 35
0 0 0 0 0 0 0 0 0 0 0 0 0 0 0 0 0 0 0 0 0 0 0 0 0 0 0 0 0 0 0 0 1 1 0 2 1 0 0 0 0 1 0 2 1 0 0 3 3 0 12 4 4 3 15 9 10 13 5 11 10 21 22 18 29 33 39 34 47
0 0 0 0 0 0 0 0 0 0 0 0 0 0 0 0 0 0 0 0 0 0 0 0 0 0 0 0 0 0 0 0 0 0 0 0 0 0 0 1 0 2 1 1 3 2 2 3 5 1 6 4 2 5 7 9 9 14 14 12 18 26 22 25 31 41 39 45 40
0 0 0 0 0 0 0 0 0 0 0 0 0 0 0 0 0 0 0 0 0 0 0 0 0 0 0 0 0 0 0 0 0 0 0 1 0 1 0 1 1 4 1 0 1 2 2 3 0 3 2 6 12 10 5 8 10 9 12 11 19 18 20 25 27 36 35 32 54
0 0 0 0 0 0 0 0 0 0 0 0 0 0 0 0 0 0 0 0 0 0 0 0 0 0 0 0 0 0 0 0 0 0 1 2 1 0 1 1 2 2 0 0 4 0 3 1 2 2 2 2 3 12 5 11 7 13 14 20 13 25 29 38 13 30 26 50 56
0 0 0 0 0 0 0 0 0 0 0 0 0 0 0 0 0 0 0 0 0 0 0 0 0 0 0 0 0 0 0 0 0 1 0 0 0 0 0 1 0 2 2 1 1 3 4 3 6 3 4 3 7 11 4 8 13 10 12 18 11 17 22 32 28 31 31 30 40
0 0 0 0 0 0 0 0 0 0 0 0 0 0 0 0 0 0 0 0 0 0 0 0 0 1 0 0 0 0 0 0 0 0 0 1 2 1 0 1 0 0 0 3 1 2 0 3 1 5 4 3 7 9 6 6 6 14 16 22 20 18 18 26 30 35 37 45 50
0 0 0 0 0 0 0 0 0 0 0 0 0 0 0 0 0 0 0 0 0 0 0 0 0 0 0 0 0 0 0 0 0 1 0 0 0 1 0 0 0 2 2 3 0 1 2 1 4 4 1 2 4 8 7 6 14 9 15 17 23 20 15 25 38 25 35 43 48
0 0 0 0 0 0 0 0 0 0 0 0 0 0 0 0 0 0 0 0 0 0 0 0 0 0 0 0 0 0 0 0 0 0 1 0 0 0 0 1 0 1 1 2 2 2 3 1 3 1 3 7 7 6 9 10 7 10 12 21 18 20 23 29 36 31 33 40 51
0 0 0 0 0 0 0 0 0 0 0 0 0 0 0 0 0 0 0 1 0 0 0 0 0 0 1 0 0 0 0 0 0 0 0 3 2 0 0 1 1 0 1 1 1 2 2 3 3 2 4 5 4 4 4 12 9 20 21 15 19 31 28 28 29 47 31 54 47
0 0 0 0 0 0 0 0 0 0 0 0 0 0 0 0 0 0 0 0 0 0 0 0 0 0 0 0 0 0 1 0 0 0 1 0 0 0 2 2 1 1 1 1 0 2 0 1 3 3 5 4 3 5 8 8 14 9 15 15 20 21 24 23 26 41 40 41 51
0 0 0 0 0 0 0 0 0 0 0 0 0 0 0 0 0 0 0 0 0 0 0 0 0 0 0 0 0 0 0 0 0 0 0 0 0 1 0 0 4 0 1 0 1 4 4 1 6 1 6 5 5 8 9 9 11 11 11 24 16 21 20 25 28 37 36 51 53
0 0 0 0 0 0 0 0 0 0 0 0 0 0 0 0 0 0 0 0 0 0 0 0 0 0 0 0 0 0 0 0 1 0 0 0 0 2 0 0 0 3 3 2 2 2 5 4 2 2 5 5 7 8 6 8 14 8 10 9 19 25 23 29 35 36 44 36 40
0 0 0 0 0 0 0 0 0 0 0 0 0 0 0 0 0 0 0 0 0 0 0 0 0 0 0 0 0 0 0 0 0 0 2 1 2 0 0 1 3 2 0 2 1 1 0 4 1 5 1 5 8 8 5 8 8 11 12 11 10 16 25 25 33 43 36 46 39
0 0 0 0 0 0 0 0 0 0 0 0 0 0 0 0 0 0 0 0 0 0 0 0 0 0 0 0 1 0 0 0 0 0 0 1 2 0 1 0 0 0 2 0 1 1 5 2 3 4 6 4 5 3 8 7 13 10 12 16 12 18 24 24 19 27 34 37 50
0 0 0 0 0 0 0 0 0 0 0 0 0 0 0 0 0 0 0 0 1 0 0 0 0 0 0 0 0 0 0 0 0 1 0 0 0 1 0 2 1 2 1 1 4 1 4 4 2 6 0 8 11 8 5 7 4 16 14 21 9 19 17 22 33 37 45 30 50
0 0 0 0 0 0 0 0 0 0 0 0 0 0 0 0 0 0 0 0 0 0 0 0 0 0 1 0 0 0 0 0 0 0 0 0 0 3 0 1 0 0 1 2 1 4 3 3 3 5 3 5 4 9 11 7 13 12 13 14 22 21 25 34 27 39 38 31 47
0 0 0 0 0 0 0 0 0 0 0 0 0 0 0 0 0 0 0 0 0 0 0 0 0 0 0 0 1 0 0 0 0 0 1 0 0 0 0 0 0 1 3 1 1 1 1 4 4 3 3 5 4 3 6 5 9 7 11 15 14 16 21 30 26 31 47 35 48
0 0 0 0 0 0 0 0 0 0 0 0 0 0 0 0 0 0 0 0 0 0 0 0 0 0 0 0 0 0 0 0 0 0 0 0 0 0 3 0 1 0 1 3 2 3 3 2 2 3 4 5 7 6 11 11 13 13 13 12 12 22 25 25 27 36 38 44 41
0 0 0 0 0 0 0 0 0 0 0 0 0 0 0 0 0 0 0 0 0 0 0 0 0 0 0 0 0 0 0 0 0 0 0 0 0 1 0 1 1 0 1 1 2 4 5 5 8 1 4 5 8 6 11 4 12 9 13 15 12 18 18 21 25 32 42 40 59
0 0 0 0 0 0 0 0 0 0 0 0 0 0 0 0 0 0 0 0 0 0 0 0 0 0 0 0 0 1 0 0 0 0 0 0 0 0 0 0 2 0 0 2 0 2 0 2 6 3 4 7 3 2 12 12 7 14 11 8 22 29 25 26 31 30 31 35 33
0 0 0 0 0 0 0 0 0 0 0 0 0 0 0 0 0 0 1 0 0 0 0 0 0 0 0 0 0 0 0 0 0 0 1 1 0 2 1 0 0 1 1 1 2 2 0 0 4 6 7 2 7 13 1 7 7 13 11 19 16 18 23 34 24 31 36 43 48
0 0 0 0 0 0 0 0 0 0 0 0 0 0 0 0 0 0 0 0 0 0 0 0 0 0 0 0 0 0 0 0 0 1 0 1 1 1 1 0 0 0 2 2 1 0 2 0 3 2 3 3 6 4 10 6 12 14 21 15 17 19 22 27 30 35 40 39 41
0 0 0 0 0 0 0 0 0 0 0 0 0 0 0 0 0 0 0 0 0 0 0 0 0 0 0 0 0 0 0 0 1 0 4 0 0 0 0 0 0 2 0 2 1 1 5 2 1 1 6 7 3 6 10 5 11 7 12 18 17 16 19 24 35 31 31 33 42
0 0 0 0 0 0 0 0 0 0 0 0 0 0 0 0 0 0 0 0 0 0 0 0 0 0 0 0 0 2 0 0 0 0 0 0 0 0 1 0 0 0 2 2 1 4 2 4 2 5 5 4 3 11 7 6 13 12 11 17 13 18 14 28 33 35 30 35 51
0 0 0 0 0 0 0 0 0 0 0 0 0 0 0 0 0 0 0 0 0 0 0 0 0 0 0 0 0 0 0 0 2 0 0 0 0 0 1 2 2 3 1 3 0 0 3 1 6 3 5 6 4 6 7 5 11 7 16 14 15 22 21 21 26 40 31 34 51
0 0 0 0 0 0 0 0 0 0 0 0 0 0 0 0 0 0 0 0 0 0 0 0 0 0 0 0 0 0 0 0 0 0 0 1 2 1 1 1 1 0 1 2 4 0 6 2 2 7 3 2 4 6 8 8 14 11 13 10 15 14 26 25 23 27 31 44 45
0 0 0 0 0 0 0 0 0 0 0 0 0 0 0 0 0 0 0 0 0 0 0 0 0 0 0 0 0 0 0 0 0 0 0 0 1 0 1 0 0 2 0 1 3 1 2 3 3 4 3 4 2 8 8 8 7 7 16 17 16 14 21 25 32 23 41 37 44
0 0 0 0 0 0 0 0 0 0 0 0 0 0 0 0 0 0 0 0 0 0 0 0 0 0 0 0 0 0 0 0 1 0 0 1 0 1 0 1 1 2 0 1 1 1 3 3 2 5 4 1 5 6 9 12 12 14 15 14 20 18 19 25 32 26 45 44 54
0 0 0 0 0 0 0 0 0 0 0 0 0 0 0 0 0 0 0 0 0 0 0 0 1 0 0 0 0 0 0 0 0 0 0 0 0 0 0 0 1 0 3 1 1 2 0 1 4 5 6 3 9 5 4 5 6 8 15 15 19 27 16 25 26 31 43 35 50
0 0 0 0 0 0 0 0 0 0 0 0 0 0 0 0 0 0 0 0 0 0 0 0 0 0 0 0 0 0 0 0 0 0 0 0 0 1 0 0 0 1 5 0 1 4 5 1 6 6 9 5 10 10 10 9 8 8 15 15 16 18 33 18 31 35 39 38 54
0 0 0 0 0 0 0 0 0 0 0 0 0 0 0 0 0 0 0 0 0 0 1 0 0 0 0 0 0 0 1 1 0 0 0 1 1 2 1 1 1 1 2 1 2 2 2 2 3 3 3 3 4 2 8 4 5 21 12 13 8 25 22 24 37 33 36 38 37
0 0 0 0 0 0 0 0 0 0 0 0 0 1 0 0 0 0 0 0 0 0 0 0 0 1 0 0 0 0 1 0 0 0 0 0 0 0 0 0 2 2 1 1 3 2 0 3 3 3 6 2 8 11 7 12 8 9 11 17 16 20 28 27 35 37 35 33 49
0 0 0 0 0 0 0 0 0 0 0 0 0 0 0 0 0 0 0 1 0 0 1 0 0 0 0 0 0 0 0 0 1 0 0 0 1 0 0 0 1 1 2 1 1 4 1 2 2 5 2 4 4 10 7 11 22 12 15 10 26 19 29 23 30 50 44 51 62
0 0 0 0 0 0 0 0 0 0 0 0 0 0 0 0 0 0 0 0 0 0 0 0 0 0 1 0 0 0 2 0 0 0 0 1 1 1 0 2 0 0 0 1 5 2 3 0 1 4 5 2 7 6 5 6 7 13 10 12 14 12 24 27 24 28 54 52 42
0 0 0 0 0 0 0 0 0 0 0 0 0 0 0 0 0 0 0 0 0 0 0 0 0 0 0 0 0 0 0 0 0 0 1 0 0 0 0 1 1 1 1 1 3 0 7 3 0 1 1 7 6 6 5 10 8 13 15 14 20 23 20 26 29 36 57 40 44
0 0 0 0 0 0 0 0 0 0 0 0 0 0 0 0 0 0 0 0 0 0 0 0 0 0 0 0 0 0 0 0 0 1 0 0 0 0 0 1 0 2 0 1 7 2 4 0 3 5 6 8 10 6 6 6 8 15 20 11 14 19 19 37 42 31 27 42 70
0 0 0 0 0 0 0 0 0 0 0 0 0 0 0 0 0 0 0 0 0 0 0 0 0 0 0 1 0 0 0 0 0 0 0 0 0 0 0 1 0 2 0 1 3 2 2 4 6 5 2 7 9 6 12 9 11 16 14 20 14 19 28 30 36 47 34 47 52
0 0 0 0 0 0 0 0 0 0 0 0 0 0 0 0 0 0 0 0 0 0 0 0 0 0 0 0 1 0 0 0 0 0 1 0 0 0 0 0 1 1 0 0 3 1 4 3 7 5 3 7 4 5 2 14 11 16 16 15 23 16 23 29 30 36 43 39 45
0 0 0 0 0 0 0 0 0 0 0 0 0 0 0 0 0 0 0 0 0 0 0 0 0 1 0 0 0 0 0 0 0 2 0 0 0 2 1 0 2 1 0 3 1 0 1 0 3 4 4 4 6 5 9 7 14 13 17 19 25 18 43 33 35 47 45 59 65
0 0 0 0 0 0 0 0 0 0 0 0 0 0 0 0 0 0 0 0 0 0 0 0 0 0 0 0 0 0 0 0 0 1 0 1 0 0 0 0 1 2 1 2 1 1 3 2 5 5 5 5 5 4 11 10 10 16 15 16 25 22 28 27 31 35 40 40 42
0 0 0 0 0 0 0 0 0 0 0 0 0 0 0 0 0 0 0 0 0 0 0 0 0 0 0 0 0 0 0 0 0 0 0 2 0 0 0 1 4 0 2 1 1 0 3 0 1 2 2 5 11 7 11 9 12 7 16 18 23 23 22 32 32 29 48 39 50
0 0 0 0 0 0 0 0 0 0 0 0 0 0 0 0 0 0 0 0 0 0 0 0 0 0 0 0 0 0 0 0 1 0 0 1 1 1 1 0 0 1 1 0 2 0 1 3 1 5 4 5 5 5 6 6 12 16 13 16 13 31 26 27 38 38 37 38 41
0 0 0 0 0 0 0 0 0 0 0 0 0 0 0 0 0 0 0 0 0 0 0 0 0 1 0 0 0 0 0 0 0 0 0 0 1 0 2 1 3 0 0 1 0 2 1 6 4 3 4 4 5 7 11 8 7 11 17 14 18 19 20 24 28 27 32 29 50
0 0 0 0 0 0 0 0 0 0 0 0 0 0 0 0 0 0 0 0 0 0 0 0 0 0 0 0 0 0 0 1 1 0 0 1 0 0 1 0 1 1 2 2 3 1 2 3 10 2 4 4 3 8 8 8 12 16 14 18 12 13 19 27 30 49 40 45 43
0 0 0 0 0 0 0 0 0 0 0 0 0 0 0 0 0 0 0 0 0 0 0 0 0 0 0 1 1 0 0 1 0 1 1 0 2 1 0 0 3 3 0 3 3 2 3 1 5 3 1 3 7 2 4 11 5 15 22 13 24 22 26 21 27 41 30 24 49
0 0 0 0 0 0 0 0 0 0 0 0 0 0 0 1 0 0 0 0 0 0 0 0 0 1 0 0 0 0 0 0 0 0 0 0 1 1 1 1 1 1 0 3 2 3 3 1 3 3 2 5 2 8 11 10 10 10 16 16 11 22 22 20 26 28 31 47 49
0 0 0 0 0 0 0 0 0 0 0 0 0 0 0 0 0 0 0 0 0 0 0 0 0 0 0 0 0 0 1 0 0 0 0 0 0 0 1 0 0 0 3 2 2 5 5 3 4 4 4 2 7 3 12 9 12 17 12 11 18 15 22 25 32 33 42 37 33
0 0 0 0 0 0 0 0 0 0 0 0 0 0 0 0 0 0 0 0 0 0 0 0 0 0 0 0 1 0 0 0 0 0 1 0 0 1 1 0 1 0 2 0 6 4 2 2 1 3 2 3 4 7 5 8 13 15 16 15 15 26 24 30 31 26 39 35 44
0 0 0 0 0 0 0 0 0 0 0 0 0 0 0 0 0 0 0 0 0 0 0 0 0 0 0 0 0 0 0 0 1 1 0 1 0 0 0 0 1 0 1 0 2 2 1 5 6 6 2 8 6 12 12 2 8 11 14 13 12 17 32 21 30 28 36 46 32
0 0 0 0 0 0 0 0 0 0 0 0 0 0 0 0 0 0 0 0 0 0 0 0 0 0 0 0 0 0 0 0 0 0 0 0 0 0 1 1 2 3 3 2 2 0 2 2 4 4 1 3 6 5 10 17 5 16 5 23 9 27 17 31 24 28 34 36 42
0 0 0 0 0 0 0 0 0 0 0 0 0 0 0 0 0 0 0 0 0 0 0 0 0 0 0 0 0 0 0 0 1 0 1 0 0 0 0 1 1 0 0 1 2 2 5 4 2 3 2 7 3 4 2 7 8 12 14 23 18 22 21 29 29 25 32 41 39
0 0 0 0 0 0 0 0 0 0 0 0 0 0 0 0 0 0 0 0 0 0 0 0 0 0 0 0 0 0 0 0 0 1 0 0 1 1 3 1 4 1 0 0 3 3 0 0 4 4 5 5 1 8 10 10 10 7 9 15 22 11 13 24 29 27 32 33 52
0 0 0 0 0 0 0 0 0 0 0 0 0 0 0 0 0 0 0 0 0 0 0 1 0 0 0 0 0 0 0 0 0 0 0 0 1 0 2 1 2 0 0 1 1 1 1 2 2 1 6 5 5 3 6 10 11 16 13 12 20 21 25 23 31 23 37 43 40
0 0 0 0 0 0 0 0 0 0 0 0 0 0 0 0 0 0 0 0 0 0 0 0 0 0 0 0 0 0 0 2 0 0 0 0 0 0 2 0 1 1 2 1 3 1 0 2 2 3 8 3 7 4 8 3 11 15 11 16 24 20 13 26 27 40 38 36 45
0 0 0 0 0 0 0 0 0 0 0 0 0 0 0 0 0 0 0 0 0 0 0 0 0 0 0 0 0 0 0 0 0 0 1 1 0 1 2 2 0 0 0 4 2 4 3 7 3 2 4 7 7 8 4 8 9 7 14 11 9 24 15 24 25 39 37 48 35
0 0 0 0 0 0 0 0 0 0 0 0 0 0 0 0 0 0 0 0 0 0 0 0 0 0 0 0 0 0 0 0 0 0 0 1 1 0 0 0 2 0 0 0 0 0 5 0 2 2 4 2 6 7 9 6 16 13 7 13 11 13 21 21 22 27 38 49 36
0 0 0 0 0 0 0 0 0 0 0 0 0 0 0 0 0 0 0 0 0 0 0 0 0 0 0 0 0 0 0 0 0 0 0 0 1 1 0 0 0 1 2 1 0 3 3 3 2 2 4 1 4 7 7 10 12 9 11 20 17 28 25 25 20 28 46 45 30
0 0 0 0 0 0 0 0 0 0 0 0 0 0 0 0 0 0 0 0 0 0 0 0 0 0 0 0 0 0 0 0 0 0 0 0 1 1 2 0 1 0 0 3 1 5 1 3 1 4 3 7 4 7 9 7 7 12 13 15 15 17 32 27 37 28 23 45 48
0 0 0 0 0 0 0 0 0 0 0 0 0 0 0 0 0 0 1 0 0 0 0 0 0 0 0 0 0 0 0 1 0 0 0 1 0 1 0 0 3 1 1 1 2 2 2 1 2 7 4 4 6 6 6 12 9 13 15 13 18 20 27 22 32 34 32 42 43
0 0 0 0 0 0 0 0 0 0 0 0 0 0 0 0 0 0 0 0 0 0 0 0 0 0 0 0 0 0 0 1 0 0 0 0 1 1 0 1 0 0 1 1 1 1 1 2 1 5 5 4 4 6 6 10 10 7 12 9 15 21 29 18 31 28 46 42 50
0 0 0 0 0 0 0 0 0 0 0 0 0 0 0 0 0 0 0 0 0 1 0 0 0 0 0 0 0 0 0 0 0 2 1 1 0 0 0 1 1 0 4 2 1 2 5 3 3 1 2 5 9 6 6 9 9 10 8 22 23 13 21 23 27 33 32 42 54
0 0 0 0 0 0 0 0 0 0 0 0 0 0 0 0 0 0 1 0 0 0 0 0 0 0 0 0 1 0 0 0 0 0 0 0 0 0 0 1 2 1 0 1 5 3 2 1 4 5 2 5 9 6 8 4 9 3 14 20 17 26 20 27 27 32 40 43 41
0 0 0 0 0 0 0 0 0 0 0 0 0 0 0 0 0 0 0 0 0 0 0 0 0 0 0 0 0 0 0 0 0 0 0 0 0 2 1 0 0 4 0 0 2 1 3 0 0 5 3 4 5 5 10 17 10 9 11 19 11 28 21 36 28 31 42 29 44
0 0 0 0 0 0 0 0 0 0 0 0 0 0 0 0 0 0 0 0 0 0 0 0 0 0 0 0 0 0 0 0 0 0 1 0 0 1 0 3 2 2 2 0 2 2 2 1 6 5 5 9 3 7 14 9 7 17 16 8 13 17 31 24 34 28 28 44 52
0 0 0 0 0 0 0 0 0 0 0 0 0 0 0 0 0 0 0 0 0 0 0 0 0 0 0 0 0 0 0 0 1 0 2 0 0 0 0 0 0 3 1 2 0 4 3 3 2 1 5 2 5 6 7 9 11 17 9 16 18 11 29 23 38 30 34 40 62
0 0 0 0 0 0 0 0 0 0 0 0 0 0 0 0 0 0 0 0 0 0 0 0 0 0 0 0 0 0 0 1 1 1 1 0 3 2 1 0 3 2 2 1 1 3 2 4 0 2 3 8 8 1 14 6 9 11 9 15 21 15 21 38 19 32 47 39 62
0 0 0 0 0 0 0 0 0 0 0 0 0 0 0 0 0 0 0 0 0 0 0 0 0 0 0 1 0 0 1 0 0 1 0 0 0 0 1 0 0 0 1 2 2 1 1 2 2 5 5 6 4 5 7 5 9 9 15 19 9 20 19 29 29 39 32 44 58
0 0 0 0 0 0 0 0 0 0 0 0 0 0 0 0 0 0 0 0 0 0 0 0 0 0 0 0 1 0 0 0 0 0 0 2 1 0 0 0 1 2 1 2 0 1 4 4 4 2 4 10 11 4 9 5 8 11 13 11 18 20 21 23 29 33 50 55 42
0 0 0 0 0 0 0 0 0 0 0 0 0 0 0 0 0 0 0 0 0 0 0 0 0 0 0 0 0 0 0 0 0 1 0 1 0 1 0 3 1 2 0 2 3 1 3 3 0 3 5 3 2 4 3 10 14 13 11 15 18 20 18 28 26 34 38 47 54
0 0 0 0 0 0 0 0 0 0 0 0 0 0 0 0 0 0 0 0 0 0 0 0 0 0 0 0 0 0 0 1 0 1 0 0 1 0 0 1 1 1 1 1 4 2 4 5 2 5 4 3 11 5 11 9 9 15 15 11 15 27 25 24 27 29 38 52 51
0 0 0 0 0 0 0 0 0 0 0 0 0 0 0 0 0 0 0 0 0 0 0 0 0 0 0 0 0 0 0 0 0 0 1 1 0 0 0 1 1 0 1 2 3 1 4 3 1 6 7 4 5 5 7 9 7 11 12 8 26 16 19 22 39 29 38 39 38
0 0 0 0 0 0 0 0 0 0 0 0 0 0 0 0 0 0 0 0 0 0 0 0 0 0 0 0 1 0 0 0 0 1 0 0 1 0 0 1 0 0 0 2 3 3 1 4 5 2 6 4 7 11 7 12 7 6 17 14 20 13 28 28 20 32 41 57 46
0 0 0 0 0 0 0 0 0 0 0 0 0 0 0 0 0 0 0 0 0 0 0 1 0 0 0 0 0 1 0 0 0 0 1 1 0 0 2 1 1 0 2 2 2 2 6 2 4 4 1 8 5 7 14 6 12 8 22 15 19 18 31 30 36 37 39 38 57
0 0 0 0 0 0 0 0 0 0 0 0 0 0 0 0 0 0 0 0 0 0 0 0 0 0 0 1 0 0 0 0 0 2 1 0 1 0 3 2 0 1 3 2 1 3 2 1 2 4 2 3 4 8 7 12 10 14 11 19 11 18 17 28 28 25 39 35 47
0 0 0 0 0 0 0 0 0 0 0 0 0 0 0 0 0 0 0 0 0 0 0 0 0 0 1 0 0 0 0 0 0 0 2 3 0 1 1 0 1 2 2 1 5 1 2 1 0 6 4 3 3 6 8 9 16 10 12 12 15 17 19 23 35 30 36 35 56
0 0 0 0 0 0 0 0 0 0 0 0 0 0 0 0 0 0 0 0 0 1 0 0 0 0 0 0 0 0 0 0 0 1 1 0 0 1 0 0 1 0 0 1 2 3 2 0 3 1 6 8 3 12 12 10 10 11 15 25 15 19 17 27 22 28 33 41 39
0 0 0 0 0 0 0 0 0 0 0 0 0 0 0 0 0 1 0 0 0 0 0 0 0 0 0 0 0 0 1 1 0 1 0 1 0 1 0 2 2 2 3 1 3 4 2 3 3 6 8 4 8 6 11 7 15 12 13 24 20 33 28 22 26 36 33 40 51
0 0 0 0 0 0 0 0 0 0 0 0 0 0 0 0 0 0 1 0 0 0 0 0 0 0 0 0 0 0 1 0 0 0 0 0 1 0 1 1 1 0 0 2 2 2 2 6 5 6 2 7 5 13 9 7 13 9 14 18 16 22 24 35 26 30 33 42 55
0 0 0 0 0 0 0 0 0 0 0 0 0 0 0 0 0 0 0 0 0 0 0 0 0 0 0 0 0 1 0 0 0 0 0 0 0 0 1 1 1 0 2 4 1 0 2 1 5 6 11 7 4 8 4 9 8 14 19 19 12 20 17 26 23 37 31 33 41
0 0 0 0 0 0 0 0 0 0 0 0 0 0 0 0 0 0 0 0 0 0 0 0 0 0 0 0 0 0 0 0 0 0 0 0 0 0 3 0 0 0 2 1 1 1 3 4 3 3 3 8 3 8 17 12 3 12 11 24 20 23 19 31 34 32 41 50 50
0 0 0 0 0 0 0 0 0 0 0 0 0 0 0 0 0 0 0 0 0 0 0 0 0 0 0 0 0 0 1 0 1 0 0 0 1 2 1 1 1 1 2 1 4 3 1 2 3 2 0 4 5 5 6 8 6 19 12 21 12 22 21 27 37 33 45 53 40
0 0 0 0 0 0 0 0 0 0 0 0 0 0 0 0 0 0 0 0 1 0 0 0 0 0 0 0 0 0 1 0 1 0 1 2 1 0 2 1 1 0 0 2 1 4 2 2 1 0 7 3 8 4 3 10 11 13 14 13 22 19 21 25 35 29 35 43 40
0 0 0 0 0 0 0 0 0 0 0 0 0 0 0 0 0 0 0 0 0 0 0 0 0 0 1 0 0 0 0 0 0 0 0 0 1 1 0 0 2 1 1 1 0 3 2 5 6 0 6 4 7 9 9 9 9 7 12 16 19 16 25 17 25 38 25 37 33
0 0 0 0 0 0 0 0 0 0 0 0 0 0 0 0 0 0 0 0 0 0 0 0 0 0 0 0 0 0 0 0 0 0 0 0 0 0 1 0 1 0 0 2 2 3 2 4 1 1 6 1 5 5 13 6 11 14 9 15 23 14 16 24 30 35 26 39 34
0 0 0 0 0 0 0 0 0 0 0 0 0 0 0 0 0 0 0 0 0 0 0 0 0 0 0 0 0 0 1 0 0 0 0 0 0 0 0 2 0 1 0 1 3 2 2 2 4 0 0 2 7 7 5 8 8 18 10 17 16 16 21 13 25 23 30 37 43
0 0 0 0 0 0 0 0 0 0 0 0 0 0 0 0 0 0 0 0 0 0 0 0 1 0 0 0 0 0 1 0 0 0 2 0 0 0 1 0 2 1 2 0 2 4 2 5 2 0 5 11 3 7 13 11 11 21 11 15 14 17 24 26 31 33 27 40 37
0 0 0 0 0 0 0 0 0 0 0 0 0 0 0 0 0 0 0 0 0 0 0 0 0 0 0 0 0 0 0 0 0 0 0 0 0 0 0 2 1 0 0 1 2 0 0 2 4 5 3 3 5 7 4 9 11 11 11 14 14 14 24 29 29 31 42 40 44
0 0 0 0 0 0 0 0 0 0 0 0 0 0 0 0 0 0 0 0 0 0 0 0 0 0 0 0 0 0 0 1 1 0 0 1 1 0 1 0 4 0 1 2 1 2 2 3 5 3 2 2 8 8 6 7 10 8 9 14 16 20 32 29 26 39 29 43 50
0 0 0 0 0 0 0 0 0 0 0 0 0 0 0 0 0 0 0 0 0 0 0 0 0 0 0 0 0 0 0 0 0 0 0 0 0 0 0 1 1 1 0 1 0 1 2 7 5 3 6 3 8 8 6 14 12 11 11 22 21 13 29 23 29 24 26 37 51
0 0 0 0 0 0 0 0 0 0 0 0 0 0 0 0 0 0 0 0 0 0 0 0 0 0 0 0 0 0 0 0 0 0 0 0 0 0 2 0 0 1 1 1 2 3 4 0 3 5 2 2 7 7 12 10 10 14 13 19 20 18 21 21 23 28 28 35 39
0 0 0 0 0 0 0 0 0 0 0 0 0 0 0 0 0 0 0 0 0 0 0 0 0 0 0 0 0 1 0 0 0 0 0 0 1 0 0 2 0 0 2 3 3 2 2 3 1 2 6 7 5 3 8 16 11 13 18 23 9 19 20 24 34 39 33 39 43
0 0 0 0 0 0 0 0 0 0 0 0 0 0 0 0 0 0 0 0 0 1 0 0 0 0 0 0 0 0 0 0 0 0 0 1 0 0 0 1 1 0 0 2 2 7 2 2 3 6 1 6 7 9 10 8 9 13 15 14 23 15 16 24 26 36 37 35 43
0 0 0 0 0 0 0 0 0 0 0 0 0 0 0 0 0 0 0 0 0 0 0 0 0 0 0 0 0 0 0 0 0 0 1 0 0 0 1 1 0 1 1 0 2 0 2 1 2 2 5 6 3 3 6 10 13 12 11 19 19 19 11 23 30 29 43 40 51
0 0 0 0 0 0 0 0 0 0 0 0 0 0 0 0 0 0 0 0 0 0 0 0 0 0 0 0 0 0 1 1 0 1 0 1 0 0 0 1 0 0 0 3 1 0 4 3 4 7 1 5 7 6 8 10 3 11 21 17 21 30 23 25 33 38 47 52 46
0 0 0 0 0 0 0 0 0 0 0 0 0 0 0 0 0 0 0 0 0 0 0 0 0 0 0 0 1 0 0 0 0 0 2 1 1 0 2 2 3 0 0 3 4 2 0 1 2 6 3 2 2 4 7 12 8 11 11 18 12 19 24 25 24 32 44 36 42
0 0 0 0 0 0 0 0 0 0 0 0 0 0 0 0 0 0 0 0 0 0 0 0 0 0 0 0 0 0 0 0 0 0 0 0 0 0 0 1 0 1 1 1 1 3 2 4 3 3 3 2 2 2 11 8 7 16 14 15 17 21 25 26 29 28 38 37 44
0 0 0 0 0 0 0 0 0 0 0 0 0 0 0 0 0 0 0 0 0 0 0 0 0 0 0 0 0 0 0 0 0 0 0 2 3 0 1 0 1 2 3 2 3 2 1 0 4 5 7 5 6 7 9 12 13 8 13 17 17 15 20 31 44 34 28 39 39
0 0 0 0 0 0 0 0 0 0 0 0 0 0 0 0 0 0 0 0 0 0 0 0 0 0 0 0 0 0 0 0 0 0 0 0 0 0 0 1 2 1 1 1 4 1 4 1 1 4 6 5 2 9 7 8 16 13 19 17 18 22 14 22 23 33 39 38 49
0 0 0 0 0 0 0 0 0 0 0 0 0 0 0 0 0 0 0 0 0 0 0 0 0 0 0 0 0 0 0 0 0 0 1 0 1 0 1 1 1 2 1 0 1 2 1 2 4 8 6 3 6 4 7 8 11 11 15 12 25 24 25 31 37 34 49 50 38
0 0 0 0 0 0 0 0 0 0 0 0 0 0 0 0 0 0 0 0 0 0 0 0 0 0 0 0 0 0 0 0 1 0 0 0 0 1 0 0 1 1 2 1 0 1 1 0 3 7 2 6 9 3 8 8 8 7 22 12 18 18 33 24 33 31 36 42 37
0 0 0 0 0 0 0 0 0 0 0 0 0 0 0 0 0 0 0 0 0 0 0 0 0 0 0 0 0 0 1 0 0 0 0 0 0 0 0 0 1 1 2 1 1 0 3 6 1 5 4 5 3 9 4 8 15 17 14 18 11 23 19 24 31 28 33 48 48
0 0 0 0 0 0 0 0 0 0 0 0 0 0 0 0 0 0 0 0 0 0 0 0 0 0 0 0 0 0 0 0 0 0 2 1 0 1 2 3 3 3 1 0 3 1 0 4 3 4 3 3 6 9 9 7 10 7 11 23 19 11 26 20 28 36 25 45 46
0 0 0 0 0 0 0 0 0 0 0 0 0 0 0 0 0 0 0 0 0 0 0 0 0 0 0 0 0 0 0 0 0 0 0 0 0 0 1 0 2 1 0 1 1 0 4 2 8 3 6 1 7 9 7 11 11 10 15 17 13 31 25 21 30 37 37 49 42
0 0 0 0 0 0 0 0 0 0 0 0 0 0 0 0 0 0 0 0 0 0 0 0 0 0 0 0 0 0 0 0 0 0 0 1 0 2 0 0 3 0 2 1 4 1 3 4 2 4 5 7 7 5 6 9 13 10 10 19 17 17 20 32 27 29 40 33 47
0 0 0 0 0 0 0 0 0 0 0 0 0 0 0 0 0 1 0 0 0 0 0 0 0 0 0 0 1 0 0 1 0 0 0 0 0 1 0 0 2 1 1 0 2 4 2 4 3 2 4 7 7 8 9 12 15 16 9 13 14 26 26 33 41 37 43 32 52
0 0 0 0 0 0 0 0 0 0 0 0 0 0 0 0 0 0 0 0 0 0 0 0 0 0 0 0 0 0 0 0 0 0 1 0 0 2 3 2 1 2 4 4 3 0 3 4 3 3 4 7 3 8 5 9 8 8 21 16 25 26 23 26 31 39 41 52 46
0 0 0 0 0 0 0 0 0 0 0 0 0 0 0 0 0 0 0 0 0 0 0 0 0 0 0 0 0 0 0 1 0 1 0 0 0 1 0 0 0 0 2 0 2 5 1 0 2 2 4 8 6 4 7 12 11 14 17 21 19 17 30 20 43 35 38 39 54
0 0 0 0 0 0 0 0 0 0 0 0 0 0 0 0 0 0 0 1 0 0 0 0 0 0 1 0 0 0 0 0 0 1 1 0 0 1 1 2 1 0 0 1 2 2 3 2 2 5 4 3 5 7 4 13 12 14 8 19 20 22 27 23 33 25 44 45 52
0 0 0 0 0 0 0 0 0 0 0 0 0 0 0 0 0 0 0 0 0 0 0 0 0 0 0 0 0 0 0 0 0 0 1 1 0 0 0 0 1 2 1 3 1 2 2 2 3 6 8 7 3 3 11 8 4 11 14 14 15 21 27 30 32 35 38 41 38
0 0 0 0 0 0 0 0 0 0 0 0 0 0 0 0 0 0 0 0 0 0 0 0 0 0 0 0 0 1 1 0 0 0 0 0 0 2 0 3 1 3 1 2 1 2 4 4 2 3 6 3 10 4 13 9 8 9 26 11 9 13 23 33 31 34 48 40 40
0 0 0 0 0 0 0 0 0 0 0 1 0 0 0 0 0 0 1 0 0 0 0 0 0 0 0 0 0 0 0 0 3 1 0 0 0 1 0 0 2 3 2 3 1 1 1 6 2 5 4 7 10 7 6 13 6 13 9 6 19 23 29 32 29 33 29 45 50
0 0 0 0 0 0 0 0 0 0 0 0 0 0 0 0 0 0 0 0 0 0 0 0 0 0 0 0 0 0 0 0 0 0 0 0 0 0 0 1 1 2 2 0 1 3 3 4 1 6 7 6 8 11 6 8 10 16 15 11 23 18 20 32 27 44 37 36 42
0 0 0 0 0 0 0 0 0 0 0 0 0 0 0 0 0 0 0 0 0 0 0 0 0 0 0 0 0 0 1 0 0 0 0 1 0 0 2 1 0 0 1 1 2 1 2 1 1 4 1 3 7 5 6 4 13 11 14 18 23 26 22 34 29 30 37 43 40
0 0 0 0 0 0 0 0 0 0 0 0 0 0 0 0 0 0 0 0 0 0 0 0 0 0 0 1 0 0 0 0 0 0 1 0 0 1 1 0 1 2 2 0 0 4 2 2 1 5 5 7 3 8 4 3 9 12 14 8 14 19 25 27 33 37 41 46 50
0 0 0 0 0 0 0 0 0 0 0 0 0 0 0 0 0 0 0 0 0 2 0 0 0 0 0 1 0 0 0 0 0 0 0 0 0 0 1 0 1 1 1 3 2 1 2 0 3 3 8 7 7 8 4 3 7 15 14 14 15 23 24 17 32 22 33 49 50
0 0 0 0 0 0 0 0 0 0 0 0 0 0 0 0 0 0 0 0 0 0 0 0 0 0 0 1 0 0 0 0 0 0 0 0 0 0 0 1 1 2 1 1 4 0 2 2 3 3 7 5 5 9 9 15 15 10 14 13 27 24 26 20 36 39 28 50 42
0 0 0 0 0 0 0 0 0 0 0 0 0 0 0 0 0 0 0 0 0 0 0 0 0 0 0 0 0 0 0 0 0 0 0 1 0 2 3 1 3 3 3 1 1 1 1 1 3 3 5 9 4 7 6 8 14 12 18 15 15 21 32 24 15 42 41 56 31
0 0 0 0 0 0 0 0 0 0 0 0 0 0 0 0 0 0 0 0 0 0 0 0 0 0 0 0 0 1 0 0 0 1 0 0 1 0 1 0 0 0 0 2 3 4 0 3 1 7 5 6 8 11 10 12 6 10 7 14 31 28 20 30 20 35 29 38 35
0 0 0 0 0 0 0 0 0 0 0 0 0 0 0 0 0 0 1 0 0 0 0 0 0 0 0 0 0 1 0 0 0 0 0 0 0 0 1 1 1 0 0 1 1 2 0 1 5 4 2 8 5 10 10 10 12 12 17 15 20 20 19 23 29 38 35 30 55
0 0 0 0 0 0 0 0 0 0 0 0 0 0 0 0 0 0 1 0 0 0 0 0 0 0 0 0 0 0 1 0 0 0 1 1 2 0 2 0 0 1 4 0 3 3 1 5 2 1 3 5 2 5 7 4 7 10 8 26 12 13 25 24 45 37 42 34 46
0 0 0 0 0 0 0 0 0 0 0 0 0 0 0 0 0 0 0 0 0 0 0 0 0 0 0 0 0 0 0 1 0 1 0 1 0 2 0 3 1 0 2 2 0 2 1 5 4 5 4 9 9 3 6 12 12 14 13 22 21 21 21 19 27 48 39 28 33
0 0 0 0 0 0 0 0 0 0 0 0 0 0 0 0 0 0 0 0 0 1 0 0 0 0 0 0 0 0 0 0 0 1 0 1 1 1 0 0 0 2 2 1 0 2 2 5 2 5 4 3 5 5 8 8 17 10 14 19 17 15 26 24 35 28 39 44 50
0 0 0 0 0 0 0 0 0 0 0 0 0 0 0 0 0 0 0 0 0 0 0 0 0 0 0 0 0 0 2 1 1 1 0 0 0 1 0 1 0 1 0 3 2 1 3 3 4 2 4 3 7 6 5 7 6 14 16 11 26 22 24 29 33 30 38 37 37
0 0 0 0 0 0 0 0 0 0 0 0 0 0 0 0 0 0 0 0 0 0 0 0 0 0 0 0 0 0 1 0 0 2 0 0 0 1 0 0 1 0 2 0 2 2 0 1 6 8 3 6 5 5 3 5 8 5 13 17 12 21 25 30 35 31 27 33 42
0 0 0 0 0 0 0 0 0 0 0 0 0 0 0 0 0 0 0 0 0 0 0 0 0 0 0 0 0 0 0 0 0 0 0 1 0 0 1 1 1 1 0 3 1 2 2 1 3 2 5 3 6 3 11 8 9 10 18 9 19 14 15 28 21 27 47 44 35
0 0 0 0 0 0 0 0 0 0 0 0 0 0 0 0 0 0 0 0 0 0 0 0 0 0 0 0 0 0 0 0 0 2 1 2 0 0 1 1 1 0 3 0 1 2 1 1 2 4 2 4 3 7 12 6 12 6 9 14 16 21 16 19 34 38 42 35 56
0 0 0 0 0 0 0 0 0 0 0 0 0 0 0 0 0 0 0 0 0 0 0 0 0 0 0 0 0 0 0 1 2 0 0 1 0 0 2 2 0 1 2 4 2 1 0 4 4 4 3 5 5 7 9 5 10 11 21 15 21 15 13 28 31 26 40 39 39
0 0 0 0 0 0 0 0 0 0 0 0 0 0 0 0 0 0 0 0 0 0 0 0 0 0 0 0 0 0 0 1 1 1 0 0 0 0 1 2 0 1 2 1 2 4 0 2 2 6 5 3 4 6 6 11 11 11 11 22 14 22 18 33 32 36 34 44 35
0 0 0 0 0 0 0 0 0 0 0 0 0 0 0 0 0 0 0 0 0 0 0 0 0 0 0 0 0 0 0 0 0 0 0 0 1 0 0 2 0 1 0 2 3 3 5 2 3 5 2 5 7 3 7 4 10 7 13 16 19 25 27 24 30 31 34 39 45
0 0 0 0 0 0 0 0 0 0 0 0 0 0 0 0 0 0 0 0 0 0 0 0 0 0 0 0 0 0 0 0 0 1 0 1 0 2 1 1 0 0 0 0 0 0 1 1 4 1 0 9 7 9 8 9 16 7 14 19 14 17 21 22 21 42 44 32 60
0 0 0 0 0 0 0 0 0 0 0 0 0 0 0 0 0 0 0 0 0 0 0 0 0 0 0 0 1 0 0 0 1 0 1 0 0 1 1 0 0 0 2 1 1 2 2 3 4 4 3 4 8 5 6 8 19 15 9 15 12 25 21 23 25 26 41 47 44
0 0 0 0 0 0 0 0 0 0 0 0 0 0 0 0 0 0 0 0 0 0 0 0 0 0 1 0 0 0 0 1 0 0 0 3 1 0 0 0 0 0 1 0 4 2 1 2 1 2 1 8 7 9 4 11 9 9 12 13 14 14 25 27 24 28 39 41 44
0 0 0 0 0 0 0 0 0 0 0 0 0 0 0 0 0 0 0 0 0 0 0 0 0 0 1 1 0 0 0 0 0 0 0 1 1 0 1 0 1 0 2 3 1 2 0 1 5 4 2 12 3 6 7 6 8 8 14 15 16 13 21 18 26 35 37 40 44
0 0 0 0 0 0 0 0 0 0 0 0 0 0 0 0 0 0 0 0 0 0 0 0 0 0 0 0 0 1 0 0 0 0 0 0 0 0 0 1 1 2 1 1 3 2 6 4 0 4 6 8 4 13 5 6 13 14 14 17 11 19 18 32 28 27 31 39 59
0 0 0 0 0 0 0 0 0 0 0 0 0 0 0 0 0 0 0 0 0 0 0 0 0 0 0 0 0 0 0 0 0 0 1 0 0 0 2 0 1 0 1 0 1 1 1 5 3 3 8 3 8 10 6 10 9 11 10 19 19 25 16 28 34 37 38 41 59
0 0 0 0 0 0 0 0 0 0 0 0 0 0 0 0 0 0 0 0 0 0 0 0 1 0 0 0 0 0 0 0 0 0 0 0 1 0 1 0 0 2 1 3 3 2 4 5 2 2 6 7 4 9 6 13 12 14 21 13 11 21 26 25 39 32 30 38 47
0 0 0 0 0 0 0 0 0 0 0 0 0 0 0 0 0 0 0 0 0 0 0 0 0 0 0 0 0 1 1 1 2 0 1 0 0 0 2 0 1 0 3 0 3 3 4 2 6 1 5 7 4 2 7 14 10 8 13 16 22 25 32 16 31 37 43 48 47
0 0 0 0 0 0 0 0 0 0 0 0 0 0 0 0 0 0 0 0 0 0 0 0 0 0 0 0 0 0 0 0 0 0 1 0 0 1 1 1 0 0 1 1 3 2 1 3 4 4 6 7 7 11 4 11 5 11 16 23 17 19 32 28 34 29 44 35 52
0 0 0 0 0 0 0 0 0 0 0 0 0 0 0 0 0 0 0 0 0 0 0 0 0 0 0 0 0 0 1 0 1 0 0 0 0 0 0 0 2 1 2 1 2 2 3 1 4 6 1 6 4 4 4 8 9 9 17 15 21 24 25 28 28 38 38 41 39
0 0 0 0 0 0 0 0 0 0 0 0 0 0 0 0 0 0 0 0 0 1 0 0 0 0 1 0 0 0 1 0 0 1 0 0 0 0 2 3 2 1 0 1 0 1 0 4 1 4 6 7 3 11 7 5 10 12 17 10 23 23 23 28 29 28 33 44 54
0 0 0 0 0 0 0 0 0 0 0 0 0 0 0 0 0 0 0 0 0 0 0 0 0 0 0 0 1 0 1 1 0 0 0 0 0 1 2 0 1 1 0 1 2 4 2 2 8 4 3 6 4 7 9 8 12 14 12 9 21 19 24 30 30 31 42 52 38
0 0 0 0 0 0 0 0 0 0 0 0 0 0 0 0 0 0 0 0 0 0 0 0 0 0 0 0 0 0 0 0 0 0 0 1 0 1 0 0 3 1 0 4 1 0 3 1 6 3 6 6 5 8 8 12 8 15 10 11 21 13 24 29 32 30 43 41 40
0 0 0 0 0 0 0 0 0 0 0 0 0 0 0 0 0 0 0 0 0 0 0 0 0 0 0 0 0 1 0 0 0 0 0 1 0 0 2 0 0 0 0 1 4 0 5 4 2 3 3 7 8 6 11 9 12 11 14 17 15 25 27 22 26 37 36 49 46
0 0 0 0 0 0 0 0 0 0 0 1 0 0 0 0 0 0 0 0 0 0 0 0 0 0 0 0 0 0 1 1 0 0 0 1 1 0 0 2 1 1 1 0 1 1 4 2 0 0 5 6 9 7 7 12 7 10 15 12 22 23 25 29 30 37 42 47 41
0 0 0 0 0 0 0 0 0 0 0 0 0 0 0 0 0 0 0 0 0 0 0 0 0 0 0 0 1 0 0 0 0 0 0 1 0 0 1 0 0 0 2 0 5 1 0 5 1 4 5 2 9 9 7 6 9 6 19 14 22 20 39 24 32 32 39 49 54
0 0 0 0 0 0 0 0 0 0 0 0 0 0 0 0 0 0 0 0 0 0 0 0 0 0 0 0 1 0 1 0 1 0 0 0 1 0 1 1 2 0 0 1 0 0 3 2 2 4 2 4 5 2 10 17 11 16 13 12 15 19 28 41 35 30 34 41 46
0 0 0 0 0 0 0 0 0 0 0 0 0 0 0 0 0 0 0 0 0 0 0 0 0 0 0 0 0 0 0 0 0 0 0 0 1 0 0 0 0 0 0 5 3 1 3 2 4 6 4 6 3 5 4 7 12 16 15 13 19 20 15 24 41 35 39 53 41
0 0 0 0 0 0 0 0 0 0 0 0 0 0 0 0 0 0 0 0 0 0 0 0 0 0 0 0 0 1 1 0 0 0 0 0 1 1 0 0 2 2 2 0 1 2 2 6 3 4 6 2 6 7 13 9 8 11 15 14 25 26 27 26 40 39 40 47 53
0 0 0 0 0 0 0 0 0 0 0 0 0 0 0 0 0 0 0 0 0 0 0 0 0 0 0 0 1 0 0 0 0 0 0 0 0 0 0 0 0 1 2 1 2 3 2 1 2 2 3 3 5 7 8 13 5 17 13 17 15 26 16 28 35 43 52 42 49
0 0 0 0 0 0 0 0 0 0 0 0 0 0 0 0 0 0 0 0 0 0 0 0 0 0 1 0 0 0 0 0 1 0 0 0 1 1 0 1 0 1 1 0 2 1 2 1 5 6 2 6 8 5 10 5 10 11 14 16 11 18 21 31 22 44 49 37 57
0 0 0 0 0 0 0 0 0 0 0 0 0 0 0 0 0 0 0 0 0 0 0 0 0 0 1 0 0 0 0 0 0 0 1 1 0 0 1 2 1 1 1 1 3 2 0 5 6 7 3 4 7 6 7 10 11 9 15 21 18 17 20 31 35 23 36 53 55
0 0 0 0 0 0 0 0 0 0 0 0 0 0 0 0 0 0 0 0 0 0 0 0 0 0 0 0 0 0 0 0 0 0 0 0 2 0 1 2 0 1 1 1 1 4 1 3 5 4 9 8 10 8 10 6 11 14 14 14 26 21 28 25 23 26 41 41 52
0 0 0 0 0 0 0 0 0 0 0 0 0 0 0 0 0 0 0 0 0 0 0 1 0 1 0 0 0 0 0 0 0 0 1 0 0 2 1 0 0 2 0 0 0 1 5 2 2 2 6 6 8 6 9 15 8 11 8 19 19 19 23 24 30 29 39 38 57
0 0 0 0 0 0 0 0 0 0 0 0 0 0 0 0 1 0 0 0 0 0 0 0 0 0 0 0 0 0 0 0 0 0 0 1 1 1 1 1 1 3 4 2 1 3 2 1 3 2 4 4 6 6 6 4 14 11 11 13 18 27 21 18 27 37 37 28 31
0 0 0 0 0 0 0 0 0 0 0 0 0 0 0 0 0 0 0 0 0 0 0 0 1 0 0 0 0 0 0 0 1 0 0 0 1 1 0 1 2 0 1 1 3 2 1 3 1 4 4 5 3 6 7 14 11 16 15 9 16 19 29 24 24 37 34 45 57
0 0 0 0 0 0 0 0 0 0 0 0 0 0 0 0 0 0 0 0 0 0 0 0 0 0 0 0 0 0 0 0 0 0 1 0 1 0 1 2 1 0 0 1 1 1 4 6 3 5 5 7 7 8 7 6 17 6 13 13 9 20 23 19 38 28 32 31 58
0 0 0 0 0 0 0 0 0 0 0 0 0 0 0 0 0 0 0 0 0 0 0 0 0 0 0 0 0 2 0 0 0 1 0 0 0 0 1 0 0 0 0 1 1 2 1 1 4 3 3 4 4 6 3 8 8 13 12 17 22 21 27 32 30 32 46 38 51
0 0 0 0 0 0 0 0 0 0 0 0 0 0 0 0 0 0 0 0 0 0 0 0 1 0 0 0 0 0 0 0 0 1 0 1 1 2 1 1 2 2 1 2 2 2 0 5 3 9 7 6 7 7 5 13 16 10 16 15 18 18 21 15 37 26 45 50 46
0 0 0 0 0 0 0 0 0 0 0 0 0 0 0 0 0 0 0 0 0 0 0 0 0 0 0 0 1 0 0 0 0 0 0 0 0 1 0 0 0 0 1 1 4 2 4 2 2 3 7 5 2 4 3 8 4 9 9 15 27 17 22 29 24 32 30 38 55
0 0 0 0 0 0 0 0 0 0 0 0 0 0 0 0 0 0 0 0 0 0 0 0 0 0 0 0 0 0 0 1 0 0 0 1 1 0 1 0 0 1 1 3 0 1 3 2 8 2 5 8 5 6 10 11 10 9 10 15 15 20 33 23 29 27 56 43 42
0 0 0 0 0 0 0 0 0 0 0 0 0 0 0 0 0 0 0 0 0 0 0 0 0 0 1 0 0 0 0 0 1 0 0 0 0 0 2 0 2 2 2 1 1 1 1 4 5 4 6 5 5 4 9 6 12 9 7 15 21 19 33 22 19 37 30 39 38
0 0 0 0 0 0 0 0 0 0 0 0 0 0 0 0 0 0 0 0 0 0 0 0 0 0 0 0 0 0 0 0 2 0 0 0 0 2 0 0 0 0 1 1 4 4 1 2 1 4 1 5 6 4 7 6 6 10 17 14 24 14 18 25 28 36 32 48 36
0 0 0 0 0 0 0 0 0 0 0 0 0 0 0 0 0 0 0 0 0 0 0 0 0 0 0 0 0 0 0 0 0 0 1 0 1 0 0 1 1 0 2 0 3 2 1 1 2 1 7 4 4 6 3 7 8 18 9 10 19 26 23 36 23 26 40 33 51
0 0 0 0 0 0 0 0 0 0 0 0 0 0 0 0 0 0 0 0 0 1 0 0 0 0 0 0 1 2 0 0 0 0 0 0 0 0 1 1 0 0 3 0 0 2 3 2 8 2 2 8 3 4 9 10 14 11 17 16 17 20 22 26 31 44 35 45 51
0 0 0 0 0 0 0 0 0 0 0 0 0 0 0 1 0 0 0 0 0 0 0 0 0 0 0 0 0 1 0 0 0 0 0 0 2 0 2 0 0 0 3 2 0 1 0 0 5 6 4 4 4 5 8 9 9 7 18 17 15 23 24 20 24 34 39 39 44
0 0 0 0 0 0 0 0 0 0 0 0 0 0 0 0 0 0 0 0 0 0 0 1 0 0 0 0 0 0 0 0 0 0 1 1 0 1 1 0 0 2 1 0 0 1 2 2 3 3 3 4 5 4 6 4 13 7 9 14 22 23 19 27 32 29 36 30 48
0 0 0 0 0 0 0 0 0 0 0 0 0 0 0 0 0 0 0 0 0 0 0 0 0 0 0 0 1 0 0 0 0 1 0 0 1 0 0 0 1 2 1 1 3 2 3 3 0 6 5 6 3 6 7 8 9 11 15 19 18 25 29 28 30 45 39 40 35
0 0 0 0 0 0 0 0 0 0 0 0 0 0 0 0 0 0 0 0 0 0 0 0 0 0 0 0 0 0 0 0 0 0 0 0 0 0 1 1 1 0 2 2 1 0 1 4 1 2 4 6 6 7 6 7 15 17 7 24 24 16 20 21 23 31 37 45 50
0 0 0 0 0 0 0 0 0 0 0 0 0 0 0 0 0 0 0 0 0 0 0 0 0 0 0 0 0 0 0 0 1 0 1 1 0 0 0 0 1 2 0 1 0 2 1 1 3 4 3 8 4 2 4 5 10 13 10 13 21 23 21 29 33 31 27 37 38
0 0 0 0 0 0 0 0 0 0 0 0 0 0 0 0 0 0 0 0 0 0 1 0 0 0 0 0 0 0 0 0 0 1 1 1 0 2 1 0 1 1 2 0 2 0 1 3 2 0 3 7 11 8 6 5 7 8 12 16 14 14 26 32 32 33 24 47 45
0 0 0 0 0 0 0 0 0 0 0 0 0 0 0 0 0 0 0 0 0 0 0 0 0 0 0 0 0 0 1 0 0 0 0 0 0 0 1 0 0 0 2 3 2 1 1 5 3 5 3 3 5 11 11 7 12 5 14 16 11 17 18 26 37 32 33 37 45
0 0 0 0 0 0 0 0 0 0 0 0 0 0 0 0 0 0 0 1 0 0 0 0 0 0 0 0 0 0 0 0 1 1 1 0 1 0 0 0 1 6 1 2 1 0 3 2 3 2 6 3 6 10 15 10 12 7 8 11 21 27 24 26 32 33 38 41 41
0 0 0 0 0 0 0 0 0 0 0 0 0 0 0 0 0 0 0 0 0 0 0 0 0 0 0 0 0 0 0 0 1 0 0 0 2 1 0 2 1 1 2 0 0 2 3 4 5 3 2 9 5 4 6 7 16 13 11 15 20 24 22 18 26 32 31 38 52
0 0 0 0 0 0 0 0 0 0 0 0 0 0 0 0 0 0 0 0 0 0 0 0 0 0 0 0 0 0 0 1 0 0 0 0 0 0 0 0 2 1 1 0 1 1 3 4 5 7 0 5 4 5 4 4 12 10 13 17 22 23 31 24 28 25 33 44 31
0 0 0 0 0 0 0 0 0 0 0 0 0 0 0 0 0 0 0 0 0 0 0 0 0 0 0 0 0 0 0 0 0 0 0 0 0 0 0 0 2 1 2 2 3 2 1 3 4 2 4 3 4 6 9 7 17 17 8 13 15 26 22 25 24 36 38 38 45
0 0 0 0 0 0 0 0 0 0 0 0 0 0 0 0 0 0 0 0 0 0 0 0 0 0 0 0 0 0 0 0 0 1 1 0 0 1 0 0 0 3 3 1 1 0 1 2 1 2 5 4 2 3 13 6 10 13 11 14 12 23 18 20 33 28 37 35 47
0 0 0 0 0 0 0 0 0 0 0 0 0 0 0 0 0 0 0 0 0 0 0 0 0 0 1 0 0 1 0 0 0 0 0 0 0 1 0 1 0 1 0 4 0 3 1 5 3 2 8 6 6 11 9 6 9 9 14 19 19 14 24 15 31 30 34 49 35
0 0 0 0 0 0 0 0 0 0 0 0 0 0 0 0 0 0 0 0 0 0 0 0 0 0 0 0 0 0 0 0 0 1 0 1 0 1 0 1 3 1 3 2 4 0 1 1 2 3 4 5 7 9 5 9 10 6 9 22 22 18 16 39 28 37 39 42 45
0 0 0 0 0 0 0 0 0 0 0 0 0 0 0 0 0 0 0 0 0 0 0 0 0 0 0 0 0 0 0 0 1 0 0 1 1 0 1 1 2 1 1 1 0 3 2 4 1 1 1 4 5 5 8 13 11 16 13 19 6 22 25 29 41 42 40 31 65
0 0 0 0 0 0 0 0 0 0 0 0 0 0 0 0 0 0 0 0 0 0 0 0 0 0 0 0 0 1 0 0 0 0 0 0 1 0 0 2 2 1 1 2 2 1 0 1 2 7 3 5 9 3 7 5 11 7 12 7 13 17 22 29 30 34 47 44 50
0 0 0 0 0 0 0 0 0 0 0 0 0 0 0 0 0 0 0 0 1 0 0 0 0 0 0 0 0 0 0 0 0 0 1 0 0 1 0 1 2 2 2 3 2 4 2 2 3 5 5 4 5 4 4 18 4 8 10 17 19 28 20 19 28 42 29 40 48
0 0 0 0 0 0 0 0 0 1 0 0 0 0 0 0 0 0 0 0 1 0 0 0 0 0 0 0 0 0 0 0 0 0 0 0 0 1 3 2 3 0 1 0 4 3 4 2 4 2 5 2 11 6 8 5 12 8 19 11 25 24 21 26 34 37 51 43 58
0 0 0 0 0 0 0 0 0 0 0 0 0 0 0 0 0 0 0 0 1 0 1 0 0 0 0 0 0 0 0 0 0 0 0 0 1 0 3 0 0 2 2 2 2 3 3 3 3 3 5 6 7 7 10 7 9 11 10 15 25 23 26 25 40 37 33 51 47
0 0 0 0 0 0 0 0 0 0 0 0 0 0 0 0 0 0 0 0 0 0 0 0 0 0 1 0 0 1 0 0 0 0 0 0 1 0 0 1 0 1 0 2 4 1 1 3 1 5 4 0 3 7 8 10 11 10 16 12 9 15 25 41 23 32 35 41 45
0 0 0 0 0 0 0 0 0 0 0 0 0 0 0 0 0 0 0 0 0 1 0 0 0 0 0 0 0 0 0 0 0 1 0 1 0 1 0 0 0 2 0 5 1 1 3 4 6 2 3 7 9 5 10 5 14 21 18 22 25 28 18 22 26 36 23 45 44
0 0 0 0 0 0 0 0 0 0 0 0 0 0 0 0 0 0 0 0 0 0 0 0 0 0 0 0 0 0 0 1 0 0 1 0 1 0 0 0 0 0 1 1 3 0 1 2 6 5 1 2 4 11 10 11 15 13 17 20 17 21 14 39 32 37 35 44 45
0 0 0 0 0 0 0 0 0 0 0 0 0 0 0 0 0 0 0 1 0 0 0 0 0 0 0 0 0 0 0 0 0 1 0 0 2 0 1 2 0 1 1 0 1 1 3 5 3 4 1 1 7 9 9 8 13 8 12 20 18 16 30 32 33 32 37 42 61
0 0 0 0 0 0 0 0 0 0 0 0 0 0 0 0 0 0 0 0 0 0 0 1 1 0 0 0 1 0 0 0 1 0 0 0 1 0 0 1 1 4 0 3 6 1 1 5 2 1 6 6 7 6 6 15 9 9 15 31 19 17 34 27 36 41 42 43 54
0 0 0 0 0 0 0 0 0 0 0 0 0 0 0 0 0 0 0 0 0 0 0 0 0 0 0 0 0 0 0 0 0 0 0 2 1 0 0 3 2 3 4 4 2 2 2 5 4 3 5 4 4 6 5 10 9 7 12 20 14 22 25 24 54 38 26 56 45
0 0 0 0 0 0 0 0 0 0 0 0 0 0 0 0 0 0 0 0 0 0 0 0 0 0 0 0 0 0 0 1 0 1 0 0 1 0 0 1 3 1 0 2 1 4 3 4 2 1 4 4 13 8 11 7 19 7 15 15 21 25 30 24 27 23 32 47 58
0 0 0 0 0 0 0 0 0 0 0 0 0 0 0 0 0 0 0 0 0 0 0 0 0 0 1 0 0 0 0 0 0 0 0 0 1 0 2 3 0 0 0 2 3 2 4 2 5 5 6 8 9 9 9 7 12 13 18 23 15 27 22 29 28 38 28 37 48
0 0 0 0 0 0 0 0 0 0 0 0 0 0 0 0 0 0 0 0 0 1 0 0 0 0 0 0 0 0 0 1 0 0 1 0 0 0 0 1 1 0 1 1 1 4 2 1 0 3 5 5 4 12 8 10 7 10 11 17 19 28 17 24 28 35 32 42 52
0 0 0 0 0 0 0 0 0 0 0 0 0 0 0 0 0 0 0 0 0 0 0 0 0 0 0 0 0 1 0 0 0 0 0 0 0 1 1 2 0 0 1 1 1 2 2 2 4 2 4 5 4 6 7 11 7 14 8 17 25 29 28 36 26 31 37 50 67
0 0 0 0 0 0 0 0 0 0 0 0 0 0 0 0 0 0 0 0 0 0 0 0 0 0 0 0 0 0 0 2 0 0 1 0 1 0 1 0 2 1 2 1 4 3 1 1 1 4 1 5 2 5 8 12 5 16 15 18 9 23 31 24 26 29 56 47 54
0 0 0 0 0 0 0 0 0 0 0 0 0 0 0 0 0 0 0 0 0 0 0 0 0 1 0 0 0 0 0 0 0 1 0 0 0 0 0 2 1 1 2 2 0 2 2 6 5 5 5 7 6 6 9 12 15 12 16 14 15 23 33 22 31 49 43 39 60
0 0 0 0 0 0 0 0 0 0 0 0 0 0 0 0 0 0 0 0 0 0 0 0 0 0 0 0 0 0 0 0 0 0 0 0 1 0 0 1 1 0 1 1 0 2 3 3 3 5 4 5 6 7 8 6 9 7 10 18 12 20 23 28 31 40 34 39 60
0 0 0 0 0 0 0 0 0 0 0 0 0 0 0 0 0 0 0 0 1 0 0 0 0 0 0 0 0 0 0 0 0 1 1 0 1 0 0 1 1 2 4 4 5 1 5 4 3 5 3 2 6 12 7 14 8 12 14 10 7 24 14 31 37 27 35 35 58
0 0 0 0 0 0 0 0 0 0 0 0 0 0 0 0 0 0 0 1 0 0 0 0 0 0 1 0 0 0 1 0 0 0 0 0 1 0 0 0 1 2 2 1 4 3 1 1 2 7 5 6 6 8 9 9 12 15 13 13 13 20 24 29 27 35 40 37 46
0 0 0 0 0 0 0 0 0 0 0 0 0 0 0 0 0 0 0 0 0 0 0 0 1 0 0 1 1 0 0 0 1 1 0 1 1 0 0 0 1 1 3 1 0 3 4 2 3 3 2 4 10 8 6 10 16 18 20 9 14 28 18 31 20 38 44 48 39
0 0 0 0 0 0 0 0 0 0 0 0 0 0 0 0 0 0 0 0 0 0 0 0 1 0 0 0 0 0 0 0 0 0 1 0 0 0 0 2 1 0 2 1 3 1 5 2 5 5 4 2 7 7 8 10 9 8 18 18 19 14 21 21 35 29 47 45 68
0 0 0 0 0 0 0 0 0 0 0 0 0 0 0 0 0 0 0 0 0 0 0 0 0 0 0 0 0 0 1 0 0 0 1 0 1 0 0 1 1 0 2 3 1 0 2 0 3 2 7 15 3 7 5 10 11 12 13 18 13 22 24 29 35 28 44 34 43
0 0 0 0 0 0 0 0 0 0 0 0 0 0 0 0 0 0 0 0 0 0 0 0 0 0 0 0 0 0 0 0 0 0 0 0 1 0 0 0 1 3 0 4 1 1 2 2 3 5 2 3 6 9 9 14 15 10 9 21 19 33 24 29 33 44 36 49 52
0 0 0 0 0 0 0 0 0 0 0 0 0 0 0 0 0 0 0 0 0 0 0 0 0 0 1 0 0 0 0 0 0 0 1 0 1 0 1 2 2 1 0 2 1 1 2 3 3 2 3 3 1 8 6 6 10 12 18 14 13 18 36 27 38 33 34 37 43
0 0 0 0 0 0 0 0 0 0 0 0 0 0 0 0 0 0 0 0 0 0 0 0 0 0 0 0 0 0 0 0 0 0 0 0 0 1 0 0 0 1 1 2 0 1 5 2 3 2 4 5 5 4 4 9 14 16 9 16 12 21 20 31 36 37 50 40 57
0 0 0 0 0 0 0 0 0 0 0 0 0 0 0 0 0 0 0 0 0 0 0 0 0 0 0 0 0 1 0 0 0 1 1 0 0 1 2 1 1 2 1 1 1 1 2 6 0 7 4 6 3 8 3 11 6 11 11 7 19 22 26 30 28 33 48 54 40
0 0 0 0 0 0 0 0 0 0 0 0 0 0 0 0 0 0 0 0 0 0 0 0 0 0 0 0 0 0 0 0 0 2 1 1 0 2 1 0 0 0 0 3 2 1 2 4 4 6 3 1 8 6 10 10 10 12 13 14 24 22 21 28 30 34 34 41 54
0 0 0 0 0 0 0 0 0 0 0 0 0 0 0 0 0 0 0 0 0 0 0 0 0 0 0 0 0 0 0 0 0 0 0 0 0 0 2 1 1 1 2 4 1 2 7 2 4 2 4 3 4 5 9 8 7 17 8 13 19 19 18 18 31 37 46 37 52
0 0 0 0 0 0 0 0 0 0 0 0 0 0 0 0 0 0 0 0 0 0 0 0 0 0 0 0 0 0 0 1 0 0 0 0 0 0 1 1 1 1 3 1 1 3 1 2 4 6 4 6 5 8 6 8 12 11 20 18 26 18 18 34 35 41 36 39 54
0 0 0 0 0 0 0 0 0 0 0 0 0 0 0 0 0 0 0 0 0 0 0 0 0 0 0 0 1 1 0 0 0 0 0 1 0 0 0 2 0 0 4 1 3 0 3 5 3 6 2 5 10 13 8 9 11 16 8 13 16 25 23 27 19 29 33 49 32
0 0 0 0 0 0 0 0 0 0 0 0 0 0 0 0 0 0 0 0 0 0 0 0 0 0 0 0 0 0 0 1 0 0 1 1 0 0 1 0 3 1 2 0 2 3 4 4 0 3 5 6 7 5 11 6 11 14 18 13 19 24 20 27 24 31 41 43 47
0 0 0 0 0 0 0 0 0 0 0 0 0 0 0 0 0 0 0 0 0 0 0 0 0 0 0 0 0 0 0 0 0 0 1 1 0 0 0 0 1 1 1 3 0 1 0 4 3 5 6 3 5 4 14 15 14 10 8 12 23 21 23 22 29 29 32 27 59
0 0 0 0 0 0 0 0 0 0 0 0 0 1 0 0 0 0 0 0 0 0 0 0 0 0 0 0 0 0 0 0 0 0 0 0 0 0 0 1 1 2 0 0 3 2 2 3 2 2 5 4 3 14 4 10 10 10 16 21 15 20 16 23 32 41 39 32 46
0 0 0 0 0 0 0 0 0 0 0 0 0 0 0 0 0 0 0 0 0 0 0 0 0 0 0 0 0 0 0 0 1 0 0 0 0 0 0 0 1 2 0 2 0 0 6 0 1 5 3 8 6 10 4 9 13 13 13 12 19 27 21 31 26 44 51 51 47
0 0 0 0 0 0 0 0 0 0 0 0 0 0 0 0 0 0 0 0 0 0 0 0 0 0 0 0 0 0 0 1 2 1 0 0 1 0 1 0 1 1 1 3 2 1 2 2 2 2 2 2 5 8 9 8 6 12 15 13 13 17 22 29 32 43 31 42 41
0 0 0 0 0 0 0 0 0 0 0 0 0 0 0 0 0 0 0 0 0 0 0 0 0 1 0 1 0 0 0 0 0 0 0 1 0 0 1 1 0 1 1 0 0 1 5 2 6 2 4 5 5 13 5 10 9 9 11 10 15 15 17 34 27 32 32 35 50
0 0 0 0 0 0 0 0 0 0 0 0 0 0 0 0 0 0 0 0 0 0 0 0 0 0 0 0 0 0 0 0 0 1 0 1 2 1 0 1 0 2 0 0 1 4 3 1 3 0 2 3 5 5 7 7 9 10 19 13 19 18 25 19 27 31 46 46 41
0 0 0 0 0 0 0 0 0 0 0 0 0 0 0 0 0 0 0 0 0 0 0 0 0 0 0 0 0 0 0 0 1 0 0 0 0 0 2 2 1 2 1 2 1 1 1 2 7 2 2 2 7 3 7 9 9 14 11 16 11 15 17 25 36 23 41 57 41
0 0 0 0 0 0 0 0 0 0 0 0 0 0 0 0 0 0 0 0 0 0 1 0 0 0 0 0 0 0 0 0 0 1 0 0 2 0 0 1 0 2 4 2 0 1 4 2 2 5 3 2 3 6 4 6 5 18 20 16 16 25 21 25 27 39 42 39 39
0 0 0 0 0 0 0 0 0 0 0 0 0 0 0 0 0 0 0 0 0 0 0 0 0 0 0 0 0 0 0 0 0 1 0 0 0 0 1 1 3 1 3 0 1 1 3 4 0 2 5 6 2 5 7 13 11 10 20 11 15 16 22 17 38 42 34 43 49
0 0 0 0 0 0 0 0 0 0 0 0 0 0 0 0 0 0 0 0 0 0 0 0 0 0 0 0 0 0 0 0 0 0 0 0 1 0 0 1 1 3 0 1 0 0 3 3 4 5 4 4 3 8 9 6 11 9 18 20 13 13 20 27 29 31 33 44 37
0 0 0 0 0 0 0 0 0 0 0 0 0 0 0 0 0 0 0 0 0 0 0 0 1 0 0 0 0 0 0 0 1 0 0 1 1 1 0 2 0 2 3 0 0 3 1 5 5 2 2 5 5 7 9 6 12 8 18 25 23 22 28 26 27 31 35 41 47
0 0 0 0 0 0 0 0 0 0 0 0 0 0 0 0 0 0 0 0 0 0 0 0 0 0 0 0 0 0 0 0 0 0 0 0 0 0 1 1 0 2 0 0 0 1 1 3 3 1 7 8 3 4 5 4 6 9 19 17 10 23 27 18 30 28 30 46 55
0 0 0 0 0 0 0 0 0 0 0 0 0 0 0 0 0 0 0 0 0 0 0 0 0 0 0 0 0 0 0 0 0 0 1 0 0 1 1 1 3 1 4 1 2 3 1 3 3 6 6 4 11 8 6 8 13 4 18 11 24 22 27 23 42 37 38 47 52
0 0 0 0 0 0 0 0 0 0 0 0 0 0 0 0 0 0 0 0 0 0 0 0 0 0 0 0 0 0 0 0 0 1 0 0 1 0 2 2 1 0 0 4 4 1 5 0 5 5 4 7 3 8 5 11 5 13 13 20 20 26 23 32 34 33 37 48 45
0 0 0 0 0 0 0 0 0 0 0 0 0 0 0 0 0 0 0 0 0 0 0 0 0 0 0 0 0 0 0 0 0 0 0 0 0 0 0 1 1 1 2 1 3 1 3 4 3 2 3 4 6 14 8 9 14 11 9 13 24 24 19 25 26 35 30 38 53
0 0 0 0 0 0 0 0 0 0 0 0 0 0 0 0 0 0 0 0 0 0 0 0 0 0 0 0 0 1 0 0 0 0 0 1 0 0 2 2 1 0 1 4 2 5 4 2 2 5 5 2 8 7 6 8 16 13 14 11 18 19 27 24 33 33 34 40 42
0 0 0 0 0 0 0 0 0 0 0 0 0 0 0 0 0 0 0 0 0 0 0 0 0 1 0 1 1 0 1 0 1 0 0 0 0 1 1 0 2 0 2 0 1 0 2 4 2 5 3 5 3 9 5 10 9 9 14 19 19 25 23 26 26 33 44 43 51
0 0 0 0 0 0 0 0 0 0 0 0 0 0 0 0 0 0 0 0 0 0 0 0 0 0 0 0 0 0 0 0 0 1 0 0 0 0 0 1 1 1 4 0 3 1 3 3 3 4 1 5 4 8 8 10 9 16 15 16 17 24 19 19 33 31 31 42 41
0 0 0 0 0 0 0 0 0 0 0 0 0 0 0 0 0 0 0 0 0 0 0 0 0 0 0 1 0 0 0 0 0 0 0 1 0 0 0 0 1 1 5 1 1 3 0 2 3 4 2 9 7 7 9 8 12 14 18 17 19 20 27 20 37 46 36 55 62
0 0 0 0 0 0 0 0 0 0 0 0 0 0 0 0 0 0 0 0 0 0 0 0 1 0 0 0 0 0 0 0 0 0 0 1 0 0 1 0 2 0 0 1 1 1 5 2 3 3 1 7 5 8 6 8 11 12 12 10 19 21 21 29 27 38 52 54 57
0 0 0 0 0 0 0 0 0 0 0 0 0 0 0 0 0 0 0 0 0 0 0 0 0 0 0 0 0 0 0 0 0 0 0 0 0 1 1 0 0 0 0 3 3 2 2 2 6 4 3 6 7 9 10 10 8 19 9 18 18 23 23 29 30 40 44 51 51
0 0 0 0 0 0 0 0 0 0 0 0 0 0 0 0 0 0 0 0 0 0 0 0 1 0 0 0 0 0 0 0 0 0 0 1 3 2 1 0 1 0 1 1 0 1 2 4 7 8 2 6 6 8 8 11 11 16 17 14 23 24 29 33 36 29 40 48 43
0 0 0 0 0 0 0 0 0 0 0 0 0 0 0 0 0 0 0 0 1 0 0 0 0 0 0 1 0 0 0 0 0 0 1 1 0 0 0 0 0 0 1 2 3 6 4 5 3 2 8 8 7 4 6 13 6 8 11 9 13 30 26 26 30 35 40 53 60
0 0 0 0 0 0 0 0 0 0 0 0 0 0 0 0 0 0 0 0 0 0 0 0 0 0 0 0 0 0 0 1 0 0 0 0 1 1 1 0 1 3 2 3 2 3 2 4 5 5 4 3 6 8 9 13 14 15 20 9 23 21 27 35 25 34 41 46 47
0 0 0 0 0 0 0 0 0 0 1 0 0 0 0 0 0 0 0 0 0 0 0 0 0 0 0 1 0 0 0 0 0 0 0 0 0 1 0 0 1 0 0 3 4 2 6 3 5 3 2 6 4 3 5 12 7 7 14 12 24 19 28 24 30 47 51 47 55
0 0 0 0 0 0 0 0 0 0 0 0 0 0 0 0 0 0 0 0 0 1 0 0 0 0 0 0 0 0 0 0 0 1 0 0 1 1 0 1 0 0 2 2 2 1 2 3 5 6 2 5 6 4 5 10 8 13 12 15 14 30 24 35 35 26 58 45 60
0 0 0 0 0 0 0 0 0 0 0 0 0 0 0 0 0 0 0 0 0 0 0 0 0 0 0 0 0 0 0 0 1 0 0 1 0 0 0 1 1 1 1 2 2 5 2 2 6 4 3 1 3 8 12 13 19 10 8 21 14 20 26 26 39 53 52 35 48
0 0 0 0 0 0 0 0 0 0 0 0 0 0 0 0 0 0 0 0 0 0 0 0 0 0 0 0 0 0 0 0 0 1 1 0 1 1 0 1 3 1 3 1 3 5 1 5 8 4 4 5 4 5 4 9 8 16 16 16 16 19 26 19 31 33 35 58 39
0 0 0 0 0 0 0 0 0 0 0 0 0 0 0 0 0 0 0 0 0 0 0 0 0 0 0 0 0 0 0 1 0 0 0 0 2 0 0 1 2 3 0 2 1 4 2 4 3 8 7 3 6 9 6 5 10 14 19 10 22 20 25 27 39 30 53 29 64
0 0 0 0 0 0 0 0 0 0 0 0 0 0 0 0 0 0 0 0 0 0 0 0 0 0 0 0 0 0 0 0 0 0 0 0 0 0 0 2 1 1 1 3 1 1 3 3 2 5 7 7 6 5 7 9 15 12 23 16 13 34 29 32 22 35 50 45 52
0 0 0 0 0 0 0 0 0 0 0 0 0 0 0 0 0 0 0 0 0 0 0 0 0 1 0 0 0 1 0 0 0 0 1 0 1 2 1 2 0 0 2 1 0 6 1 1 2 3 2 7 6 11 9 6 16 14 9 15 23 25 30 20 45 52 44 47 55
0 0 0 0 0 0 0 0 0 0 0 0 0 0 0 1 0 0 0 0 0 0 0 0 0 0 0 0 0 0 0 1 0 0 1 0 1 0 0 0 1 1 3 1 1 4 5 4 3 4 2 8 4 8 11 11 13 14 15 25 19 19 25 36 32 39 41 34 45
0 0 0 0 0 0 0 0 0 0 0 0 0 0 0 0 0 0 0 0 0 0 0 0 0 0 0 0 1 0 0 0 0 0 1 1 0 2 1 0 2 2 0 3 3 3 2 2 3 4 4 4 8 3 8 9 10 15 17 20 13 28 26 27 39 31 40 62 60
0 0 0 0 0 0 0 0 0 0 0 0 0 0 0 0 0 0 0 0 0 0 0 0 0 0 0 0 0 0 1 0 0 0 1 0 0 2 1 2 1 0 1 2 2 1 5 2 5 3 5 3 8 8 7 6 6 10 10 12 25 21 23 21 31 52 54 55 40
0 0 0 0 0 0 0 0 0 0 0 0 0 0 0 0 0 0 0 0 0 0 0 0 0 0 0 1 0 0 0 0 0 0 0 0 0 2 0 2 0 2 0 2 1 2 4 2 2 2 7 5 6 12 7 5 10 16 18 17 27 16 22 24 28 32 54 37 46
0 0 0 0 0 0 0 0 0 0 0 0 0 0 0 0 0 0 0 1 0 0 0 0 0 0 0 0 0 0 0 0 0 0 0 2 0 0 2 0 0 0 2 1 1 2 2 1 3 6 6 5 8 8 7 8 12 21 14 21 12 28 27 25 41 39 40 55 55
0 0 0 0 0 0 0 0 0 0 0 0 0 0 0 0 0 0 0 0 0 0 0 0 0 0 1 0 0 0 0 0 0 0 1 0 0 1 3 1 2 1 2 2 2 5 0 7 0 3 4 5 4 8 12 13 6 12 19 18 22 24 34 27 29 26 42 49 48
0 0 0 0 0 0 0 0 0 0 0 0 0 0 0 0 0 0 0 0 0 0 0 0 0 0 0 0 0 0 2 0 0 1 0 0 0 1 0 1 0 2 1 1 1 2 1 1 4 3 2 6 7 5 10 8 11 20 19 18 21 19 33 33 28 35 30 37 68
0 0 0 0 0 0 0 0 0 0 0 0 0 0 0 0 0 0 0 0 0 0 0 0 0 0 0 0 0 0 0 0 0 0 0 0 0 0 0 0 2 2 1 1 5 3 3 1 2 1 1 4 6 4 11 7 12 10 16 15 16 21 22 30 37 35 34 56 46
0 0 0 0 0 0 0 0 0 0 0 0 0 0 0 0 0 0 0 0 0 0 0 1 0 0 0 0 0 0 0 0 1 0 0 0 0 0 2 1 4 0 0 3 1 3 2 3 4 4 5 6 4 10 6 3 11 15 17 20 16 18 21 20 28 31 40 56 58
0 0 0 0 0 0 0 0 0 0 0 0 0 0 0 0 0 0 0 0 1 0 0 0 0 0 0 0 0 1 0 0 0 0 0 0 1 0 3 3 1 2 4 1 1 2 1 2 2 2 3 2 2 8 3 10 14 13 16 13 14 25 24 19 30 36 37 50 45
0 0 0 0 0 0 0 0 0 0 0 0 0 0 0 0 0 0 0 0 0 0 0 1 0 0 0 0 0 0 0 0 0 0 0 0 0 0 1 0 2 1 0 2 2 2 1 3 1 3 5 3 10 4 13 14 13 12 10 24 20 17 20 14 42 22 35 44 52
0 0 0 0 0 0 0 0 0 0 0 0 0 0 1 0 0 0 0 0 0 0 0 0 1 0 1 0 0 0 0 1 0 0 0 1 1 0 1 0 2 1 0 1 0 1 2 1 2 4 4 7 7 9 5 9 10 11 14 13 17 26 29 36 21 46 37 53 48
0 0 0 0 0 0 0 0 0 0 0 0 0 0 0 0 0 0 0 0 0 0 0 0 0 0 0 0 1 0 0 0 0 1 0 0 0 1 0 1 1 0 1 2 0 0 2 2 4 5 4 6 5 12 13 6 11 6 15 14 21 29 22 28 35 35 32 46 49
0 0 0 0 0 0 0 0 0 0 0 0 0 0 0 0 0 0 0 0 0 0 0 0 0 0 0 0 0 0 0 0 0 0 2 0 1 1 0 0 1 0 3 0 0 5 3 1 2 3 3 5 6 9 6 5 15 14 17 13 16 18 17 30 34 37 33 48 47
0 0 0 0 0 0 0 0 0 0 0 0 0 0 0 0 0 0 0 0 0 0 0 0 0 0 0 0 0 0 0 1 0 0 1 0 3 0 0 0 1 1 1 3 3 1 1 4 6 4 8 3 3 5 6 6 11 10 15 18 16 22 26 36 29 36 36 38 47
0 0 0 0 0 0 0 0 0 0 0 0 0 0 0 0 0 0 0 0 0 0 0 0 0 0 0 0 0 1 0 0 0 0 0 2 0 3 1 0 3 0 3 3 2 2 1 1 0 5 5 3 4 5 6 8 14 14 18 11 17 17 23 29 33 37 35 36 40
0 0 0 0 0 0 0 0 0 0 0 0 0 0 0 0 0 0 0 0 0 0 0 0 0 0 0 0 0 0 1 0 0 0 0 0 0 1 0 1 1 3 1 1 3 4 4 3 2 1 2 5 6 6 13 13 7 14 14 16 16 16 23 26 30 35 32 58 54
0 0 0 0 0 0 0 0 0 0 0 0 0 0 0 0 0 0 0 0 0 0 0 0 0 0 0 0 0 0 0 0 0 0 0 1 0 0 0 1 1 3 2 2 2 3 2 2 5 1 4 4 3 5 13 8 16 12 15 14 15 13 33 19 27 32 46 42 45
0 0 0 0 0 0 0 0 0 0 0 0 0 0 0 0 0 0 0 0 0 0 0 0 0 1 0 0 0 0 0 0 0 0 0 1 0 0 2 1 0 2 0 2 1 3 5 2 4 7 8 6 11 4 7 2 12 9 16 16 20 20 27 26 26 30 21 44 55
0 0 0 0 0 0 0 0 0 0 0 0 0 0 0 0 0 0 0 0 0 0 0 0 0 0 0 1 0 0 0 0 0 0 0 0 1 0 1 1 0 4 1 1 1 3 3 5 3 7 8 5 5 7 5 3 6 17 11 18 13 22 22 21 28 30 42 44 46
0 0 0 0 0 0 0 0 0 0 0 0 0 0 0 0 0 0 0 0 0 0 0 0 0 0 0 0 0 0 0 0 0 0 0 0 1 1 0 0 0 3 1 1 2 3 1 3 6 2 8 5 10 7 12 16 12 8 16 10 16 20 32 24 22 31 36 43 50
0 0 0 0 0 0 0 0 0 0 0 0 0 0 0 0 0 0 0 0 0 0 0 0 0 0 0 0 0 1 1 0 0 0 0 0 1 1 0 0 1 0 2 0 1 3 3 2 2 2 5 4 4 3 4 3 10 18 13 13 14 27 33 30 28 28 39 38 40
0 0 0 0 0 0 0 0 0 0 0 0 0 0 0 0 0 0 0 0 0 0 0 0 0 0 0 0 1 0 0 0 1 0 0 1 1 0 0 0 0 1 0 1 2 2 2 4 3 4 6 6 1 7 8 13 10 8 19 10 13 17 16 25 27 37 37 38 44
0 0 0 0 0 0 0 0 0 0 0 0 0 0 0 0 0 0 0 0 0 0 0 0 0 0 0 0 0 0 0 0 0 0 0 1 1 0 1 0 2 0 0 1 2 4 4 5 4 3 4 4 6 5 5 8 11 17 9 11 14 22 18 29 40 38 37 48 52
0 0 0 0 0 0 0 0 0 0 0 0 0 0 0 0 0 0 0 0 0 0 0 0 0 0 0 0 0 0 0 0 0 0 1 1 1 0 0 0 1 2 5 3 1 4 3 3 11 1 2 7 4 6 8 10 14 10 13 11 22 20 24 24 21 25 45 39 37
0 0 0 0 0 0 0 0 0 0 0 0 0 0 0 0 0 0 0 0 0 0 0 0 0 0 0 0 0 0 0 0 1 0 0 0 1 0 0 0 2 1 3 1 1 1 3 4 3 6 4 5 6 10 8 7 12 10 15 16 22 18 20 24 28 37 37 49 50
0 0 0 0 0 0 0 0 0 0 0 0 0 0 0 0 0 0 0 0 0 0 0 0 0 0 0 0 0 0 0 0 0 1 0 0 1 0 0 1 1 0 1 1 0 4 4 2 0 3 4 8 8 4 11 12 5 16 14 18 19 24 25 27 28 24 35 35 47
0 0 0 0 0 0 0 0 0 0 0 0 0 0 0 0 0 0 0 0 0 0 0 0 0 0 0 0 0 0 0 0 0 0 0 0 0 1 0 0 1 1 2 2 1 2 1 3 7 6 10 4 4 7 11 12 13 11 15 20 16 19 17 31 32 36 24 45 36
0 0 0 0 0 0 0 0 0 0 0 0 0 0 0 0 0 0 0 0 0 0 0 0 0 0 0 0 0 0 0 0 0 1 0 0 0 3 0 0 2 3 0 0 0 2 1 4 2 1 5 4 4 7 12 17 9 16 11 14 14 11 26 23 40 35 44 49 59
0 0 0 0 0 0 0 0 0 0 0 0 0 0 0 0 0 0 0 0 0 0 0 0 0 0 0 0 1 0 0 0 0 0 1 0 1 0 1 0 1 0 0 1 2 1 2 1 1 3 5 4 7 8 9 8 11 10 19 7 10 12 15 29 41 33 25 51 48
0 0 0 0 0 0 0 0 0 1 0 0 0 0 0 0 0 0 0 0 0 0 0 0 0 0 0 2 0 0 0 0 1 0 0 1 3 0 3 0 1 4 1 3 2 1 4 3 5 1 8 6 9 9 3 7 7 16 11 19 17 19 32 25 22 34 39 40 42
0 0 0 0 0 0 0 0 0 0 0 0 0 0 0 0 0 0 0 0 0 0 0 0 0 0 0 0 0 0 0 0 0 1 0 2 0 1 1 0 2 1 2 1 1 1 3 4 3 8 5 3 4 9 10 7 9 10 15 17 20 23 27 30 25 29 48 35 41
0 0 0 0 0 0 0 0 0 0 0 0 0 0 0 0 0 0 0 0 0 0 0 0 0 0 0 0 0 0 0 0 0 0 0 0 0 2 1 1 2 1 0 0 2 4 3 1 3 4 3 7 5 5 7 11 13 7 16 12 24 29 24 22 34 26 37 47 43
0 0 0 0 0 0 0 0 0 0 0 0 0 0 0 0 0 0 0 0 0 0 0 0 0 0 0 0 1 0 0 0 0 1 1 1 2 0 0 1 1 0 2 1 3 0 4 2 1 4 5 4 8 6 6 8 3 10 11 16 22 27 17 21 32 39 33 49 44
0 0 0 0 0 0 0 0 0 0 0 0 0 0 0 0 0 0 0 0 0 0 0 0 0 0 0 0 0 0 0 1 0 0 0 0 1 1 1 1 2 2 5 1 0 1 0 1 2 2 2 5 12 6 6 5 10 10 14 9 19 25 38 34 31 29 36 48 47
0 0 0 0 0 0 0 0 0 0 0 0 0 0 0 0 0 0 0 0 0 0 0 1 0 0 0 0 0 0 0 0 1 0 1 0 0 0 0 2 1 2 1 2 3 3 6 1 3 2 9 4 8 5 11 7 10 14 16 19 17 16 27 25 35 41 43 40 38
0 0 0 0 0 0 0 0 0 0 0 0 0 0 0 0 0 0 0 0 0 0 0 0 0 0 0 0 0 0 0 1 0 1 0 2 1 0 1 0 0 0 1 2 1 3 3 1 2 6 5 4 8 7 7 6 14 8 15 13 24 24 25 33 21 35 35 35 43
0 0 0 0 0 0 0 0 0 0 0 0 0 0 0 0 0 0 0 0 0 0 0 0 0 0 0 0 0 1 0 0 0 1 1 0 1 2 0 1 1 2 1 1 2 3 5 3 2 2 7 7 4 5 2 7 17 11 19 10 23 19 21 21 37 30 47 50 44
0 0 0 0 0 0 0 0 0 0 0 0 0 0 0 0 0 0 0 0 0 0 0 0 0 1 0 0 0 0 0 1 1 0 2 0 1 0 0 1 1 0 2 5 3 5 4 1 4 4 4 3 0 7 8 6 10 10 18 26 14 18 30 31 19 33 49 61 54
0 0 0 0 0 0 0 0 0 0 0 0 0 0 0 0 0 0 0 0 0 0 0 0 0 0 0 0 0 0 0 0 0 0 0 0 0 0 1 1 1 1 2 1 3 0 2 3 4 5 4 4 5 9 9 6 9 12 16 19 17 21 31 27 35 28 40 44 47
0 0 0 0 0 0 0 0 0 0 0 0 0 0 0 0 0 0 0 0 0 0 0 0 1 0 0 0 0 0 0 0 0 0 0 1 1 0 3 0 1 2 3 1 1 1 5 1 1 4 5 5 5 4 9 4 7 12 13 15 20 20 23 22 23 43 46 52 43
0 0 0 0 0 0 0 0 0 0 0 0 0 0 0 0 0 0 0 0 0 0 0 0 0 0 0 0 0 0 0 0 0 0 0 1 0 0 0 0 1 0 2 0 1 1 0 4 1 4 5 5 5 6 6 7 10 16 15 12 15 25 24 26 27 30 57 46 49
0 0 0 0 0 0 0 0 0 0 0 0 0 0 0 0 0 0 0 0 0 0 0 0 0 0 0 0 0 0 0 0 0 0 1 1 0 0 0 0 1 0 1 2 1 2 2 2 3 1 4 2 7 8 9 10 17 15 14 11 17 21 24 23 31 35 46 54 51
0 0 0 0 0 0 0 0 0 0 0 0 0 0 0 0 0 0 0 0 0 0 0 0 0 0 0 0 0 0 0 0 0 0 1 0 1 0 1 1 0 0 1 5 1 2 1 1 6 4 4 5 9 4 7 10 8 18 14 16 22 14 24 23 43 51 38 49 50
0 0 0 0 0 0 0 0 0 0 0 0 0 0 0 0 0 0 0 0 0 0 0 0 0 0 0 0 0 0 1 0 2 0 0 0 0 1 0 2 1 3 1 0 2 0 7 5 1 2 6 5 5 8 12 8 14 15 9 21 18 24 21 18 27 39 43 50 47
0 0 0 0 0 0 0 0 0 0 0 0 0 0 0 0 0 0 0 0 0 0 0 0 0 0 0 1 0 0 0 0 0 0 1 0 0 1 0 0 1 1 1 1 2 4 2 4 6 7 1 3 4 4 3 9 15 9 19 15 14 22 22 36 42 36 43 51 58
0 0 0 0 0 0 0 0 0 0 0 0 0 0 0 0 0 0 0 0 0 0 0 0 0 0 0 0 0 0 0 2 0 1 0 0 0 0 2 0 0 2 0 2 0 2 3 1 2 2 6 6 5 4 6 8 13 16 24 21 24 21 27 29 30 31 39 41 59
0 0 0 0 0 0 0 0 0 0 0 0 0 0 0 0 0 0 0 0 0 0 0 0 0 0 0 0 0 0 0 0 1 1 0 0 3 1 1 0 0 1 2 0 2 5 6 1 4 5 4 5 15 4 12 6 6 15 12 17 13 25 28 25 37 52 40 51 58
0 0 0 0 0 0 0 0 0 0 0 0 0 0 0 0 0 0 0 0 0 0 0 0 0 0 0 0 0 0 0 0 2 0 1 2 0 1 0 1 2 1 3 2 4 1 5 4 1 5 1 5 2 8 12 6 12 9 13 21 18 22 28 26 28 35 52 58 52
0 0 0 0 0 0 0 0 0 0 0 0 0 0 0 0 0 0 0 0 0 0 0 0 0 0 0 0 0 0 1 0 0 2 1 0 1 1 1 1 1 1 0 0 3 3 2 5 2 4 5 3 3 7 8 4 11 22 16 16 24 31 20 33 32 33 44 53 72
0 0 0 0 0 0 0 0 0 0 0 0 0 0 0 0 0 0 0 0 0 0 0 0 0 0 0 0 0 0 0 0 0 0 0 1 0 1 2 2 1 2 0 1 1 1 5 5 3 6 10 8 7 5 6 10 12 14 20 15 11 19 37 26 23 37 36 48 47
0 0 0 0 0 0 0 0 0 0 0 0 0 0 0 0 0 0 0 0 0 0 0 0 0 0 0 0 1 1 0 0 0 0 0 1 1 1 1 0 0 1 3 2 4 2 2 0 4 3 6 11 7 9 7 12 11 12 10 21 14 20 16 22 26 37 55 47 40
0 0 0 0 0 0 0 0 0 0 0 0 0 0 0 0 0 0 0 0 0 1 0 0 0 0 0 0 0 0 0 0 0 0 0 3 0 1 1 0 0 0 1 3 0 2 4 3 2 2 6 8 5 14 9 7 9 13 8 19 24 17 21 27 26 34 44 41 43
0 0 0 0 0 0 0 0 0 0 0 0 0 0 0 0 0 0 0 0 0 0 0 0 0 0 0 0 0 0 0 1 0 1 1 0 1 0 0 0 1 3 1 2 2 2 4 2 3 3 2 7 7 8 11 9 16 10 11 13 19 19 32 29 37 44 42 43 44
0 0 0 0 0 0 0 0 0 0 0 0 0 0 0 0 0 0 0 0 0 0 0 0 0 0 0 0 0 0 0 0 0 0 0 0 0 4 0 3 1 2 2 1 1 1 2 2 6 7 6 11 4 3 7 11 9 11 14 16 14 19 35 36 22 27 38 37 54
0 0 0 0 0 0 0 0 0 0 0 0 0 0 0 0 0 0 0 1 0 0 0 0 0 0 0 0 0 0 0 0 0 0 0 0 0 1 0 0 0 1 0 1 1 1 7 2 5 3 6 7 7 8 7 10 10 7 14 18 15 17 22 35 30 49 41 51 60
0 0 0 0 0 0 0 0 0 0 0 0 0 0 0 0 0 0 0 0 0 0 0 0 0 0 0 0 0 0 0 1 0 0 2 1 1 0 1 5 0 0 1 1 2 3 0 6 3 2 8 1 2 8 12 9 16 6 13 18 24 29 27 26 28 31 40 30 41
0 0 0 0 0 0 0 0 0 0 0 0 0 0 0 0 0 0 0 0 0 0 0 0 0 0 0 0 0 0 0 1 0 0 1 2 1 1 2 0 0 3 2 1 3 3 1 1 4 3 7 1 6 11 8 12 12 12 10 20 12 20 33 24 37 26 42 41 51
0 0 0 0 0 0 0 0 0 0 0 0 0 0 0 0 0 0 0 0 0 0 0 0 0 0 0 0 0 1 0 0 0 0 0 1 2 0 1 1 0 1 1 1 1 2 3 2 5 1 3 4 2 8 3 11 11 15 14 18 25 17 20 31 29 31 39 42 49
0 0 0 0 0 0 0 0 0 0 0 0 0 0 0 0 0 0 0 0 0 0 0 0 0 0 0 0 0 0 0 0 0 1 1 0 0 0 1 1 2 2 2 0 1 1 4 1 2 2 5 4 8 6 7 8 5 10 15 19 17 25 18 32 32 43 44 49 49
0 0 0 0 0 0 0 0 0 0 0 0 0 0 0 0 0 0 0 0 0 0 0 0 0 0 0 0 0 0 0 0 0 0 0 0 0 0 1 1 0 1 2 0 2 1 2 6 2 2 4 4 3 6 10 10 9 11 15 17 25 18 26 28 34 32 41 39 48
0 0 0 0 0 0 0 0 0 0 0 0 0 0 0 0 0 0 0 0 0 0 0 0 0 0 0 0 0 0 0 0 1 0 0 1 3 0 1 2 0 2 2 0 0 1 3 1 5 1 7 4 7 9 16 7 6 9 18 18 23 19 20 22 27 42 33 52 61
0 0 0 0 0 0 0 0 0 0 0 0 0 0 0 0 0 0 1 0 0 0 0 0 0 1 0 0 0 0 0 0 1 0 0 0 0 1 0 0 1 1 1 2 0 2 4 4 4 4 2 4 7 6 8 11 14 11 19 13 24 20 19 28 33 36 40 28 55
0 0 0 0 0 0 0 0 0 0 0 0 0 0 0 0 0 0 0 0 0 0 0 0 0 0 1 0 0 0 0 0 0 0 0 1 1 1 1 1 1 0 3 2 1 1 1 2 4 9 10 6 9 9 6 10 5 13 16 14 15 27 20 24 32 25 33 42 53
0 0 0 0 0 0 0 0 0 0 0 0 0 0 0 0 0 0 0 0 0 0 0 0 0 0 0 0 0 0 0 0 0 1 0 1 1 0 0 1 0 3 0 1 1 2 2 3 2 1 8 6 5 2 6 11 7 10 8 14 26 20 16 31 38 40 40 43 52
0 0 0 0 0 0 0 0 0 0 0 0 0 0 0 0 0 0 0 0 0 0 0 0 0 1 0 0 0 0 0 0 0 0 0 0 0 0 0 0 0 2 0 1 3 3 1 7 3 1 3 10 8 3 2 10 7 11 17 17 23 25 26 37 34 25 40 43 34
0 0 0 0 0 0 0 0 0 0 0 0 0 0 0 0 0 0 0 0 0 0 0 0 0 0 0 0 0 0 1 0 0 0 0 0 1 0 0 1 0 2 3 1 4 3 2 1 4 4 4 8 8 6 9 6 11 13 15 13 22 22 24 31 29 30 41 40 55
0 0 0 0 0 0 0 0 0 0 0 0 0 0 0 0 0 0 0 0 0 0 0 0 0 0 0 0 1 0 0 0 1 0 0 0 0 0 0 1 1 1 0 0 0 1 4 2 1 3 6 12 5 12 11 12 9 9 19 14 20 24 23 29 35 36 50 34 47
0 0 0 0 0 0 0 0 0 0 0 0 0 0 0 0 0 0 0 0 0 0 0 0 0 0 0 0 0 0 0 0 0 0 0 0 0 0 0 1 0 1 0 2 2 1 1 0 4 5 4 7 5 7 8 9 15 14 11 13 22 23 24 33 32 37 37 43 56
0 0 0 0 0 0 0 0 0 0 0 0 0 0 0 0 0 0 0 0 0 0 0 0 0 0 0 0 0 0 0 0 0 0 1 0 0 2 0 0 1 2 2 2 2 3 2 2 4 5 6 2 6 4 10 12 9 9 15 9 19 25 23 26 30 31 45 35 48
0 0 0 0 0 0 0 0 0 0 0 0 0 0 0 0 0 0 0 1 0 0 0 0 0 0 0 0 0 0 1 0 0 0 0 1 0 0 2 3 0 1 0 1 3 1 1 6 4 3 3 7 3 8 9 8 9 9 16 18 13 15 19 30 30 34 39 42 40
0 0 0 0 0 0 0 0 0 0 0 0 0 0 0 0 0 0 0 0 0 0 0 0 0 0 0 0 1 0 0 1 0 0 1 1 0 1 0 0 3 4 2 5 2 7 4 0 7 8 3 8 5 6 2 9 8 9 5 8 14 28 29 28 21 30 36 34 53
0 0 0 0 0 0 0 0 0 0 0 0 0 0 0 0 0 0 0 0 0 0 0 0 0 0 0 0 0 0 0 0 1 0 1 1 0 1 1 0 0 1 2 1 2 5 2 0 3 5 2 5 9 4 8 6 7 14 10 22 20 24 15 32 35 25 48 38 43
0 0 0 0 0 0 0 0 0 0 0 0 0 0 0 0 0 0 0 0 0 0 0 0 0 0 0 0 0 0 0 0 0 1 0 1 1 1 0 0 1 2 1 2 0 4 2 7 1 7 3 4 5 3 7 3 9 12 12 17 10 24 22 23 33 33 45 40 49
0 0 0 0 0 0 0 0 0 0 0 0 0 0 0 0 0 0 0 0 0 0 0 0 0 0 0 0 0 0 0 0 0 0 2 0 0 1 0 0 0 3 2 0 1 2 1 1 1 3 2 4 9 7 6 7 12 6 13 28 27 24 33 30 28 38 22 47 54
0 0 0 0 0 0 0 0 0 0 1 0 0 0 0 0 0 0 0 0 0 0 0 0 0 0 0 0 0 1 0 0 0 0 0 0 0 0 2 1 1 3 1 0 3 2 3 2 2 4 4 4 6 6 5 13 4 13 23 15 15 16 19 16 27 29 39 38 32
0 0 0 0 0 0 0 0 0 0 0 0 0 0 1 0 0 0 0 0 0 0 0 0 0 0 0 0 0 0 1 0 0 1 2 0 0 1 0 0 1 1 0 3 1 2 3 2 4 3 3 5 7 5 7 15 8 15 15 17 20 20 29 19 31 29 37 51 42
0 0 0 0 0 0 0 0 0 0 0 0 0 0 0 0 0 0 0 0 0 0 0 0 0 0 0 0 0 0 0 1 0 0 0 0 0 1 1 0 2 0 1 1 1 0 1 4 1 3 3 5 6 7 13 4 9 16 10 16 20 26 24 31 27 37 38 45 56
0 0 0 0 0 0 0 0 0 0 0 0 0 0 0 0 0 0 0 0 0 0 0 0 0 0 0 0 0 0 0 0 0 1 0 0 0 2 0 0 4 3 1 3 2 2 2 2 2 2 7 5 4 5 10 13 14 12 13 12 20 17 23 22 37 38 37 30 49
0 0 0 0 0 0 0 0 0 0 0 0 0 0 0 0 0 0 0 0 0 0 0 0 0 0 0 0 0 0 0 0 0 0 0 0 0 0 1 2 1 1 0 1 1 2 1 2 1 5 5 2 9 8 2 8 10 11 16 15 20 21 32 24 28 23 32 38 48
0 0 0 0 0 0 0 0 0 0 0 0 0 0 0 0 0 0 0 0 0 0 0 0 0 0 0 0 0 0 0 0 0 1 1 0 0 0 0 0 1 0 1 0 2 2 1 5 5 5 3 7 4 8 5 15 7 14 16 14 15 13 13 27 37 36 36 51 42
0 0 0 0 0 0 0 0 0 0 0 0 0 0 0 0 0 0 0 0 0 0 0 0 0 0 0 0 0 0 0 0 0 1 0 1 1 3 2 0 0 1 0 1 2 0 3 6 1 5 1 5 3 4 11 6 6 8 13 18 16 35 19 24 27 24 40 44 51
0 0 0 0 0 0 0 0 0 0 0 0 0 0 0 0 0 0 0 0 0 0 0 0 1 0 1 0 0 0 0 0 0 1 0 1 0 1 0 0 0 0 2 1 1 2 1 4 1 5 8 9 1 8 10 6 8 10 16 9 13 26 16 22 34 25 43 35 53
0 0 0 0 0 0 0 0 0 0 0 0 0 0 0 0 0 0 0 0 0 0 0 0 0 0 0 0 0 0 0 0 0 0 0 0 2 0 0 0 1 2 0 3 1 3 4 6 4 3 3 5 4 7 10 6 14 18 12 16 24 19 23 27 29 36 41 43 42
0 0 0 0 0 0 0 0 0 0 0 0 0 0 0 0 0 0 0 0 0 0 0 0 0 0 1 0 0 0 0 0 0 0 0 0 1 1 1 0 0 3 2 5 2 4 2 3 0 3 6 5 4 9 2 6 16 10 14 18 18 22 20 26 40 28 38 43 44
0 0 0 0 0 0 0 0 0 0 0 0 0 0 0 0 0 0 0 0 0 0 0 0 0 0 0 0 0 0 0 0 0 0 1 1 0 0 3 1 0 3 0 3 3 3 1 3 7 4 5 7 5 5 8 5 6 8 16 16 17 18 27 19 35 38 38 39 48
0 0 0 0 0 0 0 0 0 0 0 0 0 0 0 0 0 0 0 0 0 0 0 0 0 0 0 0 0 0 0 0 1 0 0 0 1 1 0 2 1 1 1 1 1 7 4 6 3 9 4 4 4 5 10 12 7 14 9 18 18 32 23 25 32 37 38 43 48
0 0 0 0 0 0 0 0 0 0 0 0 0 0 0 0 0 0 0 0 0 0 0 0 0 0 0 0 0 0 0 0 0 0 0 1 0 1 1 0 1 1 2 0 0 2 1 4 3 4 6 1 6 3 9 10 10 6 9 12 22 20 25 30 36 39 45 44 43
0 0 0 0 0 0 0 0 0 0 0 0 0 0 0 0 0 0 0 0 0 0 0 0 0 0 0 0 0 0 0 1 0 0 0 2 1 0 0 0 0 2 0 1 3 0 3 3 4 6 7 5 4 4 11 4 11 11 14 18 18 21 14 26 30 36 35 42 49
0 0 0 0 0 0 0 0 0 0 0 0 0 0 0 0 0 0 0 0 0 0 0 0 0 0 0 0 0 0 0 1 0 0 0 0 0 1 0 2 0 2 3 0 2 2 1 1 2 2 7 1 2 3 10 8 5 11 16 16 29 22 30 28 29 35 31 57 46
0 0 0 0 0 0 0 0 0 0 0 0 0 0 0 0 0 0 0 0 0 0 0 0 0 0 0 0 0 0 0 0 0 1 0 3 0 1 0 2 0 0 1 2 2 2 5 1 2 4 4 4 5 8 8 6 10 13 20 15 17 19 29 22 22 36 32 45 58
0 0 0 0 0 0 0 0 0 0 0 0 0 0 0 0 0 0 0 0 0 0 0 0 0 0 0 1 0 0 0 0 0 0 0 1 0 0 1 0 1 0 3 1 2 2 3 2 0 1 5 8 7 8 8 13 13 10 17 13 15 21 17 26 30 38 24 42 53
0 0 0 0 0 0 0 0 0 0 0 0 0 0 0 0 0 0 0 0 0 0 0 0 0 0 1 0 0 0 0 1 0 0 0 0 2 1 0 0 2 0 0 3 0 3 5 2 5 4 5 3 4 4 11 8 10 19 17 9 20 23 44 33 30 38 36 38 50
0 0 0 0 0 0 0 0 0 0 0 0 0 0 0 0 0 0 0 0 0 0 0 0 0 0 0 0 0 0 0 0 0 0 0 0 2 0 1 0 2 2 2 2 0 2 3 3 9 4 5 7 9 6 7 10 9 10 16 17 14 23 23 33 22 33 27 53 50
0 0 0 0 0 0 0 0 0 0 0 0 0 0 0 0 0 0 0 0 0 0 1 0 0 0 0 0 0 0 0 0 0 0 0 0 0 1 1 1 0 2 4 0 0 3 1 2 3 2 2 6 4 6 10 9 7 15 14 13 25 20 24 31 40 49 51 36 65
0 0 0 0 0 0 0 0 0 0 0 0 0 0 0 0 0 0 0 0 0 0 0 0 0 0 0 0 0 0 0 0 0 1 1 0 0 2 3 1 1 1 2 3 0 0 2 0 5 1 8 5 3 12 8 9 5 7 14 16 23 21 18 27 40 37 35 45 55
0 0 0 0 0 0 0 0 0 0 0 0 0 0 0 0 0 0 0 0 0 0 0 0 0 0 0 0 0 0 0 0 1 0 0 0 0 0 0 2 3 1 2 2 3 4 3 3 5 4 5 3 6 6 5 9 10 9 17 11 21 16 17 37 40 37 48 50 65
0 0 0 0 0 0 0 0 0 0 0 0 0 0 0 0 0 0 0 0 0 0 0 0 0 0 0 0 0 0 0 0 1 1 0 0 1 1 1 0 2 1 4 0 1 4 3 4 6 3 7 7 9 11 9 8 6 14 13 15 18 19 15 26 28 25 51 43 48
0 0 0 0 0 0 0 0 0 0 0 0 0 0 0 0 0 0 0 0 0 0 0 0 0 0 1 0 0 0 0 0 0 0 1 0 1 0 0 0 1 2 0 1 0 0 2 1 2 9 9 10 8 6 12 11 13 15 12 20 20 25 21 33 38 33 44 32 63
0 0 0 0 0 0 0 0 0 0 0 0 0 0 0 0 0 0 0 0 0 0 0 0 0 0 0 0 0 0 0 0 0 0 1 2 0 3 0 0 0 1 1 2 2 6 3 3 4 3 4 9 9 5 8 12 12 12 18 21 23 30 22 27 27 32 52 44 53
0 0 0 0 0 0 0 0 0 0 0 0 0 0 0 0 0 0 0 0 0 0 0 0 0 0 0 0 0 0 1 0 1 1 1 0 1 1 0 3 0 1 3 1 1 3 4 2 6 4 0 4 5 8 13 14 16 15 9 15 16 25 27 30 35 42 45 36 57
0 0 0 0 0 0 0 0 0 0 0 0 0 0 0 0 0 0 0 0 0 0 1 0 0 0 0 0 0 0 1 1 0 1 0 0 0 0 1 1 1 1 0 0 1 2 2 3 3 4 4 5 6 6 10 5 12 11 12 10 27 19 30 24 26 50 44 58 64
0 0 0 0 0 0 0 0 0 0 0 0 0 0 0 0 0 0 0 0 0 0 0 0 0 0 0 0 0 0 0 0 0 0 0 1 1 2 1 3 2 1 2 1 2 1 6 2 4 3 5 3 8 8 8 14 10 10 16 21 13 29 28 27 38 44 42 62 51
0 0 0 0 0 0 0 0 0 0 0 0 0 0 0 0 0 0 0 0 0 0 0 0 0 0 0 0 0 0 0 0 0 1 0 0 0 1 1 1 0 1 2 1 1 1 2 5 2 4 2 4 10 10 10 7 13 11 11 15 23 18 29 31 29 41 38 57 48
0 0 0 0 0 0 0 0 0 0 0 0 0 0 0 0 0 0 0 0 0 0 0 0 0 0 0 1 1 0 0 0 0 0 0 0 0 0 1 1 1 0 2 1 3 2 5 4 2 4 5 9 8 9 6 15 9 12 17 16 19 20 24 33 33 40 42 55 54
0 0 0 0 0 0 0 0 0 0 0 0 0 0 0 0 0 0 0 0 0 0 0 0 0 0 0 0 0 0 0 1 1 1 1 1 0 0 1 0 1 0 1 0 2 2 1 4 5 3 5 4 8 4 7 17 10 11 21 26 24 18 19 26 29 44 47 52 57
0 0 0 0 0 0 0 0 0 0 0 0 0 0 0 0 0 0 0 0 0 0 0 0 0 0 0 0 0 0 0 0 0 0 1 1 0 0 3 1 0 2 2 2 0 0 1 5 1 6 8 8 8 7 17 11 15 14 12 11 21 27 25 34 26 28 36 50 72
0 0 0 0 0 0 0 0 0 0 0 0 0 0 0 0 0 0 0 0 1 0 0 0 0 0 0 0 0 0 0 0 0 0 1 0 0 1 1 2 0 0 0 0 1 2 3 2 2 3 4 10 10 7 9 8 8 14 23 16 16 22 26 27 32 41 38 48 43
0 0 0 0 0 0 0 0 0 0 0 0 0 0 0 0 0 0 0 0 0 0 0 0 0 0 0 0 1 0 0 0 0 0 0 0 1 1 0 1 0 0 2 1 5 2 2 5 2 3 4 7 7 8 14 14 13 10 12 18 24 16 15 30 32 44 36 34 52
0 0 0 0 0 0 0 0 0 0 0 1 0 0 0 0 0 0 0 1 0 0 0 0 0 0 0 0 0 0 0 0 1 1 0 0 0 0 1 0 0 1 2 1 0 5 3 3 2 2 7 4 6 6 9 15 12 16 25 14 17 18 29 27 32 43 34 50 45
0 0 0 0 0 0 0 0 0 0 0 0 0 0 0 0 0 0 0 0 0 0 0 0 0 0 0 0 0 0 1 0 0 0 0 0 0 3 0 1 1 1 2 4 5 2 2 4 4 7 5 6 5 4 8 10 17 13 14 10 16 17 18 38 37 41 50 47 50
0 0 0 0 0 0 0 0 0 0 0 0 0 0 0 0 0 0 0 0 0 0 0 0 0 0 0 0 0 0 0 0 0 0 0 0 0 0 0 0 2 1 2 2 0 3 1 1 5 2 2 10 3 8 11 6 8 11 11 23 25 25 25 34 34 35 44 39 52
0 0 0 0 0 0 0 0 0 0 0 0 0 0 0 0 0 0 0 0 0 0 0 0 0 1 0 0 0 0 0 0 1 0 0 1 0 0 0 1 1 1 2 4 5 1 2 4 1 5 4 7 8 7 13 8 8 15 22 23 18 29 32 17 34 35 41 41 45
0 0 0 0 0 0 0 0 0 0 0 0 0 0 0 0 0 0 0 0 0 0 0 0 0 1 0 0 0 0 1 1 0 0 0 0 1 0 0 0 0 1 1 2 3 2 3 3 2 4 9 5 7 10 11 7 12 9 9 16 21 19 29 27 37 32 38 43 50
0 0 0 0 0 0 0 0 0 0 0 0 0 0 0 0 0 0 0 0 0 0 0 0 0 0 0 0 0 1 0 0 1 0 2 0 0 1 0 2 1 1 0 2 4 3 4 5 1 3 3 1 7 4 7 8 17 9 15 17 24 24 25 23 39 37 31 43 41
0 0 0 0 0 0 0 0 0 0 0 0 0 0 0 0 0 0 0 0 0 0 0 0 0 0 0 0 0 0 0 0 0 0 1 0 0 0 1 1 1 0 2 4 1 3 2 1 4 1 4 4 3 10 11 6 9 10 20 23 19 23 20 31 29 35 49 49 46
0 0 0 0 0 0 0 0 0 0 0 0 0 1 0 0 0 0 0 0 0 0 0 0 0 0 0 0 0 0 0 0 0 2 1 1 0 0 2 0 0 2 4 1 3 1 4 3 3 4 4 3 8 4 2 8 8 7 16 24 14 18 27 26 38 30 40 48 52
0 0 0 0 0 0 0 0 0 0 0 0 0 0 0 0 0 0 0 0 0 0 0 0 0 0 0 0 0 0 0 0 0 0 0 0 0 0 1 1 1 2 1 2 2 4 1 0 2 7 3 8 5 8 5 13 17 13 19 16 11 26 24 31 21 45 41 38 58
0 0 0 0 0 0 0 0 0 0 0 0 0 0 0 0 0 0 0 0 0 0 0 0 0 0 0 0 0 0 0 0 0 1 1 0 0 1 1 3 1 2 1 4 2 1 2 1 4 4 11 8 9 6 5 6 10 12 15 15 18 27 33 27 47 43 59 51 39
0 0 0 0 0 0 0 0 0 0 0 0 0 0 0 0 0 0 0 0 0 0 0 0 0 0 0 0 0 0 0 1 1 1 0 0 1 0 0 1 1 1 0 2 3 4 1 5 3 4 7 4 5 11 6 12 11 17 11 17 19 19 26 27 36 32 47 48 50
0 0 0 0 0 0 0 0 0 0 0 0 0 0 0 0 0 0 0 0 0 0 0 0 0 0 0 0 0 0 0 0 0 0 0 0 0 1 1 0 0 0 3 3 1 2 3 2 4 4 1 4 8 5 11 7 4 15 18 22 17 20 21 26 22 37 37 44 44
0 0 0 0 0 0 0 0 0 0 0 0 0 0 0 0 0 0 0 0 0 0 0 0 0 0 0 0 0 0 0 0 0 0 0 0 1 1 1 2 0 2 0 4 1 1 2 7 5 5 3 5 5 7 13 12 12 11 20 20 15 24 23 26 21 45 51 45 48
0 0 0 0 0 0 0 0 0 0 0 0 0 0 0 0 0 0 0 0 0 0 0 0 0 0 0 0 0 0 2 1 0 0 0 0 0 0 0 0 0 1 0 2 2 2 3 1 6 4 3 2 7 2 8 13 6 11 16 18 19 16 23 21 33 43 36 38 42
0 0 0 0 0 0 0 0 0 0 0 0 0 0 0 0 0 0 0 0 0 0 0 0 0 0 0 0 0 0 0 0 0 0 0 0 0 1 1 0 0 2 1 3 2 1 3 0 2 2 4 3 6 11 5 8 17 15 16 16 21 22 26 27 25 43 33 37 37
0 0 0 0 0 0 0 0 0 0 0 0 0 0 0 0 1 0 0 0 0 0 0 0 0 0 0 0 0 0 0 0 0 2 1 0 2 0 0 0 0 1 0 1 1 4 3 3 2 1 3 3 7 5 7 5 8 14 13 20 21 23 21 24 31 38 40 47 45
0 0 0 0 0 0 0 0 0 0 0 0 0 0 0 0 0 0 0 0 0 0 0 0 0 0 0 0 0 0 0 1 0 1 1 1 1 1 1 1 1 2 2 2 1 2 3 2 2 4 9 9 5 8 8 8 10 6 18 19 19 19 25 32 33 39 46 40 55
0 0 0 0 0 0 0 0 0 0 0 0 0 0 0 0 0 0 0 0 0 0 0 0 0 0 0 0 0 0 0 0 1 0 2 0 2 1 0 2 0 0 1 3 3 1 2 2 1 2 4 4 8 10 12 13 10 16 14 12 15 33 21 26 35 35 35 30 41
0 0 0 0 0 0 0 0 0 0 0 0 0 0 0 0 0 0 0 0 0 0 0 0 0 0 0 0 0 0 0 0 0 0 0 0 0 0 1 1 3 2 1 3 3 1 1 2 1 2 4 3 4 6 7 10 11 12 14 22 18 23 21 28 37 34 34 36 46
0 0 0 0 0 0 0 0 0 0 0 0 0 0 0 0 0 0 0 0 0 0 0 0 0 0 0 1 0 0 0 1 0 0 1 0 3 0 0 1 1 1 2 1 0 2 4 0 3 6 6 4 4 9 9 8 7 14 11 15 13 23 20 29 26 36 38 48 61
0 0 0 0 0 0 0 0 0 0 0 0 0 0 0 0 0 0 0 0 0 0 0 0 0 0 0 0 0 0 0 1 1 1 1 0 0 1 1 2 1 3 1 1 0 0 2 4 3 4 5 9 8 12 13 11 11 12 16 15 16 20 35 27 20 31 48 42 45
0 0 0 0 0 0 0 0 0 0 0 0 0 0 0 0 0 0 0 0 0 0 0 0 0 0 0 0 0 0 1 0 0 1 1 0 0 0 0 1 0 0 3 1 1 3 3 3 4 2 5 7 5 8 7 13 11 10 16 15 19 18 26 32 31 30 29 26 56
0 0 0 0 0 0 0 0 0 0 0 0 0 0 0 0 0 0 0 0 0 0 0 0 0 0 0 0 0 0 0 0 0 2 0 1 1 0 0 1 1 2 2 4 3 2 4 0 2 0 7 7 6 9 7 15 14 14 20 20 14 14 25 16 24 47 44 39 45
0 0 0 0 0 0 0 0 0 0 0 0 0 0 0 0 0 0 0 0 0 0 0 0 0 0 0 0 1 0 1 0 0 0 0 0 1 0 1 0 1 0 2 1 3 2 2 1 1 1 3 2 8 5 9 6 9 9 17 15 23 13 19 22 33 42 41 40 50
0 0 0 0 0 0 0 0 0 0 0 0 0 0 0 0 0 0 0 0 0 0 0 0 0 0 0 0 1 0 0 0 0 0 0 0 0 1 1 2 1 1 1 0 2 1 1 0 1 2 3 3 10 7 7 11 5 14 13 23 17 23 32 32 20 36 38 48 54
0 0 0 0 0 0 0 0 0 0 0 0 0 0 0 0 0 0 0 0 0 0 0 0 0 0 0 0 0 0 0 0 0 1 0 0 0 0 0 2 0 2 1 2 0 0 4 0 3 5 5 2 4 3 8 6 8 7 18 15 16 20 22 23 28 27 34 44 44
0 0 0 0 0 0 0 0 0 0 0 0 0 0 0 0 0 0 0 0 0 0 0 0 0 0 0 0 0 0 0 0 0 0 1 0 0 0 0 0 1 3 1 2 6 1 3 0 4 1 3 8 7 6 8 11 7 17 15 16 15 33 35 36 21 28 41 27 47
0 0 0 0 0 0 0 0 0 0 0 0 0 0 0 0 0 0 0 0 0 0 0 0 0 0 0 0 0 0 0 0 0 0 0 0 1 1 0 0 2 0 1 0 2 3 8 2 3 3 2 4 5 2 9 5 9 13 15 13 16 16 20 33 27 40 45 24 39
0 0 0 0 0 0 0 0 0 0 0 0 0 0 0 0 0 0 0 0 0 0 0 0 0 0 0 1 0 0 0 0 0 2 0 2 0 2 1 1 0 1 0 1 2 2 2 3 2 5 5 5 3 4 7 12 7 7 15 17 15 22 21 31 39 42 36 39 52
0 0 0 0 0 0 0 0 0 0 0 1 0 0 0 0 0 0 0 0 0 0 0 0 0 0 0 0 0 0 0 1 0 0 0 0 0 1 0 1 1 1 0 2 2 1 1 1 4 4 5 6 7 7 10 7 16 10 6 16 14 20 22 27 26 25 37 43 53
0 0 0 0 0 0 0 0 0 0 0 0 0 0 0 0 0 0 0 0 0 0 0 0 0 0 0 0 0 0 1 1 0 0 0 0 0 1 0 0 3 0 0 2 1 2 4 2 2 3 5 5 5 4 8 5 9 8 20 16 13 20 29 26 29 35 34 42 56
0 0 0 0 0 0 0 0 0 0 0 0 0 0 0 0 0 0 0 0 0 0 0 0 0 0 0 0 0 0 0 0 0 0 1 1 0 0 0 0 1 3 0 0 2 3 4 3 3 5 4 5 1 5 7 9 5 14 8 10 17 21 23 28 31 20 39 46 61
0 0 0 0 0 0 0 0 0 0 0 0 0 0 0 0 0 0 0 0 0 0 0 0 1 1 0 0 0 0 0 0 0 1 1 0 0 0 0 1 0 0 3 2 6 1 1 2 3 2 3 6 8 9 3 12 10 15 18 10 18 18 19 20 42 32 39 34 45
0 0 0 0 0 0 0 0 0 0 0 0 0 0 0 0 0 0 0 0 0 1 0 0 0 0 0 1 0 0 0 0 0 0 0 0 0 0 0 2 3 3 2 1 2 0 1 2 4 3 8 2 10 5 5 10 8 10 15 16 20 17 26 25 20 37 30 56 54
0 0 0 0 0 0 0 0 0 0 0 0 0 0 0 0 0 0 0 0 0 0 0 0 1 0 0 0 0 0 0 0 0 0 0 0 0 1 1 2 1 0 2 3 1 1 3 4 1 3 6 1 5 7 7 6 7 9 8 15 11 24 18 28 29 41 37 42 40
0 0 0 0 0 0 0 0 0 0 0 0 0 0 0 0 0 0 0 0 0 0 0 0 0 0 0 0 0 0 0 0 1 0 0 0 1 0 1 0 2 1 0 1 5 3 6 2 1 4 1 4 5 14 8 9 20 14 13 27 20 25 28 28 24 40 41 30 64
0 0 0 0 0 0 0 0 0 0 0 0 0 0 0 0 0 0 0 0 0 0 0 0 0 0 0 0 0 0 0 0 0 1 1 1 1 2 0 1 3 4 2 2 1 1 1 4 3 2 2 3 1 8 10 8 15 13 20 15 17 19 26 31 39 32 40 47 47
0 0 0 0 0 0 0 0 0 0 0 0 0 0 0 0 0 0 0 0 0 0 0 0 1 0 0 0 0 0 0 0 1 0 0 0 0 1 0 1 3 0 0 4 3 2 2 3 4 6 3 6 5 8 13 2 16 8 16 12 13 19 22 29 28 32 35 42 44
0 0 0 0 0 0 0 0 0 0 0 0 0 0 0 1 0 0 0 0 0 0 0 0 0 0 0 0 0 0 0 0 0 0 0 0 0 0 0 0 0 1 2 1 0 1 4 3 3 9 4 8 4 6 5 12 12 19 17 19 18 16 31 31 25 39 26 38 60
0 0 0 0 0 0 0 0 0 0 0 0 0 0 0 0 0 0 0 0 0 0 0 0 0 0 0 0 0 0 0 0 0 1 0 0 0 2 0 0 3 0 1 0 4 3 4 1 1 1 10 5 6 11 4 6 13 11 12 17 20 22 31 28 36 23 52 52 54
0 0 0 0 0 0 0 0 0 0 0 0 0 0 0 0 0 0 0 0 0 0 0 0 0 0 0 1 0 0 0 0 0 1 0 1 3 0 0 1 0 0 4 2 1 1 1 3 3 9 6 3 6 12 7 14 13 6 9 12 22 29 14 28 43 29 40 47 52
0 0 0 0 0 0 0 0 0 0 0 0 0 0 0 0 0 0 0 0 0 0 0 0 0 0 0 0 0 0 0 1 0 0 0 1 0 2 1 0 2 1 0 3 1 2 2 7 4 2 1 5 1 9 12 12 10 11 16 20 16 20 18 27 21 31 31 31 56
0 0 0 0 0 0 0 0 0 0 0 0 0 0 0 0 0 0 0 0 0 0 0 0 0 0 0 0 0 0 0 0 0 0 0 0 0 2 1 2 1 1 1 3 1 3 4 6 2 4 6 2 9 9 5 7 12 18 24 15 16 24 36 30 38 42 45 57 54
0 0 0 0 0 0 0 0 0 0 0 0 0 0 0 0 0 0 0 0 0 0 0 0 0 0 0 0 0 0 0 1 0 1 1 0 0 1 0 1 0 1 3 2 1 1 2 6 1 4 6 3 7 8 10 12 10 12 14 18 19 17 36 25 34 36 43 54 51
0 0 0 0 0 0 0 0 0 0 0 0 1 0 0 0 0 0 0 0 0 0 0 0 0 0 1 0 0 0 0 0 0 1 1 0 0 1 1 0 0 1 3 4 3 0 0 6 4 4 5 3 2 9 7 9 13 16 13 11 21 28 26 31 22 31 39 52 54
0 0 0 0 0 0 0 0 0 0 0 0 0 0 0 0 0 0 0 0 0 0 0 0 0 0 0 0 0 0 1 0 0 0 0 1 0 0 0 2 1 0 1 0 1 0 3 3 6 2 2 5 1 7 8 8 6 10 13 11 15 21 31 28 23 50 45 51 52
0 0 0 0 0 0 0 0 0 0 0 0 0 0 0 1 0 0 0 0 0 1 0 0 0 0 0 0 0 0 0 0 1 0 0 0 1 0 3 0 1 2 2 3 2 2 5 3 5 6 8 1 7 5 15 10 14 17 16 19 25 25 19 28 36 42 42 38 43
0 0 0 0 0 0 0 0 0 0 0 0 0 0 0 0 0 0 0 0 0 0 0 0 0 1 0 0 0 0 0 1 0 0 0 1 0 0 0 0 0 3 2 2 2 2 3 3 2 5 8 4 6 6 9 12 13 11 17 13 18 21 24 37 53 44 42 49 61
0 0 0 0 0 0 0 0 0 0 0 0 0 0 0 0 0 0 1 0 0 0 0 0 0 0 0 0 0 0 0 0 0 0 1 0 0 0 1 2 3 3 2 3 1 2 2 4 2 6 4 6 8 8 8 11 8 8 8 18 17 26 30 26 30 46 36 40 56
0 0 0 0 0 0 0 0 0 0 0 0 0 0 0 0 0 0 0 0 0 0 0 0 0 0 0 0 1 0 0 0 0 0 1 0 0 1 0 1 4 1 0 0 3 1 0 3 1 2 11 5 7 8 8 15 8 10 19 14 11 28 28 33 38 38 42 45 48
0 0 0 0 0 0 0 0 0 0 0 0 0 0 0 0 0 0 0 0 0 0 0 0 0 0 0 0 0 0 0 0 0 0 1 0 0 0 1 0 0 1 0 0 1 2 1 5 4 2 2 4 11 8 11 13 16 15 17 16 18 24 26 24 37 33 49 55 56
0 0 0 0 0 0 0 0 0 0 0 0 0 0 0 0 0 0 0 0 0 0 0 0 0 0 0 0 0 0 0 0 0 0 0 0 0 1 0 2 0 0 2 1 1 0 3 3 8 3 6 3 5 5 14 11 9 12 24 16 18 20 35 25 36 32 41 48 51
0 0 0 0 0 0 0 0 0 0 0 0 0 0 0 0 0 0 0 0 0 0 0 0 0 0 0 0 0 0 0 0 0 2 0 0 1 0 1 1 0 2 3 1 1 2 3 6 3 2 3 10 9 5 13 14 16 10 18 11 27 16 28 21 43 31 43 45 60
0 0 0 0 0 0 0 0 0 0 0 0 0 0 0 0 0 0 0 0 0 0 0 0 0 0 1 0 0 0 0 0 0 0 1 0 1 0 1 1 3 0 0 2 2 2 1 3 0 4 5 5 11 7 4 7 17 18 11 19 24 23 21 29 40 28 53 33 56
0 0 0 0 0 0 0 0 0 0 0 0 0 0 0 0 1 0 0 1 0 0 0 0 0 0 0 0 0 0 0 0 0 0 0 0 0 0 0 0 1 0 0 2 1 3 3 7 5 3 1 6 9 10 12 11 20 9 19 17 19 23 22 27 22 45 44 50 63
0 0 0 0 0 0 0 0 0 0 0 0 0 0 0 0 0 0 0 0 0 0 0 0 0 0 0 0 0 0 0 0 0 1 1 0 1 0 0 1 0 1 0 3 2 2 2 4 4 8 6 4 6 5 7 7 7 17 16 18 23 31 24 31 36 39 40 65 70
0 0 0 0 0 0 0 0 0 0 0 0 0 0 0 0 0 0 0 0 0 0 0 0 0 0 0 1 0 0 0 0 0 0 0 1 1 0 0 0 2 1 2 1 1 1 1 4 3 0 4 3 6 13 11 12 12 17 22 23 19 15 37 27 22 33 37 42 60
0 0 0 0 0 0 0 0 0 0 0 0 0 0 0 0 0 0 0 0 0 0 0 0 0 0 1 0 0 0 0 0 0 0 1 0 0 0 1 1 0 1 0 0 2 2 2 2 5 6 6 5 4 9 10 9 15 4 12 12 18 29 21 27 36 38 48 54 51
0 0 0 0 0 0 0 0 0 0 0 0 0 0 0 0 0 0 0 0 0 0 0 0 0 0 0 0 0 0 1 0 1 0 0 0 1 2 3 0 0 1 2 3 0 0 2 2 3 5 3 7 7 5 9 9 9 13 17 13 19 26 27 42 31 52 43 56 63
0 0 0 0 0 0 0 0 0 0 0 0 0 0 0 0 0 0 0 0 0 1 0 0 0 0 0 0 0 0 0 0 0 0 0 0 0 0 0 2 1 2 2 0 0 0 4 3 4 4 3 8 6 9 8 9 15 16 13 17 24 22 16 17 41 33 37 54 57
0 0 0 0 0 0 0 0 0 0 0 0 0 0 0 0 0 0 0 0 0 0 0 0 0 0 0 0 0 0 0 1 1 0 0 1 1 0 1 2 2 1 1 1 1 2 0 2 3 3 1 4 9 3 11 9 11 13 17 17 22 15 25 30 39 40 45 52 50
0 0 0 0 0 0 0 0 0 0 0 0 0 0 0 0 0 0 0 0 0 0 0 0 0 0 0 0 0 0 0 0 1 0 0 1 3 0 1 1 1 1 2 1 1 1 0 4 2 6 3 4 6 9 6 15 9 9 10 15 27 34 24 28 36 34 36 48 63
0 0 0 0 0 0 0 0 0 0 0 0 0 0 1 0 0 0 0 0 0 0 0 0 0 0 0 0 0 1 1 0 0 0 0 0 0 1 0 0 1 0 2 2 1 1 0 2 5 2 4 2 5 9 8 6 5 13 16 20 17 21 21 26 28 34 56 46 51
0 0 0 0 0 0 0 0 0 0 0 0 0 0 0 0 0 0 0 0 0 0 0 0 0 0 0 0 0 0 0 0 0 0 0 0 1 1 1 1 4 0 2 0 3 3 2 2 4 2 7 5 5 7 10 7 12 12 18 14 12 19 23 40 33 31 53 41 41
0 0 0 0 0 0 0 0 0 0 0 0 0 0 0 0 0 0 0 0 0 0 0 1 0 0 0 0 1 0 0 0 0 0 1 0 2 1 0 0 1 1 1 2 3 2 4 4 4 7 2 6 7 8 4 12 9 15 18 14 20 20 23 14 36 32 47 44 64
0 0 0 0 0 0 0 0 0 0 0 0 0 0 0 0 0 1 0 0 0 0 0 0 0 0 0 0 0 0 0 1 2 0 0 1 0 1 0 0 2 4 1 0 0 3 4 0 4 4 5 10 5 8 4 12 7 10 13 13 16 18 30 19 43 38 47 52 60
0 0 0 0 0 0 0 0 0 0 0 0 0 0 0 0 0 0 0 0 0 0 0 0 0 0 0 0 0 1 2 0 0 0 0 1 1 3 1 2 1 4 0 1 2 4 1 4 3 3 6 6 13 1 12 12 12 9 15 26 18 19 13 35 26 47 38 46 58
0 0 0 0 0 0 0 0 0 0 0 0 0 0 0 0 0 0 0 0 0 0 0 0 0 0 0 0 0 0 0 0 2 1 0 0 0 0 0 1 1 1 1 3 3 1 1 3 4 3 7 4 10 17 7 9 12 18 12 17 14 26 25 28 31 33 48 45 49
0 0 0 0 0 0 0 0 0 0 0 0 0 0 0 0 0 0 0 0 0 0 0 0 0 0 0 0 0 0 0 0 0 0 0 0 1 0 0 0 0 0 1 4 4 6 3 3 3 2 6 5 3 4 8 7 7 17 5 20 21 18 24 37 26 29 39 46 55
0 0 0 0 0 0 0 0 0 0 0 0 0 0 0 0 0 0 0 0 0 0 0 0 0 0 0 0 1 1 0 0 0 0 1 0 0 2 2 0 0 0 2 2 0 4 0 4 2 5 8 4 6 8 5 7 14 12 13 22 20 19 34 27 44 31 27 46 48
0 0 0 0 0 0 0 0 0 0 0 1 0 0 0 0 0 0 0 0 0 1 0 0 0 0 0 0 0 0 0 0 0 0 0 1 1 0 1 0 0 0 1 1 1 3 2 2 3 6 1 4 8 4 3 6 13 12 12 11 22 23 29 31 43 22 31 58 48
0 0 0 0 0 0 0 0 0 0 0 0 0 0 0 0 0 0 0 0 0 0 0 0 0 0 0 1 0 0 0 0 0 0 0 0 1 1 0 1 1 1 2 1 3 1 2 1 6 2 7 12 9 5 8 12 10 15 13 16 19 20 24 30 40 43 56 36 49
0 0 0 0 0 0 0 0 0 0 0 0 0 0 0 0 0 0 0 0 0 0 0 0 0 0 0 0 0 0 0 0 0 0 0 0 0 0 1 0 1 0 3 2 1 1 2 1 3 3 9 3 4 8 12 13 14 17 15 13 18 21 25 30 23 36 38 40 54
0 0 0 0 0 0 0 0 0 0 0 0 0 0 0 0 0 0 0 0 0 0 0 0 0 0 0 0 0 0 0 0 0 0 0 0 1 1 0 0 0 0 0 3 3 1 4 3 5 6 5 3 3 5 11 6 6 12 21 16 14 27 28 22 32 40 40 45 48
0 0 0 0 0 0 0 0 0 0 0 0 0 0 0 0 0 0 0 0 0 0 0 0 0 0 0 0 0 0 0 0 0 0 0 0 0 0 0 0 1 2 0 1 0 4 3 1 4 4 6 9 7 3 7 6 13 13 14 11 18 20 27 32 30 30 47 50 48
0 0 0 0 0 0 0 0 0 0 0 0 0 0 0 0 0 0 0 0 0 0 0 0 0 0 0 0 0 0 0 0 0 0 0 0 0 0 1 1 1 1 0 2 2 2 2 4 8 5 3 3 2 4 10 10 16 14 16 19 25 12 14 22 29 41 48 42 36
0 0 0 0 0 0 0 0 0 0 0 0 0 0 0 0 0 0 0 0 0 0 0 0 0 0 0 0 0 0 0 0 0 0 1 1 0 1 0 0 0 1 0 2 1 4 3 6 2 2 8 6 6 8 8 4 11 5 13 17 16 27 26 34 28 35 51 33 44
0 0 0 0 0 0 0 0 0 0 0 0 0 0 0 0 0 0 0 0 0 0 0 0 0 0 0 0 0 0 0 0 0 0 1 0 0 0 2 0 0 1 3 2 0 3 1 3 1 3 5 5 4 9 10 11 17 11 8 10 26 21 24 34 29 26 33 43 44
0 0 0 0 0 0 0 0 0 0 0 0 0 0 0 0 0 0 0 0 0 0 0 0 0 0 0 0 0 0 0 0 0 0 0 2 1 0 1 1 1 0 1 2 5 3 2 2 2 5 6 5 3 15 10 8 12 12 16 10 18 23 24 29 23 28 35 44 41
0 0 0 0 0 0 0 0 0 0 0 0 0 0 0 0 0 0 0 0 0 0 0 0 0 0 0 0 0 0 0 0 0 0 0 0 1 0 0 2 2 1 1 0 6 1 3 3 3 4 6 5 7 6 10 9 5 17 14 16 13 13 20 25 30 29 43 39 39
0 0 0 0 0 0 0 0 0 0 0 0 0 0 0 0 0 0 0 0 0 0 0 0 0 0 0 0 0 0 0 0 0 0 1 0 0 0 1 1 1 1 1 1 2 2 4 1 2 3 3 2 5 7 6 12 9 13 13 15 21 18 25 29 23 38 44 41 50
0 0 0 0 0 0 0 0 0 0 0 0 0 0 0 1 0 0 0 0 0 0 0 0 0 0 0 0 0 0 0 0 0 1 0 0 0 1 1 2 1 2 2 2 3 3 3 4 4 2 4 4 8 5 5 2 7 9 22 17 21 21 21 33 31 35 40 32 50
0 0 0 0 0 0 0 0 0 0 0 0 0 0 0 0 0 0 0 0 0 1 0 0 0 0 0 0 0 0 0 0 0 0 1 1 0 2 0 1 3 2 0 0 2 0 3 1 3 6 7 4 4 8 10 12 4 13 11 21 11 21 24 34 26 28 40 32 50
0 0 0 0 0 0 0 0 0 0 0 0 0 0 0 0 0 0 0 0 0 0 0 0 0 0 0 0 0 0 0 0 1 1 0 0 1 1 0 0 1 0 1 2 4 3 5 2 3 3 4 10 5 5 10 9 13 19 7 17 17 27 20 30 27 37 38 36 50
0 0 0 0 0 0 0 0 0 0 0 0 0 0 0 0 0 0 0 0 0 0 0 0 0 0 0 0 0 0 0 0 1 0 0 0 0 1 0 0 0 0 1 1 1 0 4 3 2 6 3 3 6 7 13 14 13 9 13 18 17 20 22 32 26 29 43 37 52
0 0 0 0 0 0 0 0 0 0 0 0 1 0 0 0 0 0 0 0 0 0 0 0 0 0 0 0 0 0 0 1 2 0 0 0 0 1 1 2 1 2 0 2 1 1 2 3 2 1 8 6 8 6 5 12 11 19 12 12 16 21 36 29 32 25 49 41 46
0 0 0 0 0 0 0 0 0 0 0 0 0 0 0 0 0 0 0 0 0 0 0 0 0 0 0 0 0 1 0 0 0 0 0 0 0 0 1 1 1 3 2 2 0 1 1 3 4 2 5 9 4 6 4 5 4 9 11 17 22 28 25 31 31 27 31 51 46
0 0 0 0 0 0 0 0 0 0 0 0 0 0 0 0 0 0 0 0 0 0 0 0 0 0 0 0 0 0 1 2 0 0 0 0 0 1 0 0 1 1 1 0 1 2 1 2 3 8 3 6 3 8 6 3 12 18 17 18 22 23 23 27 38 36 37 42 44
0 0 0 0 0 0 0 0 0 0 0 0 0 0 0 0 0 0 0 0 0 0 0 0 0 0 0 0 0 1 1 0 1 2 1 0 0 0 2 2 1 1 2 1 2 1 3 1 1 2 0 5 3 4 10 9 11 12 15 11 19 32 26 24 34 41 38 60 46
0 0 0 0 0 0 0 0 0 0 0 0 0 0 0 0 0 0 0 0 0 0 0 0 0 0 0 0 0 0 0 0 0 0 0 1 1 0 0 2 1 0 0 6 2 1 4 3 2 5 4 1 5 4 7 10 11 18 9 22 19 19 20 24 25 30 37 45 45
0 0 0 0 0 0 0 0 0 0 0 0 0 0 0 0 0 0 0 0 0 0 0 0 0 0 0 0 0 0 0 1 1 0 1 0 2 0 0 0 0 1 2 2 2 2 6 0 3 3 1 4 7 8 8 7 11 11 14 15 16 26 22 21 22 44 35 37 40
0 0 0 0 0 0 0 0 0 0 0 0 0 0 0 0 0 0 0 0 0 0 0 0 0 0 0 0 0 0 0 1 0 0 0 2 0 0 1 0 0 1 3 3 2 3 1 2 2 3 4 7 6 7 7 6 12 14 16 20 14 19 23 25 28 46 44 41 50
0 0 0 0 0 0 0 0 0 0 0 0 1 0 0 0 0 0 0 0 0 0 0 0 0 0 0 0 0 0 0 1 1 0 0 0 2 0 0 3 0 2 0 2 4 1 0 6 0 3 2 7 4 4 7 4 7 15 7 20 18 20 31 28 22 35 40 53 55
0 0 0 0 0 0 0 0 0 0 0 0 0 0 0 0 0 0 0 0 0 0 0 0 0 0 0 0 0 0 0 0 0 0 0 1 0 0 1 1 1 1 2 2 2 1 1 2 2 7 1 8 1 11 11 12 11 10 14 15 14 32 26 31 31 33 52 37 46
0 0 0 0 0 0 0 0 0 0 0 0 0 0 0 0 0 0 0 0 0 0 0 0 0 0 0 0 0 0 0 0 1 0 0 3 1 0 1 0 1 0 1 0 2 6 0 2 4 3 1 5 12 6 11 8 9 8 18 14 18 19 26 30 34 29 46 41 53
0 0 0 0 0 0 0 0 0 0 0 0 0 0 0 0 0 0 1 0 0 0 0 0 0 0 0 0 0 0 0 0 0 0 1 1 1 1 0 0 0 0 0 3 2 3 2 3 3 2 7 4 4 4 9 11 10 12 11 15 14 25 30 27 35 28 39 57 49
0 0 0 0 0 0 0 0 0 0 0 0 0 0 0 0 0 0 0 0 0 0 0 0 0 0 0 0 0 0 0 0 0 1 0 0 0 0 0 1 2 3 1 4 3 2 6 4 2 6 4 7 7 6 6 7 6 19 17 14 24 12 21 28 33 39 38 45 40
0 0 0 0 0 0 0 0 0 0 0 0 0 0 0 0 0 0 0 0 0 0 0 0 0 0 0 0 0 0 0 0 1 0 0 0 0 1 2 1 1 2 2 4 1 5 0 3 6 3 5 7 9 10 8 14 12 12 13 26 19 16 20 32 22 33 38 51 44
0 0 0 0 0 0 0 0 0 0 0 0 0 0 0 0 0 0 0 0 0 0 0 0 0 0 0 1 0 0 0 0 0 0 0 1 0 0 1 0 1 3 2 4 4 0 4 5 2 3 2 6 4 13 5 14 18 21 19 18 21 16 24 23 26 35 26 57 38
0 0 0 0 0 0 0 0 0 0 0 0 0 0 0 0 0 0 0 0 0 0 0 0 0 0 0 1 0 0 0 0 1 0 1 0 1 0 0 1 1 4 2 1 2 1 3 1 2 3 2 7 3 10 15 4 13 20 17 20 19 26 19 24 29 38 34 43 57
0 0 0 0 0 0 0 0 0 0 0 0 0 0 0 0 0 0 0 0 0 0 0 0 0 0 0 0 1 0 0 0 0 0 1 1 1 0 1 0 1 3 1 2 0 2 0 3 2 1 5 7 2 9 8 9 14 11 15 19 21 20 34 22 22 39 41 48 53
0 0 0 0 0 0 0 0 0 0 0 0 0 0 0 0 0 0 0 0 0 0 0 0 0 0 0 0 0 1 0 0 0 0 1 0 0 1 1 0 0 1 0 1 2 1 3 5 4 4 4 4 9 10 4 11 16 10 15 19 16 27 21 36 36 30 41 49 50
0 0 0 0 0 0 0 0 0 0 0 0 0 0 0 0 0 0 0 0 0 0 0 0 0 0 0 0 0 0 0 0 1 0 0 1 1 0 0 2 1 4 0 1 3 3 4 7 2 2 5 6 7 8 8 6 10 14 10 18 17 21 30 26 47 31 32 43 65
0 0 0 0 0 0 0 0 0 0 0 0 0 0 0 0 0 0 0 0 0 0 1 0 0 0 0 0 0 1 0 0 0 1 2 1 0 1 0 1 5 1 2 1 7 1 1 1 3 0 2 9 8 7 11 6 9 11 15 13 18 24 28 21 35 38 43 56 51
0 0 0 0 0 0 0 0 0 0 0 1 0 0 0 0 0 0 0 0 0 0 0 0 0 0 0 0 0 0 0 0 1 3 1 1 2 1 0 0 1 1 1 1 2 1 2 3 1 3 5 10 3 2 5 6 13 11 13 22 24 12 28 31 32 40 44 49 51
0 0 0 0 0 0 0 0 0 0 0 0 0 0 0 0 0 0 0 0 0 0 0 0 0 0 0 0 0 0 0 0 1 0 1 0 1 0 1 0 4 3 1 3 2 3 0 4 3 4 4 4 2 8 7 11 9 16 15 16 17 25 22 37 38 35 48 53 53
0 0 0 0 0 0 0 0 0 0 0 0 0 0 0 0 0 0 0 0 0 1 0 0 0 0 0 0 0 0 0 0 0 0 0 0 0 0 4 1 2 2 1 0 4 2 1 5 0 3 3 4 6 3 13 10 12 23 21 23 20 14 25 30 37 38 51 49 53
0 0 0 0 0 1 0 0 0 0 0 0 0 0 0 0 0 0 0 0 0 0 0 0 0 0 0 0 0 0 0 0 0 0 0 0 0 0 0 0 0 0 3 2 4 3 1 4 3 6 5 2 6 6 11 8 11 20 20 17 24 21 27 21 26 24 41 53 55
0 0 0 0 0 0 0 0 0 0 0 0 0 0 0 0 0 0 0 0 0 0 0 0 0 0 0 0 0 0 0 0 0 0 0 0 1 2 0 2 0 0 1 1 1 1 3 4 5 4 1 5 6 9 5 6 14 9 13 14 21 28 32 39 29 35 45 55 46
0 0 0 0 0 0 0 0 0 0 0 0 0 0 0 0 0 0 0 0 0 1 0 0 0 0 0 0 0 0 0 0 0 0 1 0 0 0 2 1 0 1 3 0 0 1 1 0 4 9 4 5 5 13 7 10 15 23 12 18 17 22 34 39 30 37 38 49 53
0 0 0 0 0 0 0 0 0 0 0 0 0 0 0 0 0 0 0 0 0 0 0 0 0 0 0 0 0 1 0 0 0 1 0 0 0 0 0 0 1 1 1 1 1 2 3 4 6 3 3 6 6 6 7 12 11 12 22 15 19 20 28 33 32 43 45 43 45
0 0 0 0 0 0 0 0 0 0 0 0 0 0 0 0 0 0 0 0 0 0 0 0 0 0 0 0 0 0 0 0 0 0 0 1 0 1 0 1 0 1 2 1 3 3 1 3 5 4 2 4 7 4 12 12 10 14 20 19 14 21 24 32 34 46 39 43 44
0 0 0 0 0 0 0 0 0 0 0 0 0 0 0 0 0 0 0 0 0 0 0 0 0 0 0 0 0 0 0 0 0 0 0 0 0 0 2 0 1 0 1 3 2 5 3 3 4 5 6 3 11 9 14 6 7 10 14 16 23 30 22 26 35 45 46 59 57
0 0 0 0 0 0 0 0 0 0 0 0 0 0 0 0 0 0 0 0 0 0 0 0 0 0 0 0 0 0 0 0 2 0 0 0 1 1 0 4 1 0 1 6 1 2 1 6 3 3 5 8 4 12 6 9 10 11 16 23 27 21 25 26 33 34 41 63 50
0 0 0 0 0 0 0 0 0 0 0 0 0 0 0 0 0 0 0 0 0 0 0 0 0 0 0 0 0 0 0 0 0 0 0 0 1 1 2 1 1 3 2 4 1 2 2 3 1 2 2 5 3 10 10 10 11 12 14 19 18 18 30 36 39 48 31 49 64
0 0 0 0 0 0 0 0 0 0 0 0 0 0 0 0 0 0 0 0 0 0 0 0 0 0 0 0 0 0 0 0 0 0 0 0 0 0 0 1 0 1 1 1 1 0 3 1 3 5 6 6 9 7 10 7 14 15 13 15 24 26 19 37 30 39 44 41 66
0 0 0 0 0 0 0 0 0 0 0 0 0 0 0 0 0 0 0 0 0 0 0 0 0 0 0 0 0 0 0 0 0 0 0 0 1 1 0 1 0 2 2 3 4 1 0 3 3 2 4 2 8 7 11 6 12 24 13 26 28 23 24 23 43 42 38 46 67
0 0 0 0 0 0 0 0 0 0 0 0 0 0 0 0 0 0 0 0 0 0 0 0 0 0 1 0 1 0 0 0 0 0 0 2 0 0 0 1 1 2 3 0 2 1 2 1 3 4 7 7 6 4 14 6 18 15 14 15 28 15 36 42 33 42 53 56 61
0 0 0 0 0 0 0 0 0 0 0 0 0 0 0 0 0 0 0 0 0 0 0 0 0 0 0 0 0 0 0 0 0 0 0 2 0 0 0 0 0 3 1 3 1 6 3 1 8 6 4 6 8 6 10 9 12 17 18 18 21 20 26 27 35 49 47 44 51
0 0 0 0 0 0 0 0 0 0 0 0 0 0 0 0 0 0 0 0 0 0 0 0 0 0 0 0 0 0 0 0 0 1 0 0 0 1 2 1 1 1 3 5 2 1 1 2 4 2 6 5 4 6 9 6 17 7 17 14 23 31 23 32 45 30 44 43 55
0 0 0 0 0 0 0 0 0 0 0 0 0 0 0 0 0 0 0 0 0 0 0 0 0 0 0 0 0 0 0 0 0 0 0 1 1 0 0 1 0 1 2 0 1 2 0 2 3 4 5 6 9 9 13 9 18 13 23 21 25 22 36 32 29 35 45 52 56
0 0 0 0 0 0 0 0 0 0 0 0 0 0 0 0 0 0 0 0 0 0 0 0 0 0 0 0 0 0 0 0 0 0 1 0 0 1 1 0 0 1 0 1 3 3 4 6 4 3 7 3 6 10 13 3 16 16 10 20 20 26 24 38 32 54 40 51 53
0 0 0 0 0 0 0 0 0 0 0 0 0 0 0 0 0 0 0 0 0 0 0 0 0 0 0 0 0 0 0 0 0 0 0 0 0 0 1 1 1 2 0 2 4 7 1 3 3 4 8 5 6 5 14 14 13 10 14 16 16 24 33 32 29 37 37 57 48
0 0 0 0 0 0 0 0 0 0 0 0 0 0 0 0 0 0 0 0 0 0 0 0 0 0 0 0 0 0 0 0 0 0 1 2 1 0 0 1 0 1 2 0 3 3 3 0 3 5 5 4 6 7 10 12 11 11 17 14 22 32 29 35 28 49 40 58 55
0 0 0 0 0 0 1 0 0 0 0 0 0 0 1 0 0 0 0 0 0 0 0 0 0 0 0 0 0 0 0 0 0 0 1 0 0 0 0 1 2 1 0 4 1 3 4 2 0 2 2 5 7 11 10 14 7 13 17 20 26 23 22 25 31 41 45 51 59
0 0 0 0 0 0 0 0 0 0 0 0 0 0 0 0 0 0 0 0 0 0 0 0 0 0 0 0 0 0 0 1 0 0 0 1 0 0 1 0 1 2 0 0 0 2 1 2 4 4 10 8 4 11 8 8 12 14 18 21 27 25 22 37 36 31 40 58 61
0 0 0 0 0 0 0 0 0 0 0 0 0 0 0 0 1 0 0 0 0 0 0 0 0 0 0 0 0 0 0 1 1 0 0 1 2 0 0 1 2 1 1 0 1 1 4 4 1 3 2 7 7 10 7 7 11 6 17 20 19 19 22 28 32 31 45 62 62
0 0 0 0 0 0 0 0 0 0 0 0 0 0 0 0 0 0 0 0 0 0 0 0 0 0 0 0 0 0 0 1 0 0 0 0 0 0 0 1 1 3 4 2 2 0 4 3 5 3 8 10 7 8 4 6 15 14 13 22 17 29 24 28 32 33 36 49 69
0 0 0 0 0 0 0 0 0 0 0 0 0 0 0 0 0 0 0 0 0 0 0 0 0 0 0 0 0 0 0 0 1 0 0 2 0 1 2 1 1 2 2 1 2 2 0 4 7 5 4 7 8 9 8 13 15 15 10 16 17 28 23 36 28 28 38 43 63
0 0 0 0 0 0 0 0 0 0 0 0 0 0 1 0 0 0 0 0 0 0 0 0 0 0 0 0 0 0 0 0 0 0 1 0 0 0 0 1 0 0 1 3 4 1 3 1 0 4 5 5 6 14 6 13 7 10 22 9 21 29 24 35 37 47 52 66 63
0 0 0 0 0 0 0 0 0 0 0 0 0 0 0 0 0 0 0 0 0 0 0 0 0 0 0 0 0 0 0 0 0 1 0 0 0 0 1 2 1 0 1 0 4 3 1 4 4 2 4 8 5 11 8 7 11 12 12 8 26 25 25 35 30 38 46 49 59
0 0 0 0 0 0 0 0 0 0 0 0 0 0 0 0 0 0 0 0 0 0 0 0 0 0 0 1 0 0 0 0 0 1 0 0 1 0 0 2 2 2 1 2 1 0 0 6 3 6 0 4 5 4 6 10 8 13 14 18 13 25 29 31 35 40 41 57 54
0 0 0 0 0 0 0 0 0 0 0 0 0 0 0 0 0 0 0 0 0 0 0 0 0 0 0 0 0 0 2 0 0 1 0 0 0 0 1 0 0 1 3 5 0 2 3 7 2 2 3 4 5 5 10 12 17 10 14 18 18 19 25 26 35 32 52 53 41
0 0 0 0 0 0 0 0 0 0 0 0 0 0 0 0 0 0 0 0 0 0 0 0 0 0 0 0 0 0 0 1 0 0 0 0 1 0 0 1 1 3 1 4 1 4 4 1 2 5 4 8 10 4 4 7 19 14 18 18 14 19 29 33 41 44 46 53 50
0 0 0 0 0 0 0 0 0 0 0 0 0 0 0 0 0 0 0 0 0 0 0 0 0 0 0 0 0 0 0 1 0 0 1 0 1 0 0 1 2 1 1 3 1 1 3 3 1 2 3 5 6 6 4 10 8 16 13 16 23 25 26 34 34 36 31 46 55
0 0 0 0 0 0 0 0 0 0 0 0 0 0 0 0 0 0 0 0 0 0 0 0 0 0 0 0 0 0 0 1 0 1 0 2 0 1 0 0 1 1 1 0 0 1 5 1 1 4 5 2 4 6 6 10 10 13 12 16 25 19 33 31 22 40 41 43 66
0 0 0 0 0 0 0 0 0 0 0 0 0 0 0 0 0 0 0 0 0 0 0 0 0 0 1 0 0 0 0 0 0 1 1 0 0 0 1 2 1 2 0 2 2 5 1 2 1 2 3 7 9 6 8 13 8 18 18 12 15 29 25 35 34 39 54 47 52
0 0 0 0 0 0 0 0 0 0 0 0 0 0 0 0 0 0 0 0 0 0 0 0 0 0 0 0 0 0 0 0 0 1 1 1 1 1 0 0 0 1 1 2 2 3 0 3 4 3 4 9 9 5 9 5 11 14 16 19 18 17 16 22 39 40 45 47 66
0 0 0 0 0 0 0 0 0 0 0 0 0 0 0 0 0 0 0 0 0 0 0 0 0 0 0 0 0 0 0 1 0 0 0 0 0 1 0 0 1 2 3 2 1 3 3 2 2 7 5 5 3 7 6 7 13 10 14 16 22 27 30 23 45 33 40 40 51
0 0 0 0 0 0 0 0 0 0 0 0 0 0 0 0 0 0 0 0 0 0 0 0 0 0 0 0 0 0 0 0 1 0 0 0 2 0 1 0 5 1 1 1 1 2 3 5 2 1 4 7 8 6 9 7 9 14 13 18 23 26 25 24 38 37 32 54 47
0 0 0 0 0 0 0 0 0 0 0 0 0 0 0 0 0 0 0 0 0 0 0 0 0 0 0 0 0 0 0 0 0 1 0 0 0 1 0 0 0 2 1 0 1 1 1 3 4 1 4 6 3 12 13 12 8 14 13 19 15 21 12 33 26 37 37 38 59
0 0 0 0 0 0 0 0 0 0 0 0 0 0 0 0 0 0 0 0 0 0 0 0 0 0 0 1 0 0 0 1 0 0 0 0 0 3 0 0 1 0 1 2 1 1 3 2 0 4 5 4 6 8 10 8 12 19 18 22 18 18 26 27 26 45 38 43 52
0 0 0 0 0 0 0 0 0 0 0 0 0 0 0 0 0 0 0 0 0 1 0 0 0 0 0 0 0 0 0 0 0 0 0 0 2 0 0 1 0 0 0 1 2 0 2 2 0 4 6 9 6 8 10 17 11 12 23 18 16 24 33 28 18 30 49 27 54
0 0 0 0 0 0 0 0 0 0 0 0 0 0 0 0 0 0 0 0 0 0 0 0 0 0 0 0 0 0 0 1 0 0 0 0 0 3 0 0 1 0 1 4 2 1 0 3 3 4 4 4 7 10 4 6 16 14 16 15 8 23 25 22 35 39 35 47 50
0 0 0 0 0 0 0 0 0 0 0 0 0 0 0 0 0 0 0 0 0 0 0 0 0 0 0 0 0 0 0 0 2 0 0 0 0 0 1 0 1 2 0 1 4 2 4 3 2 3 6 3 6 9 4 7 10 9 11 23 17 25 28 28 27 35 37 41 39
0 0 0 0 0 0 0 0 0 0 0 0 1 0 0 0 0 0 0 0 0 0 0 0 0 0 0 0 1 0 0 0 0 0 0 0 1 0 0 0 0 0 0 2 1 1 3 2 4 4 2 3 6 7 11 7 10 11 18 19 23 18 24 25 28 43 30 46 50
0 0 0 0 0 0 0 0 0 0 0 0 0 0 0 0 0 0 0 0 0 0 0 0 0 0 1 0 0 0 0 0 1 0 0 0 0 0 1 1 5 0 2 1 3 2 4 6 4 7 7 5 7 6 8 11 15 14 16 17 18 18 20 28 33 40 40 52 47
0 0 0 0 0 0 0 0 0 0 0 0 0 0 0 0 0 0 0 0 0 0 0 0 0 0 0 0 0 0 0 1 0 0 0 0 0 0 2 1 0 0 2 1 3 0 2 6 4 4 3 3 4 10 7 9 12 10 19 23 17 24 35 29 36 31 34 43 55
0 0 0 0 0 0 0 0 0 0 0 0 0 0 0 0 0 0 0 0 0 0 0 0 0 0 0 0 0 0 0 0 0 1 0 2 2 0 0 2 0 2 2 2 4 6 4 2 3 3 3 8 7 7 4 8 5 16 15 21 21 22 22 34 24 36 35 37 47
0 0 0 0 0 0 0 0 0 0 0 0 0 0 0 0 0 0 0 0 0 0 0 0 0 0 0 0 0 0 0 0 0 0 1 2 0 1 0 0 0 2 1 0 2 2 1 1 1 3 5 8 9 7 7 10 14 11 22 18 12 21 28 34 30 24 44 41 52
0 0 0 0 0 0 0 0 0 0 0 0 0 0 0 0 0 0 0 0 0 0 0 0 0 0 0 0 0 0 0 1 0 1 2 1 2 1 0 4 1 4 1 3 1 5 2 3 6 1 1 6 6 4 7 9 8 10 12 25 12 11 27 22 35 37 49 41 47
0 0 0 0 0 0 0 0 0 0 0 0 0 0 0 0 0 0 0 0 0 0 0 0 0 0 0 0 0 0 0 0 0 0 1 0 1 0 0 2 1 1 0 1 3 1 1 1 1 4 6 3 7 9 10 8 10 12 13 14 19 17 29 33 45 33 35 48 57
0 0 0 0 0 0 0 0 0 0 0 0 0 0 0 0 0 0 0 0 0 0 0 0 0 0 0 0 0 0 0 0 0 0 0 0 0 1 1 0 1 2 5 1 0 0 4 2 3 3 8 4 7 5 13 11 12 12 19 12 27 23 19 29 34 38 34 48 47
0 0 0 0 0 0 0 0 0 0 0 0 0 0 0 0 0 0 0 0 0 0 0 0 0 0 0 0 0 0 0 0 0 1 0 0 0 0 0 0 1 0 0 4 2 1 3 2 5 7 5 4 6 3 8 9 7 10 17 23 21 19 22 38 31 23 49 45 50
0 0 0 0 0 0 0 0 0 0 0 0 0 0 0 0 0 0 0 0 0 0 0 0 0 0 0 0 0 1 0 0 0 0 1 0 3 0 3 0 2 1 3 2 3 4 3 2 3 3 3 8 2 6 5 12 8 19 19 15 15 18 19 22 33 30 37 31 39
0 0 0 0 0 0 0 0 0 0 0 0 0 0 0 0 0 0 0 0 0 0 0 0 0 0 0 0 0 0 0 0 0 0 1 0 0 0 2 1 0 1 2 1 0 1 2 2 2 4 3 5 4 7 6 6 16 14 15 18 19 19 26 18 16 28 35 49 49
0 0 0 0 0 0 0 0 0 0 0 0 0 0 0 0 0 0 0 0 0 0 0 0 0 0 0 0 0 1 0 0 0 0 0 0 0 0 3 0 0 3 2 3 3 3 3 2 2 2 2 5 5 3 7 6 13 7 13 19 20 20 31 25 33 25 37 40 49
0 0 0 0 0 0 0 0 0 0 0 0 0 0 0 0 0 0 0 0 0 0 0 0 0 0 0 0 0 0 0 1 0 1 0 0 1 1 0 1 4 1 2 1 2 1 3 5 3 6 5 6 5 5 9 7 9 11 17 20 19 27 34 20 42 36 31 37 44
0 0 0 0 0 0 0 0 0 0 0 0 0 0 0 0 0 0 0 0 0 0 0 0 0 0 0 0 0 0 0 0 0 0 0 0 0 3 1 2 0 0 1 0 3 5 4 6 3 7 6 3 3 9 8 9 16 12 9 15 24 31 21 37 27 34 31 50 57
0 0 0 0 0 0 0 0 0 0 0 0 0 0 0 0 0 0 0 0 0 0 0 1 0 0 0 0 0 0 0 0 0 0 0 0 0 2 1 0 3 3 1 1 4 2 0 4 4 4 6 10 9 8 7 14 10 13 11 25 23 19 18 28 29 29 43 39 50
0 0 0 0 0 0 0 0 0 0 0 0 0 0 0 0 0 0 0 0 0 0 0 0 0 0 0 0 0 0 0 0 0 0 0 0 0 0 0 0 2 0 1 3 4 0 4 2 6 3 3 5 2 7 4 10 8 11 10 28 25 23 28 27 35 40 33 32 47
0 0 0 0 0 0 0 0 0 0 0 0 0 0 0 0 1 0 0 0 0 0 0 0 0 0 0 0 0 0 0 0 1 0 0 0 0 0 1 1 1 0 0 3 4 6 6 2 1 2 2 5 9 7 13 15 13 12 13 16 22 18 17 25 33 34 32 47 46
0 0 0 0 0 0 0 0 0 0 0 0 0 0 0 0 0 0 0 0 0 1 0 0 0 0 0 0 0 1 0 0 1 0 1 0 0 1 0 0 2 1 4 1 3 1 1 2 3 4 8 4 5 1 5 8 8 19 14 14 20 22 24 23 39 40 42 48 46
0 0 0 0 0 0 0 0 0 0 0 0 0 0 0 0 0 0 0 0 0 0 1 0 0 0 1 0 0 0 0 0 0 0 1 0 0 0 0 1 1 0 1 0 0 4 1 1 5 4 1 3 9 8 7 8 16 13 12 19 18 17 35 25 24 32 51 40 50
0 0 0 0 0 0 0 0 0 0 0 0 0 0 0 0 0 0 0 0 0 0 0 0 0 0 0 0 0 0 0 0 2 0 0 0 1 0 1 1 2 1 2 3 2 2 3 7 2 7 7 6 4 3 4 8 18 10 21 17 16 30 26 20 32 32 45 53 52
0 0 0 0 0 0 0 0 0 0 0 0 1 0 0 0 0 0 0 0 0 0 0 0 0 0 1 0 0 0 0 0 0 0 0 1 3 0 0 0 1 2 2 2 4 2 3 2 3 5 3 8 10 5 6 10 7 7 13 20 17 20 19 31 24 30 40 36 46
0 0 0 0 0 0 0 0 0 0 0 0 0 0 0 0 0 0 0 0 0 0 0 0 0 0 1 0 0 0 1 0 0 0 0 0 2 0 0 1 1 3 0 1 1 6 2 2 1 7 9 3 10 12 9 10 11 10 19 18 20 25 25 38 30 47 44 56 42
0 0 0 0 0 0 0 0 0 0 0 0 0 0 0 0 0 0 0 0 0 0 0 0 0 0 0 0 0 0 0 0 0 0 0 1 0 0 0 1 0 1 1 3 0 2 3 2 4 3 5 9 6 5 11 18 10 13 17 21 20 25 34 30 37 46 33 40 65
0 0 0 0 0 0 0 0 0 0 0 0 0 0 0 0 0 0 0 0 0 0 0 0 0 0 0 0 0 0 0 0 0 1 0 0 0 0 1 2 4 0 1 1 1 6 1 3 3 4 2 7 5 9 9 11 13 8 14 19 21 21 24 32 28 32 43 46 53
0 0 0 0 0 0 0 0 0 0 0 0 0 0 0 0 0 0 0 0 0 0 0 0 0 0 0 0 0 0 0 0 1 0 1 3 1 0 0 0 0 0 0 1 4 6 1 1 1 2 8 6 8 7 8 10 12 14 13 8 15 21 25 32 29 39 39 55 56
0 0 0 0 0 0 0 0 0 0 0 0 0 0 0 0 0 0 1 0 0 0 0 0 0 0 0 0 0 0 0 0 0 0 0 0 0 2 1 1 0 0 1 2 1 2 7 6 3 9 7 2 6 9 8 10 13 9 16 20 20 17 27 31 30 21 41 43 39
0 0 0 0 0 0 0 0 0 0 0 0 0 0 0 0 0 0 0 0 0 0 0 0 0 0 0 0 0 0 0 1 0 0 0 1 1 0 1 0 1 2 1 1 5 1 3 8 2 5 4 3 6 8 7 10 9 11 16 17 21 31 26 26 32 40 41 44 41
0 0 0 0 0 0 0 0 0 0 0 0 0 0 0 0 1 0 0 0 0 0 0 0 0 0 0 0 0 0 0 0 1 0 0 0 0 0 0 1 1 1 3 0 1 0 1 2 4 2 8 5 3 5 7 11 8 9 13 19 20 26 34 19 34 42 42 50 44
0 0 0 0 0 0 0 0 0 0 0 0 0 0 0 0 0 0 0 0 0 0 0 0 0 0 0 0 0 0 0 0 0 0 0 1 2 1 0 3 4 2 2 0 2 2 5 6 2 3 5 5 7 3 7 10 18 15 11 15 22 27 29 36 25 41 38 49 56
0 0 0 0 0 0 0 0 0 0 0 0 0 0 0 0 0 0 0 0 0 0 0 1 0 0 0 0 0 0 0 0 0 0 1 1 0 0 1 3 0 3 0 0 1 3 1 3 2 3 4 3 4 9 6 4 18 14 18 19 23 22 22 35 29 40 38 57 59
0 0 0 0 0 0 0 0 0 0 0 0 0 0 0 0 0 0 0 0 0 0 0 0 0 1 0 0 0 0 0 0 0 0 0 0 0 0 0 2 0 1 0 2 1 3 3 4 4 2 5 6 3 7 9 12 11 15 20 20 21 29 30 26 27 40 45 59 57
0 0 0 0 0 0 0 0 0 0 0 0 0 0 0 0 0 0 0 0 0 0 0 0 0 0 0 0 0 0 0 0 0 0 0 0 1 1 1 1 1 0 0 2 0 2 2 5 3 4 3 7 7 7 7 10 12 16 17 20 26 18 24 35 49 32 44 55 56
0 0 0 0 0 0 0 0 0 0 0 0 0 0 0 0 0 0 0 0 0 0 0 0 0 1 0 0 1 0 0 2 1 0 1 1 0 1 0 0 2 2 0 3 2 5 2 3 2 2 10 8 7 5 7 7 14 13 17 16 20 24 32 30 34 37 51 54 49
0 0 0 0 0 0 0 0 0 0 0 0 0 0 0 0 0 0 0 0 0 0 0 0 0 0 0 0 0 1 0 0 0 0 0 0 1 0 0 1 3 1 2 1 2 2 3 2 2 8 9 12 12 10 9 11 9 14 17 22 26 31 40 29 28 40 41 42 61
0 0 0 0 0 0 0 0 0 0 0 0 0 0 0 0 0 0 0 0 0 0 0 0 0 0 0 0 0 0 0 0 0 1 0 0 0 0 1 0 1 2 2 0 2 3 1 3 4 6 6 3 4 5 10 9 8 12 19 19 19 28 30 22 33 40 34 68 69
0 0 0 0 0 0 0 0 0 0 0 0 0 0 0 0 0 0 0 0 0 0 0 0 0 0 0 0 1 0 0 0 1 0 0 0 0 0 0 0 0 1 3 2 5 2 6 0 5 5 6 7 9 4 6 16 9 13 15 11 13 20 30 29 35 40 58 52 48
0 0 0 0 0 0 0 0 0 0 0 0 0 0 0 0 0 0 0 0 0 0 0 0 0 0 0 0 0 0 0 0 0 1 1 1 1 0 0 4 0 1 1 3 1 1 2 1 2 2 10 4 11 10 10 13 10 17 17 17 14 29 32 37 36 41 47 61 67
0 0 0 0 0 0 0 0 0 0 0 0 0 0 0 0 0 0 0 0 0 0 0 0 0 0 0 1 0 0 1 0 0 1 0 0 0 1 0 2 1 0 3 0 1 2 4 5 6 8 7 6 7 8 7 7 8 19 16 14 28 30 27 23 28 45 43 52 77
0 0 0 0 0 0 0 0 0 0 0 0 0 0 0 0 0 0 0 0 0 0 0 0 0 0 0 0 0 0 0 0 1 0 0 0 1 0 2 0 1 1 2 3 3 4 0 2 8 3 4 13 0 12 6 7 9 14 7 20 22 28 28 23 24 40 44 56 62
0 0 0 0 0 0 0 0 0 0 0 0 0 0 0 0 0 0 0 0 0 0 0 0 0 0 0 0 0 1 0 0 0 0 0 1 0 1 0 1 5 1 1 1 1 1 3 1 6 5 6 8 2 6 14 8 8 15 13 14 25 23 25 24 45 33 43 49 52
0 0 0 0 0 0 0 0 0 0 0 0 0 0 0 0 0 0 0 0 0 0 0 0 0 0 0 0 0 0 0 0 0 0 1 1 2 2 0 0 0 1 2 0 5 2 1 4 8 4 1 9 4 4 8 7 13 12 24 14 26 29 19 26 48 38 55 50 66
0 0 0 0 0 0 0 0 0 0 0 0 0 0 0 0 0 0 0 0 0 0 0 0 0 0 0 0 0 0 0 0 0 0 1 0 1 1 0 0 2 0 6 3 0 0 1 1 0 6 6 6 3 6 11 13 18 15 14 26 21 28 22 38 57 47 47 47 61
0 0 0 0 0 0 0 0 0 0 0 0 0 0 0 0 0 0 0 0 0 0 0 0 0 0 0 0 0 0 0 0 0 0 0 0 0 0 0 0 0 3 1 2 1 2 2 5 4 2 5 7 8 4 10 13 12 23 12 23 20 29 32 22 32 41 49 57 40
0 0 0 0 0 0 0 0 0 0 0 0 0 0 0 0 0 0 0 0 0 0 0 0 0 0 0 0 0 0 0 0 0 0 0 0 0 0 1 1 3 1 4 2 1 5 3 4 4 3 1 2 4 8 12 18 10 12 16 18 21 15 17 36 28 44 47 58 66
0 0 0 0 0 0 0 0 0 0 0 0 0 0 0 0 0 0 0 0 0 0 0 0 0 0 0 0 0 0 1 0 0 0 0 0 2 2 0 0 0 3 2 4 2 4 1 0 5 5 5 9 5 9 8 16 10 15 26 21 17 21 35 27 40 40 45 49 56
0 0 0 0 0 0 0 0 0 0 0 0 0 0 0 0 0 0 0 0 0 0 0 0 0 0 0 0 0 0 0 0 0 1 1 0 1 1 3 1 1 0 1 1 4 1 1 3 2 2 5 8 3 6 10 10 13 13 13 19 20 19 30 39 45 44 59 46 58
0 0 0 0 0 0 0 0 0 0 0 0 0 0 0 0 0 0 0 0 0 0 0 0 0 0 0 1 1 0 1 0 0 0 2 1 1 0 0 0 2 4 3 3 2 5 9 2 5 8 6 6 5 7 10 12 14 14 12 10 26 25 23 29 35 52 45 43 59
0 0 0 0 0 0 0 0 0 0 0 0 0 0 0 0 0 0 0 0 0 0 0 0 0 0 0 1 0 0 0 0 0 1 0 1 1 1 0 0 1 0 0 0 2 3 5 3 5 5 5 3 9 10 12 10 12 12 18 18 21 21 32 24 35 42 37 38 67
0 0 0 0 0 0 0 0 0 0 0 0 0 0 0 0 0 0 0 0 0 0 0 0 0 0 0 0 1 0 0 0 0 0 2 1 0 0 0 0 1 2 1 0 0 2 2 2 7 10 6 6 6 9 7 10 14 14 15 13 23 18 26 32 33 29 49 55 56
0 0 0 0 0 0 0 0 0 0 0 0 0 0 0 0 0 0 0 0 0 0 0 0 0 0 0 0 0 0 0 1 0 0 0 0 1 1 0 0 2 2 4 0 2 2 3 2 3 1 7 7 4 8 10 11 13 12 14 12 30 32 28 48 31 37 41 58 49
0 0 0 0 0 0 0 0 0 0 0 0 0 0 0 0 0 0 0 0 0 0 0 1 0 0 0 0 0 1 0 1 0 1 0 0 0 0 0 1 1 1 2 2 4 3 2 2 3 3 5 7 7 8 9 14 10 16 17 12 17 31 30 32 37 37 35 58 53
0 0 0 0 0 0 0 0 0 0 0 0 0 0 0 0 0 0 0 0 0 0 0 0 0 0 0 0 0 0 0 0 0 0 1 0 1 2 1 1 2 0 2 4 1 3 5 4 1 6 3 9 10 4 17 15 18 19 10 18 23 26 31 29 55 35 34 52 49
0 0 0 0 0 0 0 0 0 0 0 0 0 0 0 0 0 0 0 0 0 0 1 0 0 0 0 0 0 0 0 0 0 0 2 0 0 0 0 2 2 0 2 0 2 1 1 3 5 6 9 5 6 8 6 9 9 15 14 26 23 29 27 30 42 35 57 67 63
0 0 0 0 0 0 0 0 0 0 0 0 0 0 0 0 0 0 0 0 0 0 0 0 0 0 0 0 0 0 0 0 0 0 0 2 0 0 2 1 3 1 1 1 1 4 0 4 2 0 2 11 6 7 11 14 15 18 12 12 24 21 25 29 26 48 41 62 54
0 0 0 0 0 0 0 0 0 0 0 0 0 0 0 0 0 0 0 0 0 0 0 0 0 0 0 0 1 0 0 0 0 0 0 0 0 2 1 0 3 1 1 2 3 2 3 5 6 2 5 7 4 5 8 11 16 13 21 15 18 22 25 25 45 42 43 64 57
0 0 0 0 0 0 0 0 0 0 0 0 0 0 0 0 0 0 0 0 0 0 0 1 0 0 0 0 0 1 0 1 0 1 0 0 1 0 0 1 1 1 3 3 3 2 3 0 5 2 3 3 11 12 7 5 9 20 14 15 27 22 19 33 36 39 43 49 64
0 0 0 0 0 0 0 0 0 0 0 0 0 0 0 0 0 0 0 0 0 0 0 0 0 0 0 0 0 0 0 0 0 0 1 0 0 1 1 1 2 1 0 1 3 1 5 4 3 5 5 1 7 8 6 11 7 10 19 21 24 17 34 19 33 38 45 38 51
0 0 0 0 0 0 0 0 0 0 0 0 0 0 0 0 0 0 0 0 0 0 0 0 0 0 0 0 0 0 0 0 0 0 0 0 1 1 0 1 2 0 2 0 1 1 2 3 3 4 6 4 7 3 7 5 10 17 16 19 23 23 26 18 32 46 41 39 60
0 0 0 0 0 0 0 0 0 0 0 0 0 0 0 1 0 0 0 0 0 0 0 0 0 0 0 0 0 0 0 0 0 0 0 0 0 1 1 0 1 5 2 0 3 3 6 3 2 6 3 1 10 2 9 10 13 14 17 10 19 22 26 29 42 41 37 55 59
0 0 0 0 0 0 0 0 0 0 0 0 0 0 0 0 0 0 0 0 0 0 0 0 0 0 0 0 0 0 1 0 0 0 0 0 2 0 0 1 0 1 0 5 2 0 2 2 1 2 4 6 9 4 11 11 13 8 10 30 13 25 24 31 36 41 44 52 53
0 0 0 0 0 0 0 0 0 0 0 0 0 0 0 0 0 0 0 0 0 0 0 0 0 0 0 0 0 0 0 0 0 0 0 0 1 0 0 2 1 0 3 4 3 6 2 1 4 7 7 11 4 11 8 5 15 14 12 15 21 19 15 30 34 34 37 47 50
0 0 0 0 0 0 0 0 0 0 0 0 0 0 0 0 0 0 0 0 0 0 0 0 0 0 1 1 1 1 0 1 0 1 0 0 0 1 3 2 0 1 3 3 3 1 3 1 9 0 3 5 7 5 14 8 15 15 11 20 17 18 27 37 33 32 54 53 56
0 0 0 0 0 0 0 0 0 0 0 0 0 0 0 0 0 0 0 0 0 0 0 0 0 0 0 0 0 0 1 0 0 0 0 0 0 0 1 2 2 1 1 1 4 0 5 2 3 5 5 3 5 5 11 7 14 5 19 12 16 23 26 23 39 48 45 43 43
0 0 0 0 0 0 0 0 0 0 0 0 0 0 0 0 0 0 0 0 0 0 0 0 0 0 0 0 0 0 0 0 0 0 0 0 0 0 1 1 2 1 1 0 3 4 4 2 3 7 4 2 8 7 2 9 11 16 12 15 22 29 20 31 25 44 51 42 42
0 0 0 0 0 0 0 0 0 0 0 0 0 0 0 0 0 0 0 0 0 0 0 0 0 0 0 0 0 0 0 0 0 0 0 0 1 0 1 0 0 4 1 2 0 0 1 4 4 3 7 1 6 7 8 9 8 13 16 19 15 20 23 31 21 36 33 42 48
0 0 0 0 0 0 0 0 0 0 0 0 0 0 0 0 0 0 0 0 0 0 0 0 0 0 0 0 0 0 0 0 0 0 0 0 0 0 0 0 0 1 0 2 0 2 2 1 5 3 3 7 7 10 8 9 12 11 13 21 15 19 21 22 41 26 46 47 55
0 0 0 0 0 0 0 0 0 0 0 0 0 0 0 0 0 0 0 0 0 0 0 1 0 0 0 0 0 0 0 0 0 0 1 0 1 0 2 0 0 0 5 2 2 4 3 3 2 2 8 7 5 14 7 8 17 8 18 22 12 14 17 32 30 44 41 40 46
0 0 0 0 0 0 0 0 0 0 0 0 0 0 0 0 0 0 0 0 0 0 0 0 0 0 0 0 0 0 0 1 1 1 0 2 1 2 0 1 0 1 0 2 1 2 0 4 3 4 7 6 9 11 13 5 15 10 15 21 17 22 16 33 25 40 41 42 48
0 0 0 0 0 0 0 0 0 0 0 0 0 0 0 0 0 0 0 0 0 0 0 0 0 0 0 1 0 0 0 0 0 0 0 1 1 0 0 2 1 1 0 2 2 1 0 2 4 3 7 1 7 3 6 14 12 15 16 25 16 16 24 20 30 32 57 40 53
0 0 0 0 0 0 0 0 0 0 0 0 0 0 0 0 0 0 0 0 0 0 0 0 0 0 0 0 0 0 0 0 0 0 0 0 1 1 0 0 1 1 2 3 3 7 2 5 0 5 5 7 5 8 8 11 8 5 14 14 16 17 33 34 34 29 35 51 51
0 0 0 0 0 0 0 0 0 0 0 0 0 0 0 0 0 0 0 0 0 0 0 0 0 0 0 0 0 1 0 0 1 0 0 1 1 3 0 1 1 5 2 3 1 6 4 5 2 8 6 3 12 2 9 14 15 14 14 17 17 27 23 22 26 40 41 52 59
0 0 0 0 0 0 0 0 0 0 0 0 0 0 0 0 0 0 0 0 0 0 0 0 0 0 0 0 0 0 0 0 0 0 0 0 3 0 0 0 2 3 2 1 0 2 5 3 3 1 5 5 6 5 5 13 9 8 14 12 19 26 17 22 31 36 39 39 42
0 0 0 0 0 0 0 0 0 0 0 0 0 0 0 0 0 0 0 0 0 0 0 0 0 0 0 0 0 0 0 1 0 0 1 1 2 0 2 0 2 1 3 2 3 2 1 2 3 3 6 8 4 2 5 5 14 10 21 19 16 13 19 22 28 30 42 50 43
0 0 0 0 0 0 0 0 1 0 0 0 0 0 0 0 0 0 1 0 0 0 0 0 0 0 0 0 0 0 0 0 1 1 0 0 2 1 0 1 0 0 0 4 3 2 3 1 4 4 7 3 8 6 3 8 13 18 8 20 12 24 24 24 30 30 43 52 44
0 0 0 0 0 0 0 0 0 0 0 0 0 0 0 0 0 0 0 0 0 0 0 0 0 0 0 0 0 0 0 0 0 0 0 0 0 1 0 3 0 0 3 2 4 4 4 4 1 6 3 4 6 11 9 10 8 8 15 11 19 21 24 26 34 30 44 45 52
0 0 0 0 0 0 0 0 0 0 0 0 0 0 0 0 0 0 0 0 0 1 0 0 0 1 0 0 0 0 0 0 0 0 0 0 1 0 0 1 1 1 0 0 3 3 1 4 6 6 7 2 9 4 4 9 7 12 9 12 25 21 20 26 37 24 37 44 59
0 0 0 0 0 0 0 0 0 0 0 0 0 0 0 0 0 0 0 0 0 0 0 0 0 0 0 0 0 0 0 0 0 1 1 1 0 0 0 1 0 1 3 3 2 2 4 5 2 5 3 6 7 6 3 12 9 7 11 18 13 24 18 24 32 28 40 36 46
0 0 0 0 0 0 0 0 0 0 0 0 0 0 0 0 0 0 1 0 0 0 0 0 0 0 0 0 0 1 0 0 0 0 0 0 0 0 0 0 1 1 1 0 2 2 2 3 7 3 5 3 3 7 8 5 7 14 12 16 9 15 25 25 38 31 59 34 42
0 0 0 0 0 0 0 0 0 0 0 0 0 0 0 0 0 0 0 0 1 0 0 1 0 0 0 0 0 0 0 0 0 1 1 0 1 1 1 0 1 3 0 1 1 3 6 6 0 2 4 5 7 7 7 17 7 8 16 16 25 28 30 34 32 33 46 54 53
0 0 0 0 0 0 0 0 0 0 0 0 0 0 0 0 0 0 0 0 0 0 0 0 0 0 1 0 0 0 0 0 1 0 0 0 0 3 0 1 0 0 0 3 3 2 4 3 4 2 4 5 6 12 9 7 4 13 15 16 12 23 27 26 41 36 34 41 53
0 0 0 0 0 0 0 0 0 0 0 0 0 0 0 0 0 0 0 0 0 0 0 0 0 0 0 1 0 0 0 0 0 0 1 1 0 0 0 1 1 1 0 1 3 1 3 5 2 4 3 6 8 3 6 12 15 16 11 26 20 26 25 32 23 40 53 55 50
0 0 0 0 0 0 0 0 0 0 0 0 0 0 0 0 0 0 0 0 0 0 0 0 0 1 0 0 0 0 0 0 0 0 1 0 0 0 1 1 1 0 0 3 3 2 6 4 4 5 4 6 6 5 8 16 15 20 21 20 19 31 31 36 40 54 33 35 46
0 0 0 0 0 0 0 0 0 0 0 0 0 0 0 0 0 0 0 0 0 0 0 0 0 0 0 0 0 0 0 0 1 1 0 0 1 0 0 0 1 0 3 0 0 0 1 2 2 3 6 4 5 9 7 15 12 20 12 18 19 20 31 23 31 34 40 48 66
0 0 0 0 0 0 0 0 0 0 0 0 0 0 0 0 0 0 0 0 0 0 1 0 0 0 0 0 0 0 1 0 0 0 0 1 1 0 1 1 2 3 0 1 2 3 0 3 4 3 8 5 9 8 5 12 9 18 14 23 15 33 31 28 25 36 44 42 60
0 0 0 0 0 0 0 0 0 0 0 0 0 0 0 0 0 0 0 0 0 0 0 0 0 0 0 0 1 0 1 0 0 0 0 0 1 0 1 0 1 2 1 1 2 3 3 4 7 4 3 6 8 10 9 10 15 12 14 14 22 23 26 35 32 47 46 40 57
